<?xml version="1.0"?>
<MethodSetup Method="BDT::AdaBoostDefault_NewTests">
  <GeneralInfo>
    <Info name="TMVA Release" value="4.1.2 [262402]"/>
    <Info name="ROOT Release" value="5.32/00 [335872]"/>
    <Info name="Creator" value="dnoonan"/>
    <Info name="Date" value="Tue Jun 25 22:55:47 2013"/>
    <Info name="Host" value="Linux lxbuild168.cern.ch 2.6.18-308.1.1.el5 #1 SMP Wed Mar 7 19:25:07 CET 2012 x86_64 x86_64 x86_64 GNU/Linux"/>
    <Info name="Dir" value="/home/t3-ku/dnoonan/TMVA-v4.1.2/test"/>
    <Info name="Training events" value="400000"/>
    <Info name="TrainingTime" value="2.55715291e+02"/>
    <Info name="AnalysisType" value="Classification"/>
  </GeneralInfo>
  <Options>
    <Option name="V" modified="No">False</Option>
    <Option name="VerbosityLevel" modified="No">Default</Option>
    <Option name="VarTransform" modified="No">None</Option>
    <Option name="H" modified="No">False</Option>
    <Option name="CreateMVAPdfs" modified="No">False</Option>
    <Option name="IgnoreNegWeightsInTraining" modified="No">False</Option>
    <Option name="NTrees" modified="No">400</Option>
    <Option name="RenormByClass" modified="No">False</Option>
    <Option name="BoostType" modified="Yes">AdaBoost</Option>
    <Option name="AdaBoostR2Loss" modified="No">quadratic</Option>
    <Option name="UseBaggedGrad" modified="No">False</Option>
    <Option name="GradBaggingFraction" modified="No">6.000000e-01</Option>
    <Option name="Shrinkage" modified="No">1.000000e+00</Option>
    <Option name="AdaBoostBeta" modified="No">1.000000e+00</Option>
    <Option name="UseRandomisedTrees" modified="No">False</Option>
    <Option name="UseNvars" modified="No">4</Option>
    <Option name="UsePoissonNvars" modified="No">True</Option>
    <Option name="UseNTrainEvents" modified="No">400000</Option>
    <Option name="UseWeightedTrees" modified="No">True</Option>
    <Option name="UseYesNoLeaf" modified="No">True</Option>
    <Option name="NodePurityLimit" modified="No">5.000000e-01</Option>
    <Option name="SeparationType" modified="No">giniindex</Option>
    <Option name="nEventsMin" modified="No">236</Option>
    <Option name="nCuts" modified="No">20</Option>
    <Option name="UseFisherCuts" modified="No">False</Option>
    <Option name="MinLinCorrForFisher" modified="No">8.000000e-01</Option>
    <Option name="UseExclusiveVars" modified="No">False</Option>
    <Option name="PruneStrength" modified="No">0.000000e+00</Option>
    <Option name="PruneMethod" modified="No">nopruning</Option>
    <Option name="PruneBeforeBoost" modified="No">False</Option>
    <Option name="PruningValFraction" modified="No">5.000000e-01</Option>
    <Option name="NNodesMax" modified="No">100000</Option>
    <Option name="MaxDepth" modified="No">3</Option>
    <Option name="DoBoostMonitor" modified="No">False</Option>
    <Option name="NegWeightTreatment" modified="No">inverseboostnegweights</Option>
  </Options>
  <Variables NVar="13">
    <Variable VarIndex="0" Expression="ptjet" Label="ptjet" Title="ptjet" Unit="" Internal="ptjet" Type="F" Min="3.00005665e+01" Max="1.02277698e+03"/>
    <Variable VarIndex="1" Expression="ptsys" Label="ptsys" Title="ptsys" Unit="" Internal="ptsys" Type="F" Min="1.21915713e-01" Max="4.40030334e+02"/>
    <Variable VarIndex="2" Expression="ht" Label="ht" Title="ht" Unit="" Internal="ht" Type="F" Min="8.31749496e+01" Max="2.04478857e+03"/>
    <Variable VarIndex="3" Expression="NlooseJet20" Label="NlooseJet20" Title="NlooseJet20" Unit="" Internal="NlooseJet20" Type="I" Min="0.00000000e+00" Max="1.00000000e+01"/>
    <Variable VarIndex="4" Expression="NlooseJet20Central" Label="NlooseJet20Central" Title="NlooseJet20Central" Unit="" Internal="NlooseJet20Central" Type="I" Min="0.00000000e+00" Max="7.00000000e+00"/>
    <Variable VarIndex="5" Expression="NbtaggedlooseJet20" Label="NbtaggedlooseJet20" Title="NbtaggedlooseJet20" Unit="" Internal="NbtaggedlooseJet20" Type="I" Min="0.00000000e+00" Max="3.00000000e+00"/>
    <Variable VarIndex="6" Expression="centralityJLL" Label="centralityJLL" Title="centralityJLL" Unit="" Internal="centralityJLL" Type="F" Min="1.82813331e-01" Max="9.97759104e-01"/>
    <Variable VarIndex="7" Expression="loosejetPt" Label="loosejetPt" Title="loosejetPt" Unit="" Internal="loosejetPt" Type="F" Min="0.00000000e+00" Max="5.13822632e+02"/>
    <Variable VarIndex="8" Expression="ptsys_ht" Label="ptsys_ht" Title="ptsys_ht" Unit="" Internal="ptsys_ht" Type="F" Min="2.31805141e-04" Max="9.65548933e-01"/>
    <Variable VarIndex="9" Expression="msys" Label="msys" Title="msys" Unit="" Internal="msys" Type="F" Min="7.75525055e+01" Max="2.97972021e+03"/>
    <Variable VarIndex="10" Expression="htleps_ht" Label="htleps_ht" Title="htleps_ht" Unit="" Internal="htleps_ht" Type="F" Min="7.07010925e-02" Max="9.18716371e-01"/>
    <Variable VarIndex="11" Expression="ptjll" Label="ptjll" Title="ptjll" Unit="" Internal="ptjll" Type="F" Min="4.72118668e-02" Max="8.57339661e+02"/>
    <Variable VarIndex="12" Expression="met" Label="met" Title="met" Unit="" Internal="met" Type="F" Min="1.07028998e-01" Max="8.49327942e+02"/>
  </Variables>
  <Spectators NSpec="0"/>
  <Classes NClass="2">
    <Class Name="Signal" Index="0"/>
    <Class Name="Background" Index="1"/>
  </Classes>
  <Transformations NTransformations="0"/>
  <MVAPdfs/>
  <Weights NTrees="400" AnalysisType="0">
    <BinaryTree type="DecisionTree" boostWeight="4.6160560040407334e-01" itree="0">
      <Node pos="s" depth="0" NCoef="0" IVar="3" Cut="4.7619047760963440e-01" cType="1" res="-9.9000000000000000e+01" rms="0.0000000000000000e+00" purity="5.0000000000000000e-01" nType="0">
        <Node pos="l" depth="1" NCoef="0" IVar="-1" Cut="2.4777291870117188e+02" cType="1" res="-9.9000000000000000e+01" rms="0.0000000000000000e+00" purity="6.7270064353942871e-01" nType="1"/>
        <Node pos="r" depth="1" NCoef="0" IVar="5" Cut="1.4285714924335480e-01" cType="1" res="-9.9000000000000000e+01" rms="0.0000000000000000e+00" purity="4.1831853985786438e-01" nType="0">
          <Node pos="l" depth="2" NCoef="0" IVar="3" Cut="1.4285714626312256e+00" cType="1" res="-9.9000000000000000e+01" rms="0.0000000000000000e+00" purity="4.5353502035140991e-01" nType="0">
            <Node pos="l" depth="3" NCoef="0" IVar="-1" Cut="0.0000000000000000e+00" cType="1" res="-9.9000000000000000e+01" rms="0.0000000000000000e+00" purity="5.0378447771072388e-01" nType="1"/>
            <Node pos="r" depth="3" NCoef="0" IVar="-1" Cut="0.0000000000000000e+00" cType="1" res="-9.9000000000000000e+01" rms="0.0000000000000000e+00" purity="3.8459050655364990e-01" nType="-1"/>
          </Node>
          <Node pos="r" depth="2" NCoef="0" IVar="-1" Cut="5.6150211334228516e+01" cType="1" res="-9.9000000000000000e+01" rms="0.0000000000000000e+00" purity="2.3762220144271851e-01" nType="-1"/>
        </Node>
      </Node>
    </BinaryTree>
    <BinaryTree type="DecisionTree" boostWeight="3.3627958379932021e-01" itree="1">
      <Node pos="s" depth="0" NCoef="0" IVar="3" Cut="4.7619047760963440e-01" cType="1" res="-9.9000000000000000e+01" rms="0.0000000000000000e+00" purity="4.6419909596443176e-01" nType="0">
        <Node pos="l" depth="1" NCoef="0" IVar="2" Cut="2.4777291870117188e+02" cType="1" res="-9.9000000000000000e+01" rms="0.0000000000000000e+00" purity="5.6434607505798340e-01" nType="0">
          <Node pos="l" depth="2" NCoef="0" IVar="-1" Cut="3.0643936157226562e+01" cType="1" res="-9.9000000000000000e+01" rms="0.0000000000000000e+00" purity="6.3200151920318604e-01" nType="1"/>
          <Node pos="r" depth="2" NCoef="0" IVar="10" Cut="3.8344839215278625e-01" cType="0" res="-9.9000000000000000e+01" rms="0.0000000000000000e+00" purity="5.0257229804992676e-01" nType="0">
            <Node pos="l" depth="3" NCoef="0" IVar="-1" Cut="0.0000000000000000e+00" cType="1" res="-9.9000000000000000e+01" rms="0.0000000000000000e+00" purity="5.3917187452316284e-01" nType="1"/>
            <Node pos="r" depth="3" NCoef="0" IVar="-1" Cut="0.0000000000000000e+00" cType="1" res="-9.9000000000000000e+01" rms="0.0000000000000000e+00" purity="4.3758073449134827e-01" nType="-1"/>
          </Node>
        </Node>
        <Node pos="r" depth="1" NCoef="0" IVar="-1" Cut="1.4285714626312256e+00" cType="0" res="-9.9000000000000000e+01" rms="0.0000000000000000e+00" purity="4.1878536343574524e-01" nType="-1"/>
      </Node>
    </BinaryTree>
    <BinaryTree type="DecisionTree" boostWeight="2.4226700261267120e-01" itree="2">
      <Node pos="s" depth="0" NCoef="0" IVar="1" Cut="4.2017955780029297e+01" cType="1" res="-9.9000000000000000e+01" rms="0.0000000000000000e+00" purity="5.0545430183410645e-01" nType="0">
        <Node pos="l" depth="1" NCoef="0" IVar="2" Cut="2.4777291870117188e+02" cType="1" res="-9.9000000000000000e+01" rms="0.0000000000000000e+00" purity="5.3436976671218872e-01" nType="0">
          <Node pos="l" depth="2" NCoef="0" IVar="5" Cut="9.5238097012042999e-02" cType="1" res="-9.9000000000000000e+01" rms="0.0000000000000000e+00" purity="5.7114714384078979e-01" nType="0">
            <Node pos="l" depth="3" NCoef="0" IVar="-1" Cut="0.0000000000000000e+00" cType="1" res="-9.9000000000000000e+01" rms="0.0000000000000000e+00" purity="5.7994019985198975e-01" nType="1"/>
            <Node pos="r" depth="3" NCoef="0" IVar="-1" Cut="0.0000000000000000e+00" cType="1" res="-9.9000000000000000e+01" rms="0.0000000000000000e+00" purity="4.7029787302017212e-01" nType="-1"/>
          </Node>
          <Node pos="r" depth="2" NCoef="0" IVar="3" Cut="1.3333333730697632e+00" cType="0" res="-9.9000000000000000e+01" rms="0.0000000000000000e+00" purity="5.0001323223114014e-01" nType="0">
            <Node pos="l" depth="3" NCoef="0" IVar="-1" Cut="0.0000000000000000e+00" cType="1" res="-9.9000000000000000e+01" rms="0.0000000000000000e+00" purity="5.6928110122680664e-01" nType="1"/>
            <Node pos="r" depth="3" NCoef="0" IVar="-1" Cut="0.0000000000000000e+00" cType="1" res="-9.9000000000000000e+01" rms="0.0000000000000000e+00" purity="4.8145949840545654e-01" nType="-1"/>
          </Node>
        </Node>
        <Node pos="r" depth="1" NCoef="0" IVar="3" Cut="1.4285714626312256e+00" cType="0" res="-9.9000000000000000e+01" rms="0.0000000000000000e+00" purity="4.5676630735397339e-01" nType="0">
          <Node pos="l" depth="2" NCoef="0" IVar="5" Cut="1.4285714924335480e-01" cType="1" res="-9.9000000000000000e+01" rms="0.0000000000000000e+00" purity="5.1165908575057983e-01" nType="0">
            <Node pos="l" depth="3" NCoef="0" IVar="-1" Cut="0.0000000000000000e+00" cType="1" res="-9.9000000000000000e+01" rms="0.0000000000000000e+00" purity="5.4284524917602539e-01" nType="1"/>
            <Node pos="r" depth="3" NCoef="0" IVar="-1" Cut="0.0000000000000000e+00" cType="1" res="-9.9000000000000000e+01" rms="0.0000000000000000e+00" purity="3.7803465127944946e-01" nType="-1"/>
          </Node>
          <Node pos="r" depth="2" NCoef="0" IVar="-1" Cut="5.7356905937194824e-01" cType="0" res="-9.9000000000000000e+01" rms="0.0000000000000000e+00" purity="4.1171368956565857e-01" nType="-1"/>
        </Node>
      </Node>
    </BinaryTree>
    <BinaryTree type="DecisionTree" boostWeight="1.7637020097720693e-01" itree="3">
      <Node pos="s" depth="0" NCoef="0" IVar="7" Cut="2.4467744827270508e+01" cType="1" res="-9.9000000000000000e+01" rms="0.0000000000000000e+00" purity="5.0756198167800903e-01" nType="0">
        <Node pos="l" depth="1" NCoef="0" IVar="1" Cut="2.6680036544799805e+01" cType="1" res="-9.9000000000000000e+01" rms="0.0000000000000000e+00" purity="5.3621494770050049e-01" nType="0">
          <Node pos="l" depth="2" NCoef="0" IVar="-1" Cut="1.1904761791229248e+00" cType="0" res="-9.9000000000000000e+01" rms="0.0000000000000000e+00" purity="5.6365150213241577e-01" nType="1"/>
          <Node pos="r" depth="2" NCoef="0" IVar="3" Cut="2.8571429848670959e-01" cType="0" res="-9.9000000000000000e+01" rms="0.0000000000000000e+00" purity="5.1121371984481812e-01" nType="0">
            <Node pos="l" depth="3" NCoef="0" IVar="-1" Cut="0.0000000000000000e+00" cType="1" res="-9.9000000000000000e+01" rms="0.0000000000000000e+00" purity="5.3588944673538208e-01" nType="1"/>
            <Node pos="r" depth="3" NCoef="0" IVar="-1" Cut="0.0000000000000000e+00" cType="1" res="-9.9000000000000000e+01" rms="0.0000000000000000e+00" purity="4.8894050717353821e-01" nType="-1"/>
          </Node>
        </Node>
        <Node pos="r" depth="1" NCoef="0" IVar="10" Cut="4.0027815103530884e-01" cType="0" res="-9.9000000000000000e+01" rms="0.0000000000000000e+00" purity="4.7640708088874817e-01" nType="0">
          <Node pos="l" depth="2" NCoef="0" IVar="6" Cut="5.7088273763656616e-01" cType="0" res="-9.9000000000000000e+01" rms="0.0000000000000000e+00" purity="5.0264912843704224e-01" nType="0">
            <Node pos="l" depth="3" NCoef="0" IVar="-1" Cut="0.0000000000000000e+00" cType="1" res="-9.9000000000000000e+01" rms="0.0000000000000000e+00" purity="5.2994328737258911e-01" nType="1"/>
            <Node pos="r" depth="3" NCoef="0" IVar="-1" Cut="0.0000000000000000e+00" cType="1" res="-9.9000000000000000e+01" rms="0.0000000000000000e+00" purity="4.5621290802955627e-01" nType="-1"/>
          </Node>
          <Node pos="r" depth="2" NCoef="0" IVar="-1" Cut="2.9578396606445312e+02" cType="1" res="-9.9000000000000000e+01" rms="0.0000000000000000e+00" purity="4.3880811333656311e-01" nType="-1"/>
        </Node>
      </Node>
    </BinaryTree>
    <BinaryTree type="DecisionTree" boostWeight="1.5206872903119620e-01" itree="4">
      <Node pos="s" depth="0" NCoef="0" IVar="4" Cut="3.3333334326744080e-01" cType="1" res="-9.9000000000000000e+01" rms="0.0000000000000000e+00" purity="5.0271278619766235e-01" nType="0">
        <Node pos="l" depth="1" NCoef="0" IVar="7" Cut="3.9426803588867188e+01" cType="1" res="-9.9000000000000000e+01" rms="0.0000000000000000e+00" purity="5.2655279636383057e-01" nType="0">
          <Node pos="l" depth="2" NCoef="0" IVar="-1" Cut="1.1904761791229248e+00" cType="0" res="-9.9000000000000000e+01" rms="0.0000000000000000e+00" purity="5.3780019283294678e-01" nType="1"/>
          <Node pos="r" depth="2" NCoef="0" IVar="6" Cut="6.8730354309082031e-01" cType="0" res="-9.9000000000000000e+01" rms="0.0000000000000000e+00" purity="4.6419697999954224e-01" nType="0">
            <Node pos="l" depth="3" NCoef="0" IVar="-1" Cut="0.0000000000000000e+00" cType="1" res="-9.9000000000000000e+01" rms="0.0000000000000000e+00" purity="5.5363774299621582e-01" nType="1"/>
            <Node pos="r" depth="3" NCoef="0" IVar="-1" Cut="0.0000000000000000e+00" cType="1" res="-9.9000000000000000e+01" rms="0.0000000000000000e+00" purity="4.1479387879371643e-01" nType="-1"/>
          </Node>
        </Node>
        <Node pos="r" depth="1" NCoef="0" IVar="2" Cut="2.7287811279296875e+02" cType="1" res="-9.9000000000000000e+01" rms="0.0000000000000000e+00" purity="4.7315481305122375e-01" nType="0">
          <Node pos="l" depth="2" NCoef="0" IVar="1" Cut="5.6241161346435547e+01" cType="1" res="-9.9000000000000000e+01" rms="0.0000000000000000e+00" purity="4.9191892147064209e-01" nType="0">
            <Node pos="l" depth="3" NCoef="0" IVar="-1" Cut="0.0000000000000000e+00" cType="1" res="-9.9000000000000000e+01" rms="0.0000000000000000e+00" purity="5.0482422113418579e-01" nType="1"/>
            <Node pos="r" depth="3" NCoef="0" IVar="-1" Cut="0.0000000000000000e+00" cType="1" res="-9.9000000000000000e+01" rms="0.0000000000000000e+00" purity="4.4833213090896606e-01" nType="-1"/>
          </Node>
          <Node pos="r" depth="2" NCoef="0" IVar="-1" Cut="4.8003786802291870e-01" cType="0" res="-9.9000000000000000e+01" rms="0.0000000000000000e+00" purity="4.4567346572875977e-01" nType="-1"/>
        </Node>
      </Node>
    </BinaryTree>
    <BinaryTree type="DecisionTree" boostWeight="1.1966970291682265e-01" itree="5">
      <Node pos="s" depth="0" NCoef="0" IVar="3" Cut="1.4285714626312256e+00" cType="0" res="-9.9000000000000000e+01" rms="0.0000000000000000e+00" purity="4.8717662692070007e-01" nType="0">
        <Node pos="l" depth="1" NCoef="0" IVar="4" Cut="1.3333333730697632e+00" cType="1" res="-9.9000000000000000e+01" rms="0.0000000000000000e+00" purity="5.0960177183151245e-01" nType="0">
          <Node pos="l" depth="2" NCoef="0" IVar="5" Cut="9.5238097012042999e-02" cType="1" res="-9.9000000000000000e+01" rms="0.0000000000000000e+00" purity="5.3689700365066528e-01" nType="0">
            <Node pos="l" depth="3" NCoef="0" IVar="-1" Cut="0.0000000000000000e+00" cType="1" res="-9.9000000000000000e+01" rms="0.0000000000000000e+00" purity="5.4903799295425415e-01" nType="1"/>
            <Node pos="r" depth="3" NCoef="0" IVar="-1" Cut="0.0000000000000000e+00" cType="1" res="-9.9000000000000000e+01" rms="0.0000000000000000e+00" purity="4.5881059765815735e-01" nType="-1"/>
          </Node>
          <Node pos="r" depth="2" NCoef="0" IVar="-1" Cut="1.4285714924335480e-01" cType="1" res="-9.9000000000000000e+01" rms="0.0000000000000000e+00" purity="4.6084907650947571e-01" nType="-1"/>
        </Node>
        <Node pos="r" depth="1" NCoef="0" IVar="4" Cut="4.7619048506021500e-02" cType="1" res="-9.9000000000000000e+01" rms="0.0000000000000000e+00" purity="4.7762632369995117e-01" nType="0">
          <Node pos="l" depth="2" NCoef="0" IVar="-1" Cut="4.9494478106498718e-01" cType="0" res="-9.9000000000000000e+01" rms="0.0000000000000000e+00" purity="4.8735386133193970e-01" nType="-1"/>
          <Node pos="r" depth="2" NCoef="0" IVar="7" Cut="3.7801322937011719e+01" cType="0" res="-9.9000000000000000e+01" rms="0.0000000000000000e+00" purity="4.5451006293296814e-01" nType="0">
            <Node pos="l" depth="3" NCoef="0" IVar="-1" Cut="0.0000000000000000e+00" cType="1" res="-9.9000000000000000e+01" rms="0.0000000000000000e+00" purity="6.1373633146286011e-01" nType="1"/>
            <Node pos="r" depth="3" NCoef="0" IVar="-1" Cut="0.0000000000000000e+00" cType="1" res="-9.9000000000000000e+01" rms="0.0000000000000000e+00" purity="4.5174601674079895e-01" nType="-1"/>
          </Node>
        </Node>
      </Node>
    </BinaryTree>
    <BinaryTree type="DecisionTree" boostWeight="8.7849826930310806e-02" itree="6">
      <Node pos="s" depth="0" NCoef="0" IVar="4" Cut="3.3333334326744080e-01" cType="1" res="-9.9000000000000000e+01" rms="0.0000000000000000e+00" purity="5.0696802139282227e-01" nType="0">
        <Node pos="l" depth="1" NCoef="0" IVar="6" Cut="4.9326887726783752e-01" cType="0" res="-9.9000000000000000e+01" rms="0.0000000000000000e+00" purity="5.1980173587799072e-01" nType="0">
          <Node pos="l" depth="2" NCoef="0" IVar="11" Cut="1.1429719543457031e+02" cType="1" res="-9.9000000000000000e+01" rms="0.0000000000000000e+00" purity="5.3057968616485596e-01" nType="0">
            <Node pos="l" depth="3" NCoef="0" IVar="-1" Cut="0.0000000000000000e+00" cType="1" res="-9.9000000000000000e+01" rms="0.0000000000000000e+00" purity="5.3597497940063477e-01" nType="1"/>
            <Node pos="r" depth="3" NCoef="0" IVar="-1" Cut="0.0000000000000000e+00" cType="1" res="-9.9000000000000000e+01" rms="0.0000000000000000e+00" purity="4.8870903253555298e-01" nType="-1"/>
          </Node>
          <Node pos="r" depth="2" NCoef="0" IVar="7" Cut="3.2022300720214844e+01" cType="1" res="-9.9000000000000000e+01" rms="0.0000000000000000e+00" purity="4.8548191785812378e-01" nType="0">
            <Node pos="l" depth="3" NCoef="0" IVar="-1" Cut="0.0000000000000000e+00" cType="1" res="-9.9000000000000000e+01" rms="0.0000000000000000e+00" purity="5.0418692827224731e-01" nType="1"/>
            <Node pos="r" depth="3" NCoef="0" IVar="-1" Cut="0.0000000000000000e+00" cType="1" res="-9.9000000000000000e+01" rms="0.0000000000000000e+00" purity="4.3316373229026794e-01" nType="-1"/>
          </Node>
        </Node>
        <Node pos="r" depth="1" NCoef="0" IVar="0" Cut="2.1910095214843750e+02" cType="0" res="-9.9000000000000000e+01" rms="0.0000000000000000e+00" purity="4.9103921651840210e-01" nType="0">
          <Node pos="l" depth="2" NCoef="0" IVar="-1" Cut="2.5739447021484375e+02" cType="0" res="-9.9000000000000000e+01" rms="0.0000000000000000e+00" purity="6.9203364849090576e-01" nType="1"/>
          <Node pos="r" depth="2" NCoef="0" IVar="-1" Cut="2.8769391775131226e-01" cType="0" res="-9.9000000000000000e+01" rms="0.0000000000000000e+00" purity="4.8957669734954834e-01" nType="-1"/>
        </Node>
      </Node>
    </BinaryTree>
    <BinaryTree type="DecisionTree" boostWeight="5.9768618869797584e-02" itree="7">
      <Node pos="s" depth="0" NCoef="0" IVar="0" Cut="2.1910083007812500e+02" cType="0" res="-9.9000000000000000e+01" rms="0.0000000000000000e+00" purity="5.0812220573425293e-01" nType="0">
        <Node pos="l" depth="1" NCoef="0" IVar="-1" Cut="2.9564581298828125e+02" cType="0" res="-9.9000000000000000e+01" rms="0.0000000000000000e+00" purity="6.7039477825164795e-01" nType="1"/>
        <Node pos="r" depth="1" NCoef="0" IVar="10" Cut="2.8769391775131226e-01" cType="0" res="-9.9000000000000000e+01" rms="0.0000000000000000e+00" purity="5.0712662935256958e-01" nType="0">
          <Node pos="l" depth="2" NCoef="0" IVar="2" Cut="2.4777291870117188e+02" cType="0" res="-9.9000000000000000e+01" rms="0.0000000000000000e+00" purity="5.1122069358825684e-01" nType="0">
            <Node pos="l" depth="3" NCoef="0" IVar="-1" Cut="0.0000000000000000e+00" cType="1" res="-9.9000000000000000e+01" rms="0.0000000000000000e+00" purity="5.2304679155349731e-01" nType="1"/>
            <Node pos="r" depth="3" NCoef="0" IVar="-1" Cut="0.0000000000000000e+00" cType="1" res="-9.9000000000000000e+01" rms="0.0000000000000000e+00" purity="4.9854385852813721e-01" nType="-1"/>
          </Node>
          <Node pos="r" depth="2" NCoef="0" IVar="-1" Cut="3.3333334326744080e-01" cType="1" res="-9.9000000000000000e+01" rms="0.0000000000000000e+00" purity="4.7554165124893188e-01" nType="-1"/>
        </Node>
      </Node>
    </BinaryTree>
    <BinaryTree type="DecisionTree" boostWeight="7.1424537982880676e-02" itree="8">
      <Node pos="s" depth="0" NCoef="0" IVar="0" Cut="2.1910083007812500e+02" cType="0" res="-9.9000000000000000e+01" rms="0.0000000000000000e+00" purity="5.0928670167922974e-01" nType="0">
        <Node pos="l" depth="1" NCoef="0" IVar="-1" Cut="2.9564581298828125e+02" cType="0" res="-9.9000000000000000e+01" rms="0.0000000000000000e+00" purity="6.5705609321594238e-01" nType="1"/>
        <Node pos="r" depth="1" NCoef="0" IVar="11" Cut="1.1654661560058594e+02" cType="1" res="-9.9000000000000000e+01" rms="0.0000000000000000e+00" purity="5.0838857889175415e-01" nType="0">
          <Node pos="l" depth="2" NCoef="0" IVar="3" Cut="3.8095238804817200e-01" cType="0" res="-9.9000000000000000e+01" rms="0.0000000000000000e+00" purity="5.1203709840774536e-01" nType="0">
            <Node pos="l" depth="3" NCoef="0" IVar="-1" Cut="0.0000000000000000e+00" cType="1" res="-9.9000000000000000e+01" rms="0.0000000000000000e+00" purity="5.1935821771621704e-01" nType="1"/>
            <Node pos="r" depth="3" NCoef="0" IVar="-1" Cut="0.0000000000000000e+00" cType="1" res="-9.9000000000000000e+01" rms="0.0000000000000000e+00" purity="4.9657469987869263e-01" nType="-1"/>
          </Node>
          <Node pos="r" depth="2" NCoef="0" IVar="10" Cut="4.8935258388519287e-01" cType="0" res="-9.9000000000000000e+01" rms="0.0000000000000000e+00" purity="4.7629174590110779e-01" nType="0">
            <Node pos="l" depth="3" NCoef="0" IVar="-1" Cut="0.0000000000000000e+00" cType="1" res="-9.9000000000000000e+01" rms="0.0000000000000000e+00" purity="5.4742044210433960e-01" nType="1"/>
            <Node pos="r" depth="3" NCoef="0" IVar="-1" Cut="0.0000000000000000e+00" cType="1" res="-9.9000000000000000e+01" rms="0.0000000000000000e+00" purity="4.6007296442985535e-01" nType="-1"/>
          </Node>
        </Node>
      </Node>
    </BinaryTree>
    <BinaryTree type="DecisionTree" boostWeight="6.6944984773057326e-02" itree="9">
      <Node pos="s" depth="0" NCoef="0" IVar="1" Cut="6.2965976715087891e+01" cType="1" res="-9.9000000000000000e+01" rms="0.0000000000000000e+00" purity="5.0463074445724487e-01" nType="0">
        <Node pos="l" depth="1" NCoef="0" IVar="0" Cut="1.8905448913574219e+02" cType="0" res="-9.9000000000000000e+01" rms="0.0000000000000000e+00" purity="5.0968897342681885e-01" nType="0">
          <Node pos="l" depth="2" NCoef="0" IVar="-1" Cut="2.8602099609375000e+02" cType="0" res="-9.9000000000000000e+01" rms="0.0000000000000000e+00" purity="6.0153454542160034e-01" nType="1"/>
          <Node pos="r" depth="2" NCoef="0" IVar="7" Cut="3.8084842681884766e+01" cType="1" res="-9.9000000000000000e+01" rms="0.0000000000000000e+00" purity="5.0851696729660034e-01" nType="0">
            <Node pos="l" depth="3" NCoef="0" IVar="-1" Cut="0.0000000000000000e+00" cType="1" res="-9.9000000000000000e+01" rms="0.0000000000000000e+00" purity="5.1148819923400879e-01" nType="1"/>
            <Node pos="r" depth="3" NCoef="0" IVar="-1" Cut="0.0000000000000000e+00" cType="1" res="-9.9000000000000000e+01" rms="0.0000000000000000e+00" purity="4.7846817970275879e-01" nType="-1"/>
          </Node>
        </Node>
        <Node pos="r" depth="1" NCoef="0" IVar="2" Cut="4.6681570434570312e+02" cType="0" res="-9.9000000000000000e+01" rms="0.0000000000000000e+00" purity="4.7555589675903320e-01" nType="0">
          <Node pos="l" depth="2" NCoef="0" IVar="-1" Cut="6.1080151367187500e+02" cType="0" res="-9.9000000000000000e+01" rms="0.0000000000000000e+00" purity="5.8251345157623291e-01" nType="1"/>
          <Node pos="r" depth="2" NCoef="0" IVar="7" Cut="1.2031162261962891e+02" cType="0" res="-9.9000000000000000e+01" rms="0.0000000000000000e+00" purity="4.7132620215415955e-01" nType="0">
            <Node pos="l" depth="3" NCoef="0" IVar="-1" Cut="0.0000000000000000e+00" cType="1" res="-9.9000000000000000e+01" rms="0.0000000000000000e+00" purity="5.4012429714202881e-01" nType="1"/>
            <Node pos="r" depth="3" NCoef="0" IVar="-1" Cut="0.0000000000000000e+00" cType="1" res="-9.9000000000000000e+01" rms="0.0000000000000000e+00" purity="4.6708023548126221e-01" nType="-1"/>
          </Node>
        </Node>
      </Node>
    </BinaryTree>
    <BinaryTree type="DecisionTree" boostWeight="3.2415558732531574e-02" itree="10">
      <Node pos="s" depth="0" NCoef="0" IVar="0" Cut="2.6637591552734375e+02" cType="0" res="-9.9000000000000000e+01" rms="0.0000000000000000e+00" purity="4.9491995573043823e-01" nType="0">
        <Node pos="l" depth="1" NCoef="0" IVar="-1" Cut="3.0250646972656250e+02" cType="0" res="-9.9000000000000000e+01" rms="0.0000000000000000e+00" purity="7.3588603734970093e-01" nType="1"/>
        <Node pos="r" depth="1" NCoef="0" IVar="6" Cut="3.7684804201126099e-01" cType="0" res="-9.9000000000000000e+01" rms="0.0000000000000000e+00" purity="4.9445709586143494e-01" nType="0">
          <Node pos="l" depth="2" NCoef="0" IVar="0" Cut="1.6504223632812500e+02" cType="0" res="-9.9000000000000000e+01" rms="0.0000000000000000e+00" purity="4.9700337648391724e-01" nType="0">
            <Node pos="l" depth="3" NCoef="0" IVar="-1" Cut="0.0000000000000000e+00" cType="1" res="-9.9000000000000000e+01" rms="0.0000000000000000e+00" purity="5.4407173395156860e-01" nType="1"/>
            <Node pos="r" depth="3" NCoef="0" IVar="-1" Cut="0.0000000000000000e+00" cType="1" res="-9.9000000000000000e+01" rms="0.0000000000000000e+00" purity="4.9573233723640442e-01" nType="-1"/>
          </Node>
          <Node pos="r" depth="2" NCoef="0" IVar="-1" Cut="3.3333334326744080e-01" cType="0" res="-9.9000000000000000e+01" rms="0.0000000000000000e+00" purity="4.6673998236656189e-01" nType="-1"/>
        </Node>
      </Node>
    </BinaryTree>
    <BinaryTree type="DecisionTree" boostWeight="3.9720227617130510e-02" itree="11">
      <Node pos="s" depth="0" NCoef="0" IVar="0" Cut="2.6637591552734375e+02" cType="0" res="-9.9000000000000000e+01" rms="0.0000000000000000e+00" purity="5.0260323286056519e-01" nType="0">
        <Node pos="l" depth="1" NCoef="0" IVar="-1" Cut="3.0250646972656250e+02" cType="0" res="-9.9000000000000000e+01" rms="0.0000000000000000e+00" purity="7.2953784465789795e-01" nType="1"/>
        <Node pos="r" depth="1" NCoef="0" IVar="6" Cut="3.7684804201126099e-01" cType="0" res="-9.9000000000000000e+01" rms="0.0000000000000000e+00" purity="5.0217050313949585e-01" nType="0">
          <Node pos="l" depth="2" NCoef="0" IVar="5" Cut="1.4285714924335480e-01" cType="1" res="-9.9000000000000000e+01" rms="0.0000000000000000e+00" purity="5.0468122959136963e-01" nType="0">
            <Node pos="l" depth="3" NCoef="0" IVar="-1" Cut="0.0000000000000000e+00" cType="1" res="-9.9000000000000000e+01" rms="0.0000000000000000e+00" purity="5.0705647468566895e-01" nType="1"/>
            <Node pos="r" depth="3" NCoef="0" IVar="-1" Cut="0.0000000000000000e+00" cType="1" res="-9.9000000000000000e+01" rms="0.0000000000000000e+00" purity="4.8328843712806702e-01" nType="-1"/>
          </Node>
          <Node pos="r" depth="2" NCoef="0" IVar="4" Cut="3.3333334326744080e-01" cType="0" res="-9.9000000000000000e+01" rms="0.0000000000000000e+00" purity="4.7481602430343628e-01" nType="0">
            <Node pos="l" depth="3" NCoef="0" IVar="-1" Cut="0.0000000000000000e+00" cType="1" res="-9.9000000000000000e+01" rms="0.0000000000000000e+00" purity="5.0066000223159790e-01" nType="1"/>
            <Node pos="r" depth="3" NCoef="0" IVar="-1" Cut="0.0000000000000000e+00" cType="1" res="-9.9000000000000000e+01" rms="0.0000000000000000e+00" purity="4.5664125680923462e-01" nType="-1"/>
          </Node>
        </Node>
      </Node>
    </BinaryTree>
    <BinaryTree type="DecisionTree" boostWeight="5.6026779939429359e-02" itree="12">
      <Node pos="s" depth="0" NCoef="0" IVar="0" Cut="2.6637591552734375e+02" cType="0" res="-9.9000000000000000e+01" rms="0.0000000000000000e+00" purity="4.9546507000923157e-01" nType="0">
        <Node pos="l" depth="1" NCoef="0" IVar="-1" Cut="3.0250646972656250e+02" cType="0" res="-9.9000000000000000e+01" rms="0.0000000000000000e+00" purity="7.2162950038909912e-01" nType="1"/>
        <Node pos="r" depth="1" NCoef="0" IVar="6" Cut="7.6491743326187134e-01" cType="0" res="-9.9000000000000000e+01" rms="0.0000000000000000e+00" purity="4.9503764510154724e-01" nType="0">
          <Node pos="l" depth="2" NCoef="0" IVar="4" Cut="2.8571429848670959e-01" cType="1" res="-9.9000000000000000e+01" rms="0.0000000000000000e+00" purity="5.0643926858901978e-01" nType="0">
            <Node pos="l" depth="3" NCoef="0" IVar="-1" Cut="0.0000000000000000e+00" cType="1" res="-9.9000000000000000e+01" rms="0.0000000000000000e+00" purity="5.2116197347640991e-01" nType="1"/>
            <Node pos="r" depth="3" NCoef="0" IVar="-1" Cut="0.0000000000000000e+00" cType="1" res="-9.9000000000000000e+01" rms="0.0000000000000000e+00" purity="4.8927649855613708e-01" nType="-1"/>
          </Node>
          <Node pos="r" depth="2" NCoef="0" IVar="3" Cut="1.4285714626312256e+00" cType="0" res="-9.9000000000000000e+01" rms="0.0000000000000000e+00" purity="4.8978185653686523e-01" nType="0">
            <Node pos="l" depth="3" NCoef="0" IVar="-1" Cut="0.0000000000000000e+00" cType="1" res="-9.9000000000000000e+01" rms="0.0000000000000000e+00" purity="5.0353157520294189e-01" nType="1"/>
            <Node pos="r" depth="3" NCoef="0" IVar="-1" Cut="0.0000000000000000e+00" cType="1" res="-9.9000000000000000e+01" rms="0.0000000000000000e+00" purity="4.8383197188377380e-01" nType="-1"/>
          </Node>
        </Node>
      </Node>
    </BinaryTree>
    <BinaryTree type="DecisionTree" boostWeight="3.4658301139433426e-02" itree="13">
      <Node pos="s" depth="0" NCoef="0" IVar="0" Cut="2.6637591552734375e+02" cType="0" res="-9.9000000000000000e+01" rms="0.0000000000000000e+00" purity="4.9888816475868225e-01" nType="0">
        <Node pos="l" depth="1" NCoef="0" IVar="-1" Cut="3.0250646972656250e+02" cType="0" res="-9.9000000000000000e+01" rms="0.0000000000000000e+00" purity="7.1023631095886230e-01" nType="1"/>
        <Node pos="r" depth="1" NCoef="0" IVar="1" Cut="2.1069934844970703e+01" cType="1" res="-9.9000000000000000e+01" rms="0.0000000000000000e+00" purity="4.9849337339401245e-01" nType="0">
          <Node pos="l" depth="2" NCoef="0" IVar="2" Cut="2.9554812622070312e+02" cType="1" res="-9.9000000000000000e+01" rms="0.0000000000000000e+00" purity="5.1182460784912109e-01" nType="0">
            <Node pos="l" depth="3" NCoef="0" IVar="-1" Cut="0.0000000000000000e+00" cType="1" res="-9.9000000000000000e+01" rms="0.0000000000000000e+00" purity="5.1939392089843750e-01" nType="1"/>
            <Node pos="r" depth="3" NCoef="0" IVar="-1" Cut="0.0000000000000000e+00" cType="1" res="-9.9000000000000000e+01" rms="0.0000000000000000e+00" purity="4.9188974499702454e-01" nType="-1"/>
          </Node>
          <Node pos="r" depth="2" NCoef="0" IVar="-1" Cut="3.3333332538604736e+00" cType="1" res="-9.9000000000000000e+01" rms="0.0000000000000000e+00" purity="4.9425604939460754e-01" nType="-1"/>
        </Node>
      </Node>
    </BinaryTree>
    <BinaryTree type="DecisionTree" boostWeight="3.5727905676690923e-02" itree="14">
      <Node pos="s" depth="0" NCoef="0" IVar="0" Cut="2.6637591552734375e+02" cType="0" res="-9.9000000000000000e+01" rms="0.0000000000000000e+00" purity="5.0449758768081665e-01" nType="0">
        <Node pos="l" depth="1" NCoef="0" IVar="-1" Cut="3.0250646972656250e+02" cType="0" res="-9.9000000000000000e+01" rms="0.0000000000000000e+00" purity="7.0305192470550537e-01" nType="1"/>
        <Node pos="r" depth="1" NCoef="0" IVar="3" Cut="3.3333332538604736e+00" cType="1" res="-9.9000000000000000e+01" rms="0.0000000000000000e+00" purity="5.0412923097610474e-01" nType="0">
          <Node pos="l" depth="2" NCoef="0" IVar="0" Cut="8.6267929077148438e+01" cType="1" res="-9.9000000000000000e+01" rms="0.0000000000000000e+00" purity="5.0525283813476562e-01" nType="0">
            <Node pos="l" depth="3" NCoef="0" IVar="-1" Cut="0.0000000000000000e+00" cType="1" res="-9.9000000000000000e+01" rms="0.0000000000000000e+00" purity="5.0949865579605103e-01" nType="1"/>
            <Node pos="r" depth="3" NCoef="0" IVar="-1" Cut="0.0000000000000000e+00" cType="1" res="-9.9000000000000000e+01" rms="0.0000000000000000e+00" purity="4.9635234475135803e-01" nType="-1"/>
          </Node>
          <Node pos="r" depth="2" NCoef="0" IVar="9" Cut="5.6796929931640625e+02" cType="0" res="-9.9000000000000000e+01" rms="0.0000000000000000e+00" purity="4.5944124460220337e-01" nType="0">
            <Node pos="l" depth="3" NCoef="0" IVar="-1" Cut="0.0000000000000000e+00" cType="1" res="-9.9000000000000000e+01" rms="0.0000000000000000e+00" purity="5.6540948152542114e-01" nType="1"/>
            <Node pos="r" depth="3" NCoef="0" IVar="-1" Cut="0.0000000000000000e+00" cType="1" res="-9.9000000000000000e+01" rms="0.0000000000000000e+00" purity="4.5410606265068054e-01" nType="-1"/>
          </Node>
        </Node>
      </Node>
    </BinaryTree>
    <BinaryTree type="DecisionTree" boostWeight="2.6311722129001909e-02" itree="15">
      <Node pos="s" depth="0" NCoef="0" IVar="0" Cut="1.7182577514648438e+02" cType="0" res="-9.9000000000000000e+01" rms="0.0000000000000000e+00" purity="5.0160032510757446e-01" nType="0">
        <Node pos="l" depth="1" NCoef="0" IVar="0" Cut="2.9339462280273438e+02" cType="0" res="-9.9000000000000000e+01" rms="0.0000000000000000e+00" purity="5.6278556585311890e-01" nType="0">
          <Node pos="l" depth="2" NCoef="0" IVar="-1" Cut="0.0000000000000000e+00" cType="1" res="-9.9000000000000000e+01" rms="0.0000000000000000e+00" purity="7.4622189998626709e-01" nType="1"/>
          <Node pos="r" depth="2" NCoef="0" IVar="11" Cut="1.7779185485839844e+02" cType="1" res="-9.9000000000000000e+01" rms="0.0000000000000000e+00" purity="5.5332821607589722e-01" nType="0">
            <Node pos="l" depth="3" NCoef="0" IVar="-1" Cut="0.0000000000000000e+00" cType="1" res="-9.9000000000000000e+01" rms="0.0000000000000000e+00" purity="5.7871812582015991e-01" nType="1"/>
            <Node pos="r" depth="3" NCoef="0" IVar="-1" Cut="0.0000000000000000e+00" cType="1" res="-9.9000000000000000e+01" rms="0.0000000000000000e+00" purity="4.7276678681373596e-01" nType="-1"/>
          </Node>
        </Node>
        <Node pos="r" depth="1" NCoef="0" IVar="4" Cut="2.3333332538604736e+00" cType="1" res="-9.9000000000000000e+01" rms="0.0000000000000000e+00" purity="5.0022375583648682e-01" nType="0">
          <Node pos="l" depth="2" NCoef="0" IVar="6" Cut="8.0372440814971924e-01" cType="0" res="-9.9000000000000000e+01" rms="0.0000000000000000e+00" purity="5.0100314617156982e-01" nType="0">
            <Node pos="l" depth="3" NCoef="0" IVar="-1" Cut="0.0000000000000000e+00" cType="1" res="-9.9000000000000000e+01" rms="0.0000000000000000e+00" purity="5.1075661182403564e-01" nType="1"/>
            <Node pos="r" depth="3" NCoef="0" IVar="-1" Cut="0.0000000000000000e+00" cType="1" res="-9.9000000000000000e+01" rms="0.0000000000000000e+00" purity="4.9785861372947693e-01" nType="-1"/>
          </Node>
          <Node pos="r" depth="2" NCoef="0" IVar="9" Cut="5.6086651611328125e+02" cType="0" res="-9.9000000000000000e+01" rms="0.0000000000000000e+00" purity="4.5683801174163818e-01" nType="0">
            <Node pos="l" depth="3" NCoef="0" IVar="-1" Cut="0.0000000000000000e+00" cType="1" res="-9.9000000000000000e+01" rms="0.0000000000000000e+00" purity="5.8053922653198242e-01" nType="1"/>
            <Node pos="r" depth="3" NCoef="0" IVar="-1" Cut="0.0000000000000000e+00" cType="1" res="-9.9000000000000000e+01" rms="0.0000000000000000e+00" purity="4.5208811759948730e-01" nType="-1"/>
          </Node>
        </Node>
      </Node>
    </BinaryTree>
    <BinaryTree type="DecisionTree" boostWeight="2.4682283187512085e-02" itree="16">
      <Node pos="s" depth="0" NCoef="0" IVar="0" Cut="2.1910083007812500e+02" cType="0" res="-9.9000000000000000e+01" rms="0.0000000000000000e+00" purity="5.0486552715301514e-01" nType="0">
        <Node pos="l" depth="1" NCoef="0" IVar="-1" Cut="2.9564581298828125e+02" cType="0" res="-9.9000000000000000e+01" rms="0.0000000000000000e+00" purity="6.1234778165817261e-01" nType="1"/>
        <Node pos="r" depth="1" NCoef="0" IVar="4" Cut="2.3333332538604736e+00" cType="1" res="-9.9000000000000000e+01" rms="0.0000000000000000e+00" purity="5.0423449277877808e-01" nType="0">
          <Node pos="l" depth="2" NCoef="0" IVar="-1" Cut="1.4705677795410156e+02" cType="0" res="-9.9000000000000000e+01" rms="0.0000000000000000e+00" purity="5.0497865676879883e-01" nType="1"/>
          <Node pos="r" depth="2" NCoef="0" IVar="-1" Cut="1.4285714924335480e-01" cType="1" res="-9.9000000000000000e+01" rms="0.0000000000000000e+00" purity="4.6283411979675293e-01" nType="-1"/>
        </Node>
      </Node>
    </BinaryTree>
    <BinaryTree type="DecisionTree" boostWeight="1.6982059885951729e-02" itree="17">
      <Node pos="s" depth="0" NCoef="0" IVar="0" Cut="2.1910083007812500e+02" cType="0" res="-9.9000000000000000e+01" rms="0.0000000000000000e+00" purity="4.9891167879104614e-01" nType="0">
        <Node pos="l" depth="1" NCoef="0" IVar="0" Cut="2.9564581298828125e+02" cType="0" res="-9.9000000000000000e+01" rms="0.0000000000000000e+00" purity="6.0647279024124146e-01" nType="0">
          <Node pos="l" depth="2" NCoef="0" IVar="-1" Cut="0.0000000000000000e+00" cType="1" res="-9.9000000000000000e+01" rms="0.0000000000000000e+00" purity="7.3324835300445557e-01" nType="1"/>
          <Node pos="r" depth="2" NCoef="0" IVar="11" Cut="1.7909588623046875e+02" cType="1" res="-9.9000000000000000e+01" rms="0.0000000000000000e+00" purity="5.7949799299240112e-01" nType="0">
            <Node pos="l" depth="3" NCoef="0" IVar="-1" Cut="0.0000000000000000e+00" cType="1" res="-9.9000000000000000e+01" rms="0.0000000000000000e+00" purity="6.3082277774810791e-01" nType="1"/>
            <Node pos="r" depth="3" NCoef="0" IVar="-1" Cut="0.0000000000000000e+00" cType="1" res="-9.9000000000000000e+01" rms="0.0000000000000000e+00" purity="4.9646428227424622e-01" nType="-1"/>
          </Node>
        </Node>
        <Node pos="r" depth="1" NCoef="0" IVar="0" Cut="1.4705677795410156e+02" cType="0" res="-9.9000000000000000e+01" rms="0.0000000000000000e+00" purity="4.9828195571899414e-01" nType="0">
          <Node pos="l" depth="2" NCoef="0" IVar="-1" Cut="4.9673867225646973e-01" cType="0" res="-9.9000000000000000e+01" rms="0.0000000000000000e+00" purity="5.2312934398651123e-01" nType="1"/>
          <Node pos="r" depth="2" NCoef="0" IVar="-1" Cut="3.3333332538604736e+00" cType="1" res="-9.9000000000000000e+01" rms="0.0000000000000000e+00" purity="4.9720847606658936e-01" nType="-1"/>
        </Node>
      </Node>
    </BinaryTree>
    <BinaryTree type="DecisionTree" boostWeight="2.5401922651036433e-02" itree="18">
      <Node pos="s" depth="0" NCoef="0" IVar="0" Cut="2.1910083007812500e+02" cType="0" res="-9.9000000000000000e+01" rms="0.0000000000000000e+00" purity="5.0277382135391235e-01" nType="0">
        <Node pos="l" depth="1" NCoef="0" IVar="-1" Cut="2.9564581298828125e+02" cType="0" res="-9.9000000000000000e+01" rms="0.0000000000000000e+00" purity="6.0509574413299561e-01" nType="1"/>
        <Node pos="r" depth="1" NCoef="0" IVar="11" Cut="7.7713478088378906e+01" cType="1" res="-9.9000000000000000e+01" rms="0.0000000000000000e+00" purity="5.0217586755752563e-01" nType="0">
          <Node pos="l" depth="2" NCoef="0" IVar="-1" Cut="1.3788848876953125e+02" cType="0" res="-9.9000000000000000e+01" rms="0.0000000000000000e+00" purity="5.0590091943740845e-01" nType="1"/>
          <Node pos="r" depth="2" NCoef="0" IVar="7" Cut="1.2233872222900391e+02" cType="0" res="-9.9000000000000000e+01" rms="0.0000000000000000e+00" purity="4.9614050984382629e-01" nType="0">
            <Node pos="l" depth="3" NCoef="0" IVar="-1" Cut="0.0000000000000000e+00" cType="1" res="-9.9000000000000000e+01" rms="0.0000000000000000e+00" purity="5.5096620321273804e-01" nType="1"/>
            <Node pos="r" depth="3" NCoef="0" IVar="-1" Cut="0.0000000000000000e+00" cType="1" res="-9.9000000000000000e+01" rms="0.0000000000000000e+00" purity="4.9520710110664368e-01" nType="-1"/>
          </Node>
        </Node>
      </Node>
    </BinaryTree>
    <BinaryTree type="DecisionTree" boostWeight="2.1939325794322864e-02" itree="19">
      <Node pos="s" depth="0" NCoef="0" IVar="0" Cut="2.6637591552734375e+02" cType="0" res="-9.9000000000000000e+01" rms="0.0000000000000000e+00" purity="5.0116211175918579e-01" nType="0">
        <Node pos="l" depth="1" NCoef="0" IVar="-1" Cut="2.3984067916870117e+01" cType="0" res="-9.9000000000000000e+01" rms="0.0000000000000000e+00" purity="6.7928397655487061e-01" nType="1"/>
        <Node pos="r" depth="1" NCoef="0" IVar="0" Cut="1.9880265808105469e+02" cType="0" res="-9.9000000000000000e+01" rms="0.0000000000000000e+00" purity="5.0083923339843750e-01" nType="0">
          <Node pos="l" depth="2" NCoef="0" IVar="11" Cut="1.7540704345703125e+02" cType="1" res="-9.9000000000000000e+01" rms="0.0000000000000000e+00" purity="5.6336992979049683e-01" nType="0">
            <Node pos="l" depth="3" NCoef="0" IVar="-1" Cut="0.0000000000000000e+00" cType="1" res="-9.9000000000000000e+01" rms="0.0000000000000000e+00" purity="6.0393446683883667e-01" nType="1"/>
            <Node pos="r" depth="3" NCoef="0" IVar="-1" Cut="0.0000000000000000e+00" cType="1" res="-9.9000000000000000e+01" rms="0.0000000000000000e+00" purity="4.8146316409111023e-01" nType="-1"/>
          </Node>
          <Node pos="r" depth="2" NCoef="0" IVar="8" Cut="1.3838662207126617e-01" cType="1" res="-9.9000000000000000e+01" rms="0.0000000000000000e+00" purity="5.0031554698944092e-01" nType="0">
            <Node pos="l" depth="3" NCoef="0" IVar="-1" Cut="0.0000000000000000e+00" cType="1" res="-9.9000000000000000e+01" rms="0.0000000000000000e+00" purity="5.0469505786895752e-01" nType="1"/>
            <Node pos="r" depth="3" NCoef="0" IVar="-1" Cut="0.0000000000000000e+00" cType="1" res="-9.9000000000000000e+01" rms="0.0000000000000000e+00" purity="4.9554678797721863e-01" nType="-1"/>
          </Node>
        </Node>
      </Node>
    </BinaryTree>
    <BinaryTree type="DecisionTree" boostWeight="5.8164203645301145e-03" itree="20">
      <Node pos="s" depth="0" NCoef="0" IVar="0" Cut="2.6637591552734375e+02" cType="0" res="-9.9000000000000000e+01" rms="0.0000000000000000e+00" purity="5.0090599060058594e-01" nType="0">
        <Node pos="l" depth="1" NCoef="0" IVar="-1" Cut="2.3984067916870117e+01" cType="0" res="-9.9000000000000000e+01" rms="0.0000000000000000e+00" purity="6.7448562383651733e-01" nType="1"/>
        <Node pos="r" depth="1" NCoef="0" IVar="0" Cut="1.9880265808105469e+02" cType="0" res="-9.9000000000000000e+01" rms="0.0000000000000000e+00" purity="5.0059252977371216e-01" nType="0">
          <Node pos="l" depth="2" NCoef="0" IVar="11" Cut="1.7540704345703125e+02" cType="1" res="-9.9000000000000000e+01" rms="0.0000000000000000e+00" purity="5.6162077188491821e-01" nType="0">
            <Node pos="l" depth="3" NCoef="0" IVar="-1" Cut="0.0000000000000000e+00" cType="1" res="-9.9000000000000000e+01" rms="0.0000000000000000e+00" purity="5.9867477416992188e-01" nType="1"/>
            <Node pos="r" depth="3" NCoef="0" IVar="-1" Cut="0.0000000000000000e+00" cType="1" res="-9.9000000000000000e+01" rms="0.0000000000000000e+00" purity="4.8694241046905518e-01" nType="-1"/>
          </Node>
          <Node pos="r" depth="2" NCoef="0" IVar="7" Cut="1.4680647277832031e+02" cType="0" res="-9.9000000000000000e+01" rms="0.0000000000000000e+00" purity="5.0008219480514526e-01" nType="0">
            <Node pos="l" depth="3" NCoef="0" IVar="-1" Cut="0.0000000000000000e+00" cType="1" res="-9.9000000000000000e+01" rms="0.0000000000000000e+00" purity="5.6888085603713989e-01" nType="1"/>
            <Node pos="r" depth="3" NCoef="0" IVar="-1" Cut="0.0000000000000000e+00" cType="1" res="-9.9000000000000000e+01" rms="0.0000000000000000e+00" purity="4.9975818395614624e-01" nType="-1"/>
          </Node>
        </Node>
      </Node>
    </BinaryTree>
    <BinaryTree type="DecisionTree" boostWeight="9.5559484015053219e-03" itree="21">
      <Node pos="s" depth="0" NCoef="0" IVar="0" Cut="2.6637591552734375e+02" cType="0" res="-9.9000000000000000e+01" rms="0.0000000000000000e+00" purity="5.0232529640197754e-01" nType="0">
        <Node pos="l" depth="1" NCoef="0" IVar="-1" Cut="2.3984067916870117e+01" cType="0" res="-9.9000000000000000e+01" rms="0.0000000000000000e+00" purity="6.7320734262466431e-01" nType="1"/>
        <Node pos="r" depth="1" NCoef="0" IVar="0" Cut="1.9880265808105469e+02" cType="0" res="-9.9000000000000000e+01" rms="0.0000000000000000e+00" purity="5.0201702117919922e-01" nType="0">
          <Node pos="l" depth="2" NCoef="0" IVar="11" Cut="1.7540704345703125e+02" cType="1" res="-9.9000000000000000e+01" rms="0.0000000000000000e+00" purity="5.6115609407424927e-01" nType="0">
            <Node pos="l" depth="3" NCoef="0" IVar="-1" Cut="0.0000000000000000e+00" cType="1" res="-9.9000000000000000e+01" rms="0.0000000000000000e+00" purity="5.9727656841278076e-01" nType="1"/>
            <Node pos="r" depth="3" NCoef="0" IVar="-1" Cut="0.0000000000000000e+00" cType="1" res="-9.9000000000000000e+01" rms="0.0000000000000000e+00" purity="4.8839572072029114e-01" nType="-1"/>
          </Node>
          <Node pos="r" depth="2" NCoef="0" IVar="-1" Cut="1.4680647277832031e+02" cType="0" res="-9.9000000000000000e+01" rms="0.0000000000000000e+00" purity="5.0152266025543213e-01" nType="1"/>
        </Node>
      </Node>
    </BinaryTree>
    <BinaryTree type="DecisionTree" boostWeight="9.2749610731708530e-03" itree="22">
      <Node pos="s" depth="0" NCoef="0" IVar="0" Cut="2.6637591552734375e+02" cType="0" res="-9.9000000000000000e+01" rms="0.0000000000000000e+00" purity="4.9994942545890808e-01" nType="0">
        <Node pos="l" depth="1" NCoef="0" IVar="-1" Cut="2.3984067916870117e+01" cType="0" res="-9.9000000000000000e+01" rms="0.0000000000000000e+00" purity="6.7110157012939453e-01" nType="1"/>
        <Node pos="r" depth="1" NCoef="0" IVar="0" Cut="1.9880265808105469e+02" cType="0" res="-9.9000000000000000e+01" rms="0.0000000000000000e+00" purity="4.9964115023612976e-01" nType="0">
          <Node pos="l" depth="2" NCoef="0" IVar="11" Cut="1.7540704345703125e+02" cType="1" res="-9.9000000000000000e+01" rms="0.0000000000000000e+00" purity="5.6039190292358398e-01" nType="0">
            <Node pos="l" depth="3" NCoef="0" IVar="-1" Cut="0.0000000000000000e+00" cType="1" res="-9.9000000000000000e+01" rms="0.0000000000000000e+00" purity="5.9497588872909546e-01" nType="1"/>
            <Node pos="r" depth="3" NCoef="0" IVar="-1" Cut="0.0000000000000000e+00" cType="1" res="-9.9000000000000000e+01" rms="0.0000000000000000e+00" purity="4.9078366160392761e-01" nType="-1"/>
          </Node>
          <Node pos="r" depth="2" NCoef="0" IVar="7" Cut="1.4680647277832031e+02" cType="0" res="-9.9000000000000000e+01" rms="0.0000000000000000e+00" purity="4.9913364648818970e-01" nType="0">
            <Node pos="l" depth="3" NCoef="0" IVar="-1" Cut="0.0000000000000000e+00" cType="1" res="-9.9000000000000000e+01" rms="0.0000000000000000e+00" purity="5.6510680913925171e-01" nType="1"/>
            <Node pos="r" depth="3" NCoef="0" IVar="-1" Cut="0.0000000000000000e+00" cType="1" res="-9.9000000000000000e+01" rms="0.0000000000000000e+00" purity="4.9882337450981140e-01" nType="-1"/>
          </Node>
        </Node>
      </Node>
    </BinaryTree>
    <BinaryTree type="DecisionTree" boostWeight="1.5850019033008478e-02" itree="23">
      <Node pos="s" depth="0" NCoef="0" IVar="0" Cut="2.6637591552734375e+02" cType="0" res="-9.9000000000000000e+01" rms="0.0000000000000000e+00" purity="5.0221276283264160e-01" nType="0">
        <Node pos="l" depth="1" NCoef="0" IVar="-1" Cut="2.3984067916870117e+01" cType="0" res="-9.9000000000000000e+01" rms="0.0000000000000000e+00" purity="6.6905111074447632e-01" nType="1"/>
        <Node pos="r" depth="1" NCoef="0" IVar="0" Cut="1.9880265808105469e+02" cType="0" res="-9.9000000000000000e+01" rms="0.0000000000000000e+00" purity="5.0191271305084229e-01" nType="0">
          <Node pos="l" depth="2" NCoef="0" IVar="11" Cut="1.7540704345703125e+02" cType="1" res="-9.9000000000000000e+01" rms="0.0000000000000000e+00" purity="5.5964928865432739e-01" nType="0">
            <Node pos="l" depth="3" NCoef="0" IVar="-1" Cut="0.0000000000000000e+00" cType="1" res="-9.9000000000000000e+01" rms="0.0000000000000000e+00" purity="5.9273880720138550e-01" nType="1"/>
            <Node pos="r" depth="3" NCoef="0" IVar="-1" Cut="0.0000000000000000e+00" cType="1" res="-9.9000000000000000e+01" rms="0.0000000000000000e+00" purity="4.9310174584388733e-01" nType="-1"/>
          </Node>
          <Node pos="r" depth="2" NCoef="0" IVar="6" Cut="3.3804109692573547e-01" cType="0" res="-9.9000000000000000e+01" rms="0.0000000000000000e+00" purity="5.0143074989318848e-01" nType="0">
            <Node pos="l" depth="3" NCoef="0" IVar="-1" Cut="0.0000000000000000e+00" cType="1" res="-9.9000000000000000e+01" rms="0.0000000000000000e+00" purity="5.0241249799728394e-01" nType="1"/>
            <Node pos="r" depth="3" NCoef="0" IVar="-1" Cut="0.0000000000000000e+00" cType="1" res="-9.9000000000000000e+01" rms="0.0000000000000000e+00" purity="4.8220390081405640e-01" nType="-1"/>
          </Node>
        </Node>
      </Node>
    </BinaryTree>
    <BinaryTree type="DecisionTree" boostWeight="1.1643597780332079e-02" itree="24">
      <Node pos="s" depth="0" NCoef="0" IVar="0" Cut="2.1910083007812500e+02" cType="0" res="-9.9000000000000000e+01" rms="0.0000000000000000e+00" purity="4.9865311384201050e-01" nType="0">
        <Node pos="l" depth="1" NCoef="0" IVar="-1" Cut="2.9564581298828125e+02" cType="0" res="-9.9000000000000000e+01" rms="0.0000000000000000e+00" purity="5.9242159128189087e-01" nType="1"/>
        <Node pos="r" depth="1" NCoef="0" IVar="0" Cut="2.0108271789550781e+02" cType="0" res="-9.9000000000000000e+01" rms="0.0000000000000000e+00" purity="4.9811002612113953e-01" nType="0">
          <Node pos="l" depth="2" NCoef="0" IVar="-1" Cut="2.6045509338378906e+01" cType="0" res="-9.9000000000000000e+01" rms="0.0000000000000000e+00" purity="5.6798624992370605e-01" nType="1"/>
          <Node pos="r" depth="2" NCoef="0" IVar="-1" Cut="1.5537974548339844e+02" cType="1" res="-9.9000000000000000e+01" rms="0.0000000000000000e+00" purity="4.9785086512565613e-01" nType="-1"/>
        </Node>
      </Node>
    </BinaryTree>
    <BinaryTree type="DecisionTree" boostWeight="6.1577767141313237e-03" itree="25">
      <Node pos="s" depth="0" NCoef="0" IVar="0" Cut="2.6637591552734375e+02" cType="0" res="-9.9000000000000000e+01" rms="0.0000000000000000e+00" purity="5.0150913000106812e-01" nType="0">
        <Node pos="l" depth="1" NCoef="0" IVar="-1" Cut="2.3984067916870117e+01" cType="0" res="-9.9000000000000000e+01" rms="0.0000000000000000e+00" purity="6.6293537616729736e-01" nType="1"/>
        <Node pos="r" depth="1" NCoef="0" IVar="0" Cut="1.9880265808105469e+02" cType="0" res="-9.9000000000000000e+01" rms="0.0000000000000000e+00" purity="5.0122016668319702e-01" nType="0">
          <Node pos="l" depth="2" NCoef="0" IVar="11" Cut="1.7540704345703125e+02" cType="1" res="-9.9000000000000000e+01" rms="0.0000000000000000e+00" purity="5.5593901872634888e-01" nType="0">
            <Node pos="l" depth="3" NCoef="0" IVar="-1" Cut="0.0000000000000000e+00" cType="1" res="-9.9000000000000000e+01" rms="0.0000000000000000e+00" purity="5.8656907081604004e-01" nType="1"/>
            <Node pos="r" depth="3" NCoef="0" IVar="-1" Cut="0.0000000000000000e+00" cType="1" res="-9.9000000000000000e+01" rms="0.0000000000000000e+00" purity="4.9447697401046753e-01" nType="-1"/>
          </Node>
          <Node pos="r" depth="2" NCoef="0" IVar="-1" Cut="1.4680647277832031e+02" cType="0" res="-9.9000000000000000e+01" rms="0.0000000000000000e+00" purity="5.0076407194137573e-01" nType="1"/>
        </Node>
      </Node>
    </BinaryTree>
    <BinaryTree type="DecisionTree" boostWeight="8.3909079767485670e-03" itree="26">
      <Node pos="s" depth="0" NCoef="0" IVar="0" Cut="2.6637591552734375e+02" cType="0" res="-9.9000000000000000e+01" rms="0.0000000000000000e+00" purity="4.9997812509536743e-01" nType="0">
        <Node pos="l" depth="1" NCoef="0" IVar="-1" Cut="2.3984067916870117e+01" cType="0" res="-9.9000000000000000e+01" rms="0.0000000000000000e+00" purity="6.6155803203582764e-01" nType="1"/>
        <Node pos="r" depth="1" NCoef="0" IVar="0" Cut="1.9880265808105469e+02" cType="0" res="-9.9000000000000000e+01" rms="0.0000000000000000e+00" purity="4.9968922138214111e-01" nType="0">
          <Node pos="l" depth="2" NCoef="0" IVar="11" Cut="1.7540704345703125e+02" cType="1" res="-9.9000000000000000e+01" rms="0.0000000000000000e+00" purity="5.5544400215148926e-01" nType="0">
            <Node pos="l" depth="3" NCoef="0" IVar="-1" Cut="0.0000000000000000e+00" cType="1" res="-9.9000000000000000e+01" rms="0.0000000000000000e+00" purity="5.8507502079010010e-01" nType="1"/>
            <Node pos="r" depth="3" NCoef="0" IVar="-1" Cut="0.0000000000000000e+00" cType="1" res="-9.9000000000000000e+01" rms="0.0000000000000000e+00" purity="4.9601626396179199e-01" nType="-1"/>
          </Node>
          <Node pos="r" depth="2" NCoef="0" IVar="7" Cut="1.4680647277832031e+02" cType="0" res="-9.9000000000000000e+01" rms="0.0000000000000000e+00" purity="4.9922463297843933e-01" nType="0">
            <Node pos="l" depth="3" NCoef="0" IVar="-1" Cut="0.0000000000000000e+00" cType="1" res="-9.9000000000000000e+01" rms="0.0000000000000000e+00" purity="5.6075859069824219e-01" nType="1"/>
            <Node pos="r" depth="3" NCoef="0" IVar="-1" Cut="0.0000000000000000e+00" cType="1" res="-9.9000000000000000e+01" rms="0.0000000000000000e+00" purity="4.9893555045127869e-01" nType="-1"/>
          </Node>
        </Node>
      </Node>
    </BinaryTree>
    <BinaryTree type="DecisionTree" boostWeight="1.2804080366468960e-02" itree="27">
      <Node pos="s" depth="0" NCoef="0" IVar="0" Cut="2.6637591552734375e+02" cType="0" res="-9.9000000000000000e+01" rms="0.0000000000000000e+00" purity="5.0202590227127075e-01" nType="0">
        <Node pos="l" depth="1" NCoef="0" IVar="-1" Cut="2.3984067916870117e+01" cType="0" res="-9.9000000000000000e+01" rms="0.0000000000000000e+00" purity="6.5967673063278198e-01" nType="1"/>
        <Node pos="r" depth="1" NCoef="0" IVar="0" Cut="1.9880265808105469e+02" cType="0" res="-9.9000000000000000e+01" rms="0.0000000000000000e+00" purity="5.0174432992935181e-01" nType="0">
          <Node pos="l" depth="2" NCoef="0" IVar="11" Cut="1.7540704345703125e+02" cType="1" res="-9.9000000000000000e+01" rms="0.0000000000000000e+00" purity="5.5476886034011841e-01" nType="0">
            <Node pos="l" depth="3" NCoef="0" IVar="-1" Cut="0.0000000000000000e+00" cType="1" res="-9.9000000000000000e+01" rms="0.0000000000000000e+00" purity="5.8303660154342651e-01" nType="1"/>
            <Node pos="r" depth="3" NCoef="0" IVar="-1" Cut="0.0000000000000000e+00" cType="1" res="-9.9000000000000000e+01" rms="0.0000000000000000e+00" purity="4.9811390042304993e-01" nType="-1"/>
          </Node>
          <Node pos="r" depth="2" NCoef="0" IVar="11" Cut="1.5537974548339844e+02" cType="1" res="-9.9000000000000000e+01" rms="0.0000000000000000e+00" purity="5.0130277872085571e-01" nType="0">
            <Node pos="l" depth="3" NCoef="0" IVar="-1" Cut="0.0000000000000000e+00" cType="1" res="-9.9000000000000000e+01" rms="0.0000000000000000e+00" purity="5.0193333625793457e-01" nType="1"/>
            <Node pos="r" depth="3" NCoef="0" IVar="-1" Cut="0.0000000000000000e+00" cType="1" res="-9.9000000000000000e+01" rms="0.0000000000000000e+00" purity="4.7311264276504517e-01" nType="-1"/>
          </Node>
        </Node>
      </Node>
    </BinaryTree>
    <BinaryTree type="DecisionTree" boostWeight="2.2701229985165990e-02" itree="28">
      <Node pos="s" depth="0" NCoef="0" IVar="0" Cut="2.1910083007812500e+02" cType="0" res="-9.9000000000000000e+01" rms="0.0000000000000000e+00" purity="4.9898108839988708e-01" nType="0">
        <Node pos="l" depth="1" NCoef="0" IVar="-1" Cut="2.9564581298828125e+02" cType="0" res="-9.9000000000000000e+01" rms="0.0000000000000000e+00" purity="5.8668851852416992e-01" nType="1"/>
        <Node pos="r" depth="1" NCoef="0" IVar="3" Cut="3.3333332538604736e+00" cType="1" res="-9.9000000000000000e+01" rms="0.0000000000000000e+00" purity="4.9847492575645447e-01" nType="0">
          <Node pos="l" depth="2" NCoef="0" IVar="3" Cut="1.1428571939468384e+00" cType="0" res="-9.9000000000000000e+01" rms="0.0000000000000000e+00" purity="4.9912440776824951e-01" nType="0">
            <Node pos="l" depth="3" NCoef="0" IVar="-1" Cut="0.0000000000000000e+00" cType="1" res="-9.9000000000000000e+01" rms="0.0000000000000000e+00" purity="5.0650513172149658e-01" nType="1"/>
            <Node pos="r" depth="3" NCoef="0" IVar="-1" Cut="0.0000000000000000e+00" cType="1" res="-9.9000000000000000e+01" rms="0.0000000000000000e+00" purity="4.9625727534294128e-01" nType="-1"/>
          </Node>
          <Node pos="r" depth="2" NCoef="0" IVar="9" Cut="5.5463116455078125e+02" cType="0" res="-9.9000000000000000e+01" rms="0.0000000000000000e+00" purity="4.7249135375022888e-01" nType="0">
            <Node pos="l" depth="3" NCoef="0" IVar="-1" Cut="0.0000000000000000e+00" cType="1" res="-9.9000000000000000e+01" rms="0.0000000000000000e+00" purity="5.5444842576980591e-01" nType="1"/>
            <Node pos="r" depth="3" NCoef="0" IVar="-1" Cut="0.0000000000000000e+00" cType="1" res="-9.9000000000000000e+01" rms="0.0000000000000000e+00" purity="4.6823176741600037e-01" nType="-1"/>
          </Node>
        </Node>
      </Node>
    </BinaryTree>
    <BinaryTree type="DecisionTree" boostWeight="1.9241935042446097e-02" itree="29">
      <Node pos="s" depth="0" NCoef="0" IVar="0" Cut="2.6637591552734375e+02" cType="0" res="-9.9000000000000000e+01" rms="0.0000000000000000e+00" purity="5.0149732828140259e-01" nType="0">
        <Node pos="l" depth="1" NCoef="0" IVar="-1" Cut="2.3984067916870117e+01" cType="0" res="-9.9000000000000000e+01" rms="0.0000000000000000e+00" purity="6.5166109800338745e-01" nType="1"/>
        <Node pos="r" depth="1" NCoef="0" IVar="3" Cut="2.3809523582458496e+00" cType="1" res="-9.9000000000000000e+01" rms="0.0000000000000000e+00" purity="5.0123059749603271e-01" nType="0">
          <Node pos="l" depth="2" NCoef="0" IVar="-1" Cut="1.4680647277832031e+02" cType="0" res="-9.9000000000000000e+01" rms="0.0000000000000000e+00" purity="5.0291770696640015e-01" nType="1"/>
          <Node pos="r" depth="2" NCoef="0" IVar="2" Cut="4.3677157592773438e+02" cType="0" res="-9.9000000000000000e+01" rms="0.0000000000000000e+00" purity="4.8529437184333801e-01" nType="0">
            <Node pos="l" depth="3" NCoef="0" IVar="-1" Cut="0.0000000000000000e+00" cType="1" res="-9.9000000000000000e+01" rms="0.0000000000000000e+00" purity="5.5113875865936279e-01" nType="1"/>
            <Node pos="r" depth="3" NCoef="0" IVar="-1" Cut="0.0000000000000000e+00" cType="1" res="-9.9000000000000000e+01" rms="0.0000000000000000e+00" purity="4.8172616958618164e-01" nType="-1"/>
          </Node>
        </Node>
      </Node>
    </BinaryTree>
    <BinaryTree type="DecisionTree" boostWeight="1.9467449141100705e-02" itree="30">
      <Node pos="s" depth="0" NCoef="0" IVar="0" Cut="2.6637591552734375e+02" cType="0" res="-9.9000000000000000e+01" rms="0.0000000000000000e+00" purity="4.9755886197090149e-01" nType="0">
        <Node pos="l" depth="1" NCoef="0" IVar="-1" Cut="2.3984067916870117e+01" cType="0" res="-9.9000000000000000e+01" rms="0.0000000000000000e+00" purity="6.4728057384490967e-01" nType="1"/>
        <Node pos="r" depth="1" NCoef="0" IVar="0" Cut="1.4253529357910156e+02" cType="0" res="-9.9000000000000000e+01" rms="0.0000000000000000e+00" purity="4.9729365110397339e-01" nType="0">
          <Node pos="l" depth="2" NCoef="0" IVar="-1" Cut="4.9673867225646973e-01" cType="0" res="-9.9000000000000000e+01" rms="0.0000000000000000e+00" purity="5.1683521270751953e-01" nType="1"/>
          <Node pos="r" depth="2" NCoef="0" IVar="7" Cut="2.4467744827270508e+01" cType="1" res="-9.9000000000000000e+01" rms="0.0000000000000000e+00" purity="4.9621367454528809e-01" nType="0">
            <Node pos="l" depth="3" NCoef="0" IVar="-1" Cut="0.0000000000000000e+00" cType="1" res="-9.9000000000000000e+01" rms="0.0000000000000000e+00" purity="5.0014585256576538e-01" nType="1"/>
            <Node pos="r" depth="3" NCoef="0" IVar="-1" Cut="0.0000000000000000e+00" cType="1" res="-9.9000000000000000e+01" rms="0.0000000000000000e+00" purity="4.9189305305480957e-01" nType="-1"/>
          </Node>
        </Node>
      </Node>
    </BinaryTree>
    <BinaryTree type="DecisionTree" boostWeight="1.8935009336676897e-02" itree="31">
      <Node pos="s" depth="0" NCoef="0" IVar="0" Cut="2.6637591552734375e+02" cType="0" res="-9.9000000000000000e+01" rms="0.0000000000000000e+00" purity="4.9707886576652527e-01" nType="0">
        <Node pos="l" depth="1" NCoef="0" IVar="-1" Cut="2.3984067916870117e+01" cType="0" res="-9.9000000000000000e+01" rms="0.0000000000000000e+00" purity="6.4282339811325073e-01" nType="1"/>
        <Node pos="r" depth="1" NCoef="0" IVar="2" Cut="4.9466986083984375e+02" cType="0" res="-9.9000000000000000e+01" rms="0.0000000000000000e+00" purity="4.9682146310806274e-01" nType="0">
          <Node pos="l" depth="2" NCoef="0" IVar="7" Cut="2.4467744827270508e+01" cType="0" res="-9.9000000000000000e+01" rms="0.0000000000000000e+00" purity="5.2541518211364746e-01" nType="0">
            <Node pos="l" depth="3" NCoef="0" IVar="-1" Cut="0.0000000000000000e+00" cType="1" res="-9.9000000000000000e+01" rms="0.0000000000000000e+00" purity="5.6383424997329712e-01" nType="1"/>
            <Node pos="r" depth="3" NCoef="0" IVar="-1" Cut="0.0000000000000000e+00" cType="1" res="-9.9000000000000000e+01" rms="0.0000000000000000e+00" purity="4.8965543508529663e-01" nType="-1"/>
          </Node>
          <Node pos="r" depth="2" NCoef="0" IVar="-1" Cut="1.3574815368652344e+02" cType="1" res="-9.9000000000000000e+01" rms="0.0000000000000000e+00" purity="4.9619904160499573e-01" nType="-1"/>
        </Node>
      </Node>
    </BinaryTree>
    <BinaryTree type="DecisionTree" boostWeight="2.0906924328222058e-02" itree="32">
      <Node pos="s" depth="0" NCoef="0" IVar="0" Cut="2.6637591552734375e+02" cType="0" res="-9.9000000000000000e+01" rms="0.0000000000000000e+00" purity="5.0169885158538818e-01" nType="0">
        <Node pos="l" depth="1" NCoef="0" IVar="-1" Cut="2.3984067916870117e+01" cType="0" res="-9.9000000000000000e+01" rms="0.0000000000000000e+00" purity="6.3846415281295776e-01" nType="1"/>
        <Node pos="r" depth="1" NCoef="0" IVar="7" Cut="1.4680647277832031e+02" cType="0" res="-9.9000000000000000e+01" rms="0.0000000000000000e+00" purity="5.0145792961120605e-01" nType="0">
          <Node pos="l" depth="2" NCoef="0" IVar="-1" Cut="1.2857142686843872e+00" cType="1" res="-9.9000000000000000e+01" rms="0.0000000000000000e+00" purity="5.5945074558258057e-01" nType="1"/>
          <Node pos="r" depth="2" NCoef="0" IVar="7" Cut="2.7960966110229492e+01" cType="1" res="-9.9000000000000000e+01" rms="0.0000000000000000e+00" purity="5.0117987394332886e-01" nType="0">
            <Node pos="l" depth="3" NCoef="0" IVar="-1" Cut="0.0000000000000000e+00" cType="1" res="-9.9000000000000000e+01" rms="0.0000000000000000e+00" purity="5.0431269407272339e-01" nType="1"/>
            <Node pos="r" depth="3" NCoef="0" IVar="-1" Cut="0.0000000000000000e+00" cType="1" res="-9.9000000000000000e+01" rms="0.0000000000000000e+00" purity="4.9435907602310181e-01" nType="-1"/>
          </Node>
        </Node>
      </Node>
    </BinaryTree>
    <BinaryTree type="DecisionTree" boostWeight="3.2999041269378367e-02" itree="33">
      <Node pos="s" depth="0" NCoef="0" IVar="0" Cut="2.6637591552734375e+02" cType="0" res="-9.9000000000000000e+01" rms="0.0000000000000000e+00" purity="4.9974080920219421e-01" nType="0">
        <Node pos="l" depth="1" NCoef="0" IVar="-1" Cut="2.3984067916870117e+01" cType="0" res="-9.9000000000000000e+01" rms="0.0000000000000000e+00" purity="6.3362443447113037e-01" nType="1"/>
        <Node pos="r" depth="1" NCoef="0" IVar="3" Cut="4.7619047760963440e-01" cType="0" res="-9.9000000000000000e+01" rms="0.0000000000000000e+00" purity="4.9950560927391052e-01" nType="0">
          <Node pos="l" depth="2" NCoef="0" IVar="-1" Cut="5.3439819335937500e+02" cType="0" res="-9.9000000000000000e+01" rms="0.0000000000000000e+00" purity="5.0282132625579834e-01" nType="1"/>
          <Node pos="r" depth="2" NCoef="0" IVar="1" Cut="2.6680036544799805e+01" cType="0" res="-9.9000000000000000e+01" rms="0.0000000000000000e+00" purity="4.9231478571891785e-01" nType="0">
            <Node pos="l" depth="3" NCoef="0" IVar="-1" Cut="0.0000000000000000e+00" cType="1" res="-9.9000000000000000e+01" rms="0.0000000000000000e+00" purity="5.1267117261886597e-01" nType="1"/>
            <Node pos="r" depth="3" NCoef="0" IVar="-1" Cut="0.0000000000000000e+00" cType="1" res="-9.9000000000000000e+01" rms="0.0000000000000000e+00" purity="4.7503057122230530e-01" nType="-1"/>
          </Node>
        </Node>
      </Node>
    </BinaryTree>
    <BinaryTree type="DecisionTree" boostWeight="3.0739190516748095e-02" itree="34">
      <Node pos="s" depth="0" NCoef="0" IVar="0" Cut="2.6637591552734375e+02" cType="0" res="-9.9000000000000000e+01" rms="0.0000000000000000e+00" purity="4.9430105090141296e-01" nType="0">
        <Node pos="l" depth="1" NCoef="0" IVar="-1" Cut="2.3984067916870117e+01" cType="0" res="-9.9000000000000000e+01" rms="0.0000000000000000e+00" purity="6.2593072652816772e-01" nType="1"/>
        <Node pos="r" depth="1" NCoef="0" IVar="7" Cut="9.7870979309082031e+01" cType="0" res="-9.9000000000000000e+01" rms="0.0000000000000000e+00" purity="4.9407082796096802e-01" nType="0">
          <Node pos="l" depth="2" NCoef="0" IVar="-1" Cut="1.3333333730697632e+00" cType="1" res="-9.9000000000000000e+01" rms="0.0000000000000000e+00" purity="5.2414065599441528e-01" nType="1"/>
          <Node pos="r" depth="2" NCoef="0" IVar="0" Cut="1.9880265808105469e+02" cType="0" res="-9.9000000000000000e+01" rms="0.0000000000000000e+00" purity="4.9347674846649170e-01" nType="0">
            <Node pos="l" depth="3" NCoef="0" IVar="-1" Cut="0.0000000000000000e+00" cType="1" res="-9.9000000000000000e+01" rms="0.0000000000000000e+00" purity="5.3877103328704834e-01" nType="1"/>
            <Node pos="r" depth="3" NCoef="0" IVar="-1" Cut="0.0000000000000000e+00" cType="1" res="-9.9000000000000000e+01" rms="0.0000000000000000e+00" purity="4.9310877919197083e-01" nType="-1"/>
          </Node>
        </Node>
      </Node>
    </BinaryTree>
    <BinaryTree type="DecisionTree" boostWeight="1.2168548864004109e-02" itree="35">
      <Node pos="s" depth="0" NCoef="0" IVar="0" Cut="2.6637591552734375e+02" cType="0" res="-9.9000000000000000e+01" rms="0.0000000000000000e+00" purity="5.0154036283493042e-01" nType="0">
        <Node pos="l" depth="1" NCoef="0" IVar="-1" Cut="2.3984067916870117e+01" cType="0" res="-9.9000000000000000e+01" rms="0.0000000000000000e+00" purity="6.1870598793029785e-01" nType="1"/>
        <Node pos="r" depth="1" NCoef="0" IVar="11" Cut="1.5537974548339844e+02" cType="1" res="-9.9000000000000000e+01" rms="0.0000000000000000e+00" purity="5.0133609771728516e-01" nType="0">
          <Node pos="l" depth="2" NCoef="0" IVar="-1" Cut="1.6504223632812500e+02" cType="0" res="-9.9000000000000000e+01" rms="0.0000000000000000e+00" purity="5.0191605091094971e-01" nType="1"/>
          <Node pos="r" depth="2" NCoef="0" IVar="10" Cut="5.1271867752075195e-01" cType="0" res="-9.9000000000000000e+01" rms="0.0000000000000000e+00" purity="4.7905045747756958e-01" nType="0">
            <Node pos="l" depth="3" NCoef="0" IVar="-1" Cut="0.0000000000000000e+00" cType="1" res="-9.9000000000000000e+01" rms="0.0000000000000000e+00" purity="5.6053864955902100e-01" nType="1"/>
            <Node pos="r" depth="3" NCoef="0" IVar="-1" Cut="0.0000000000000000e+00" cType="1" res="-9.9000000000000000e+01" rms="0.0000000000000000e+00" purity="4.6536135673522949e-01" nType="-1"/>
          </Node>
        </Node>
      </Node>
    </BinaryTree>
    <BinaryTree type="DecisionTree" boostWeight="3.0997507470416987e-02" itree="36">
      <Node pos="s" depth="0" NCoef="0" IVar="0" Cut="2.6637591552734375e+02" cType="0" res="-9.9000000000000000e+01" rms="0.0000000000000000e+00" purity="4.9863007664680481e-01" nType="0">
        <Node pos="l" depth="1" NCoef="0" IVar="-1" Cut="2.3984067916870117e+01" cType="0" res="-9.9000000000000000e+01" rms="0.0000000000000000e+00" purity="6.1583113670349121e-01" nType="1"/>
        <Node pos="r" depth="1" NCoef="0" IVar="10" Cut="4.0601062774658203e-01" cType="1" res="-9.9000000000000000e+01" rms="0.0000000000000000e+00" purity="4.9842607975006104e-01" nType="0">
          <Node pos="l" depth="2" NCoef="0" IVar="3" Cut="3.8095238804817200e-01" cType="1" res="-9.9000000000000000e+01" rms="0.0000000000000000e+00" purity="5.0228828191757202e-01" nType="0">
            <Node pos="l" depth="3" NCoef="0" IVar="-1" Cut="0.0000000000000000e+00" cType="1" res="-9.9000000000000000e+01" rms="0.0000000000000000e+00" purity="5.1812267303466797e-01" nType="1"/>
            <Node pos="r" depth="3" NCoef="0" IVar="-1" Cut="0.0000000000000000e+00" cType="1" res="-9.9000000000000000e+01" rms="0.0000000000000000e+00" purity="4.9505755305290222e-01" nType="-1"/>
          </Node>
          <Node pos="r" depth="2" NCoef="0" IVar="3" Cut="4.7619047760963440e-01" cType="0" res="-9.9000000000000000e+01" rms="0.0000000000000000e+00" purity="4.9562126398086548e-01" nType="0">
            <Node pos="l" depth="3" NCoef="0" IVar="-1" Cut="0.0000000000000000e+00" cType="1" res="-9.9000000000000000e+01" rms="0.0000000000000000e+00" purity="5.0152444839477539e-01" nType="1"/>
            <Node pos="r" depth="3" NCoef="0" IVar="-1" Cut="0.0000000000000000e+00" cType="1" res="-9.9000000000000000e+01" rms="0.0000000000000000e+00" purity="4.8289746046066284e-01" nType="-1"/>
          </Node>
        </Node>
      </Node>
    </BinaryTree>
    <BinaryTree type="DecisionTree" boostWeight="3.6330452915622230e-02" itree="37">
      <Node pos="s" depth="0" NCoef="0" IVar="10" Cut="3.9375454187393188e-01" cType="1" res="-9.9000000000000000e+01" rms="0.0000000000000000e+00" purity="4.9818921089172363e-01" nType="0">
        <Node pos="l" depth="1" NCoef="0" IVar="0" Cut="7.7276969909667969e+01" cType="1" res="-9.9000000000000000e+01" rms="0.0000000000000000e+00" purity="5.0623530149459839e-01" nType="0">
          <Node pos="l" depth="2" NCoef="0" IVar="-1" Cut="5.3743511438369751e-01" cType="0" res="-9.9000000000000000e+01" rms="0.0000000000000000e+00" purity="5.1754635572433472e-01" nType="1"/>
          <Node pos="r" depth="2" NCoef="0" IVar="0" Cut="3.0239627075195312e+02" cType="0" res="-9.9000000000000000e+01" rms="0.0000000000000000e+00" purity="4.9826887249946594e-01" nType="0">
            <Node pos="l" depth="3" NCoef="0" IVar="-1" Cut="0.0000000000000000e+00" cType="1" res="-9.9000000000000000e+01" rms="0.0000000000000000e+00" purity="7.2264707088470459e-01" nType="1"/>
            <Node pos="r" depth="3" NCoef="0" IVar="-1" Cut="0.0000000000000000e+00" cType="1" res="-9.9000000000000000e+01" rms="0.0000000000000000e+00" purity="4.9762490391731262e-01" nType="-1"/>
          </Node>
        </Node>
        <Node pos="r" depth="1" NCoef="0" IVar="12" Cut="7.8542854309082031e+01" cType="1" res="-9.9000000000000000e+01" rms="0.0000000000000000e+00" purity="4.9317413568496704e-01" nType="0">
          <Node pos="l" depth="2" NCoef="0" IVar="2" Cut="3.8825982666015625e+02" cType="0" res="-9.9000000000000000e+01" rms="0.0000000000000000e+00" purity="4.9630242586135864e-01" nType="0">
            <Node pos="l" depth="3" NCoef="0" IVar="-1" Cut="0.0000000000000000e+00" cType="1" res="-9.9000000000000000e+01" rms="0.0000000000000000e+00" purity="5.3543150424957275e-01" nType="1"/>
            <Node pos="r" depth="3" NCoef="0" IVar="-1" Cut="0.0000000000000000e+00" cType="1" res="-9.9000000000000000e+01" rms="0.0000000000000000e+00" purity="4.9451965093612671e-01" nType="-1"/>
          </Node>
          <Node pos="r" depth="2" NCoef="0" IVar="-1" Cut="4.7619047760963440e-01" cType="0" res="-9.9000000000000000e+01" rms="0.0000000000000000e+00" purity="4.8408091068267822e-01" nType="-1"/>
        </Node>
      </Node>
    </BinaryTree>
    <BinaryTree type="DecisionTree" boostWeight="4.5534667043173861e-02" itree="38">
      <Node pos="s" depth="0" NCoef="0" IVar="0" Cut="2.6637591552734375e+02" cType="0" res="-9.9000000000000000e+01" rms="0.0000000000000000e+00" purity="5.0401562452316284e-01" nType="0">
        <Node pos="l" depth="1" NCoef="0" IVar="-1" Cut="2.3984067916870117e+01" cType="0" res="-9.9000000000000000e+01" rms="0.0000000000000000e+00" purity="6.0917687416076660e-01" nType="1"/>
        <Node pos="r" depth="1" NCoef="0" IVar="2" Cut="2.4777291870117188e+02" cType="0" res="-9.9000000000000000e+01" rms="0.0000000000000000e+00" purity="5.0383347272872925e-01" nType="0">
          <Node pos="l" depth="2" NCoef="0" IVar="4" Cut="3.3333334326744080e-01" cType="1" res="-9.9000000000000000e+01" rms="0.0000000000000000e+00" purity="5.0810199975967407e-01" nType="0">
            <Node pos="l" depth="3" NCoef="0" IVar="-1" Cut="0.0000000000000000e+00" cType="1" res="-9.9000000000000000e+01" rms="0.0000000000000000e+00" purity="5.1841074228286743e-01" nType="1"/>
            <Node pos="r" depth="3" NCoef="0" IVar="-1" Cut="0.0000000000000000e+00" cType="1" res="-9.9000000000000000e+01" rms="0.0000000000000000e+00" purity="4.9568876624107361e-01" nType="-1"/>
          </Node>
          <Node pos="r" depth="2" NCoef="0" IVar="3" Cut="1.1428571939468384e+00" cType="0" res="-9.9000000000000000e+01" rms="0.0000000000000000e+00" purity="4.9891763925552368e-01" nType="0">
            <Node pos="l" depth="3" NCoef="0" IVar="-1" Cut="0.0000000000000000e+00" cType="1" res="-9.9000000000000000e+01" rms="0.0000000000000000e+00" purity="5.1599639654159546e-01" nType="1"/>
            <Node pos="r" depth="3" NCoef="0" IVar="-1" Cut="0.0000000000000000e+00" cType="1" res="-9.9000000000000000e+01" rms="0.0000000000000000e+00" purity="4.9201682209968567e-01" nType="-1"/>
          </Node>
        </Node>
      </Node>
    </BinaryTree>
    <BinaryTree type="DecisionTree" boostWeight="2.7642869208434246e-02" itree="39">
      <Node pos="s" depth="0" NCoef="0" IVar="9" Cut="9.0674328613281250e+02" cType="0" res="-9.9000000000000000e+01" rms="0.0000000000000000e+00" purity="5.0567692518234253e-01" nType="0">
        <Node pos="l" depth="1" NCoef="0" IVar="-1" Cut="2.9619720458984375e+01" cType="0" res="-9.9000000000000000e+01" rms="0.0000000000000000e+00" purity="5.9639757871627808e-01" nType="1"/>
        <Node pos="r" depth="1" NCoef="0" IVar="2" Cut="1.9932801818847656e+02" cType="1" res="-9.9000000000000000e+01" rms="0.0000000000000000e+00" purity="5.0549983978271484e-01" nType="0">
          <Node pos="l" depth="2" NCoef="0" IVar="7" Cut="2.9571887969970703e+01" cType="1" res="-9.9000000000000000e+01" rms="0.0000000000000000e+00" purity="5.1407557725906372e-01" nType="0">
            <Node pos="l" depth="3" NCoef="0" IVar="-1" Cut="0.0000000000000000e+00" cType="1" res="-9.9000000000000000e+01" rms="0.0000000000000000e+00" purity="5.2289021015167236e-01" nType="1"/>
            <Node pos="r" depth="3" NCoef="0" IVar="-1" Cut="0.0000000000000000e+00" cType="1" res="-9.9000000000000000e+01" rms="0.0000000000000000e+00" purity="4.8464012145996094e-01" nType="-1"/>
          </Node>
          <Node pos="r" depth="2" NCoef="0" IVar="-1" Cut="5.3141577148437500e+02" cType="0" res="-9.9000000000000000e+01" rms="0.0000000000000000e+00" purity="5.0368618965148926e-01" nType="1"/>
        </Node>
      </Node>
    </BinaryTree>
    <BinaryTree type="DecisionTree" boostWeight="2.7225691272255048e-02" itree="40">
      <Node pos="s" depth="0" NCoef="0" IVar="9" Cut="9.0674328613281250e+02" cType="0" res="-9.9000000000000000e+01" rms="0.0000000000000000e+00" purity="4.9932137131690979e-01" nType="0">
        <Node pos="l" depth="1" NCoef="0" IVar="1" Cut="2.9619720458984375e+01" cType="0" res="-9.9000000000000000e+01" rms="0.0000000000000000e+00" purity="5.8972638845443726e-01" nType="0">
          <Node pos="l" depth="2" NCoef="0" IVar="-1" Cut="5.3480690717697144e-01" cType="0" res="-9.9000000000000000e+01" rms="0.0000000000000000e+00" purity="6.3627666234970093e-01" nType="1"/>
          <Node pos="r" depth="2" NCoef="0" IVar="-1" Cut="0.0000000000000000e+00" cType="1" res="-9.9000000000000000e+01" rms="0.0000000000000000e+00" purity="4.9474585056304932e-01" nType="-1"/>
        </Node>
        <Node pos="r" depth="1" NCoef="0" IVar="2" Cut="1.9932801818847656e+02" cType="1" res="-9.9000000000000000e+01" rms="0.0000000000000000e+00" purity="4.9914532899856567e-01" nType="0">
          <Node pos="l" depth="2" NCoef="0" IVar="7" Cut="4.9286479949951172e+01" cType="1" res="-9.9000000000000000e+01" rms="0.0000000000000000e+00" purity="5.1035630702972412e-01" nType="0">
            <Node pos="l" depth="3" NCoef="0" IVar="-1" Cut="0.0000000000000000e+00" cType="1" res="-9.9000000000000000e+01" rms="0.0000000000000000e+00" purity="5.1382398605346680e-01" nType="1"/>
            <Node pos="r" depth="3" NCoef="0" IVar="-1" Cut="0.0000000000000000e+00" cType="1" res="-9.9000000000000000e+01" rms="0.0000000000000000e+00" purity="4.7067394852638245e-01" nType="-1"/>
          </Node>
          <Node pos="r" depth="2" NCoef="0" IVar="9" Cut="5.3141577148437500e+02" cType="0" res="-9.9000000000000000e+01" rms="0.0000000000000000e+00" purity="4.9677559733390808e-01" nType="0">
            <Node pos="l" depth="3" NCoef="0" IVar="-1" Cut="0.0000000000000000e+00" cType="1" res="-9.9000000000000000e+01" rms="0.0000000000000000e+00" purity="5.1328575611114502e-01" nType="1"/>
            <Node pos="r" depth="3" NCoef="0" IVar="-1" Cut="0.0000000000000000e+00" cType="1" res="-9.9000000000000000e+01" rms="0.0000000000000000e+00" purity="4.9569585919380188e-01" nType="-1"/>
          </Node>
        </Node>
      </Node>
    </BinaryTree>
    <BinaryTree type="DecisionTree" boostWeight="3.2277933555128473e-02" itree="41">
      <Node pos="s" depth="0" NCoef="0" IVar="9" Cut="9.0674328613281250e+02" cType="0" res="-9.9000000000000000e+01" rms="0.0000000000000000e+00" purity="5.0324177742004395e-01" nType="0">
        <Node pos="l" depth="1" NCoef="0" IVar="-1" Cut="1.1428571939468384e+00" cType="0" res="-9.9000000000000000e+01" rms="0.0000000000000000e+00" purity="5.8761972188949585e-01" nType="1"/>
        <Node pos="r" depth="1" NCoef="0" IVar="10" Cut="4.0027815103530884e-01" cType="1" res="-9.9000000000000000e+01" rms="0.0000000000000000e+00" purity="5.0307786464691162e-01" nType="0">
          <Node pos="l" depth="2" NCoef="0" IVar="6" Cut="5.3253489732742310e-01" cType="0" res="-9.9000000000000000e+01" rms="0.0000000000000000e+00" purity="5.0759690999984741e-01" nType="0">
            <Node pos="l" depth="3" NCoef="0" IVar="-1" Cut="0.0000000000000000e+00" cType="1" res="-9.9000000000000000e+01" rms="0.0000000000000000e+00" purity="5.1274740695953369e-01" nType="1"/>
            <Node pos="r" depth="3" NCoef="0" IVar="-1" Cut="0.0000000000000000e+00" cType="1" res="-9.9000000000000000e+01" rms="0.0000000000000000e+00" purity="4.9470579624176025e-01" nType="-1"/>
          </Node>
          <Node pos="r" depth="2" NCoef="0" IVar="12" Cut="7.3290740966796875e+01" cType="1" res="-9.9000000000000000e+01" rms="0.0000000000000000e+00" purity="5.0001692771911621e-01" nType="0">
            <Node pos="l" depth="3" NCoef="0" IVar="-1" Cut="0.0000000000000000e+00" cType="1" res="-9.9000000000000000e+01" rms="0.0000000000000000e+00" purity="5.0439655780792236e-01" nType="1"/>
            <Node pos="r" depth="3" NCoef="0" IVar="-1" Cut="0.0000000000000000e+00" cType="1" res="-9.9000000000000000e+01" rms="0.0000000000000000e+00" purity="4.9010396003723145e-01" nType="-1"/>
          </Node>
        </Node>
      </Node>
    </BinaryTree>
    <BinaryTree type="DecisionTree" boostWeight="1.9512483874427215e-02" itree="42">
      <Node pos="s" depth="0" NCoef="0" IVar="10" Cut="7.1680796146392822e-01" cType="1" res="-9.9000000000000000e+01" rms="0.0000000000000000e+00" purity="4.9997210502624512e-01" nType="0">
        <Node pos="l" depth="1" NCoef="0" IVar="2" Cut="6.4363598632812500e+02" cType="0" res="-9.9000000000000000e+01" rms="0.0000000000000000e+00" purity="5.0041908025741577e-01" nType="0">
          <Node pos="l" depth="2" NCoef="0" IVar="3" Cut="2.8571429848670959e-01" cType="0" res="-9.9000000000000000e+01" rms="0.0000000000000000e+00" purity="5.5727684497833252e-01" nType="0">
            <Node pos="l" depth="3" NCoef="0" IVar="-1" Cut="0.0000000000000000e+00" cType="1" res="-9.9000000000000000e+01" rms="0.0000000000000000e+00" purity="5.9561264514923096e-01" nType="1"/>
            <Node pos="r" depth="3" NCoef="0" IVar="-1" Cut="0.0000000000000000e+00" cType="1" res="-9.9000000000000000e+01" rms="0.0000000000000000e+00" purity="4.6434861421585083e-01" nType="-1"/>
          </Node>
          <Node pos="r" depth="2" NCoef="0" IVar="2" Cut="2.4330026245117188e+02" cType="0" res="-9.9000000000000000e+01" rms="0.0000000000000000e+00" purity="5.0018262863159180e-01" nType="0">
            <Node pos="l" depth="3" NCoef="0" IVar="-1" Cut="0.0000000000000000e+00" cType="1" res="-9.9000000000000000e+01" rms="0.0000000000000000e+00" purity="5.0372356176376343e-01" nType="1"/>
            <Node pos="r" depth="3" NCoef="0" IVar="-1" Cut="0.0000000000000000e+00" cType="1" res="-9.9000000000000000e+01" rms="0.0000000000000000e+00" purity="4.9569499492645264e-01" nType="-1"/>
          </Node>
        </Node>
        <Node pos="r" depth="1" NCoef="0" IVar="7" Cut="3.6789264678955078e+01" cType="0" res="-9.9000000000000000e+01" rms="0.0000000000000000e+00" purity="4.6297636628150940e-01" nType="0">
          <Node pos="l" depth="2" NCoef="0" IVar="-1" Cut="6.7495323181152344e+01" cType="0" res="-9.9000000000000000e+01" rms="0.0000000000000000e+00" purity="5.4600971937179565e-01" nType="1"/>
          <Node pos="r" depth="2" NCoef="0" IVar="-1" Cut="2.0989610671997070e+01" cType="0" res="-9.9000000000000000e+01" rms="0.0000000000000000e+00" purity="4.4446730613708496e-01" nType="-1"/>
        </Node>
      </Node>
    </BinaryTree>
    <BinaryTree type="DecisionTree" boostWeight="1.0015530178986640e-02" itree="43">
      <Node pos="s" depth="0" NCoef="0" IVar="10" Cut="7.1680796146392822e-01" cType="1" res="-9.9000000000000000e+01" rms="0.0000000000000000e+00" purity="4.9943476915359497e-01" nType="0">
        <Node pos="l" depth="1" NCoef="0" IVar="2" Cut="6.4363598632812500e+02" cType="0" res="-9.9000000000000000e+01" rms="0.0000000000000000e+00" purity="4.9983784556388855e-01" nType="0">
          <Node pos="l" depth="2" NCoef="0" IVar="3" Cut="2.8571429848670959e-01" cType="0" res="-9.9000000000000000e+01" rms="0.0000000000000000e+00" purity="5.5533242225646973e-01" nType="0">
            <Node pos="l" depth="3" NCoef="0" IVar="-1" Cut="0.0000000000000000e+00" cType="1" res="-9.9000000000000000e+01" rms="0.0000000000000000e+00" purity="5.9090423583984375e-01" nType="1"/>
            <Node pos="r" depth="3" NCoef="0" IVar="-1" Cut="0.0000000000000000e+00" cType="1" res="-9.9000000000000000e+01" rms="0.0000000000000000e+00" purity="4.6920520067214966e-01" nType="-1"/>
          </Node>
          <Node pos="r" depth="2" NCoef="0" IVar="11" Cut="1.3574815368652344e+02" cType="1" res="-9.9000000000000000e+01" rms="0.0000000000000000e+00" purity="4.9960741400718689e-01" nType="0">
            <Node pos="l" depth="3" NCoef="0" IVar="-1" Cut="0.0000000000000000e+00" cType="1" res="-9.9000000000000000e+01" rms="0.0000000000000000e+00" purity="5.0065964460372925e-01" nType="1"/>
            <Node pos="r" depth="3" NCoef="0" IVar="-1" Cut="0.0000000000000000e+00" cType="1" res="-9.9000000000000000e+01" rms="0.0000000000000000e+00" purity="4.7940984368324280e-01" nType="-1"/>
          </Node>
        </Node>
        <Node pos="r" depth="1" NCoef="0" IVar="7" Cut="3.6789264678955078e+01" cType="0" res="-9.9000000000000000e+01" rms="0.0000000000000000e+00" purity="4.6604040265083313e-01" nType="0">
          <Node pos="l" depth="2" NCoef="0" IVar="-1" Cut="6.7495323181152344e+01" cType="0" res="-9.9000000000000000e+01" rms="0.0000000000000000e+00" purity="5.4116874933242798e-01" nType="1"/>
          <Node pos="r" depth="2" NCoef="0" IVar="-1" Cut="2.0989610671997070e+01" cType="0" res="-9.9000000000000000e+01" rms="0.0000000000000000e+00" purity="4.4929033517837524e-01" nType="-1"/>
        </Node>
      </Node>
    </BinaryTree>
    <BinaryTree type="DecisionTree" boostWeight="2.7603541989964231e-02" itree="44">
      <Node pos="s" depth="0" NCoef="0" IVar="0" Cut="3.1365097045898438e+02" cType="0" res="-9.9000000000000000e+01" rms="0.0000000000000000e+00" purity="4.9722963571548462e-01" nType="0">
        <Node pos="l" depth="1" NCoef="0" IVar="-1" Cut="0.0000000000000000e+00" cType="1" res="-9.9000000000000000e+01" rms="0.0000000000000000e+00" purity="6.3723200559616089e-01" nType="1"/>
        <Node pos="r" depth="1" NCoef="0" IVar="10" Cut="4.0027815103530884e-01" cType="1" res="-9.9000000000000000e+01" rms="0.0000000000000000e+00" purity="4.9713829159736633e-01" nType="0">
          <Node pos="l" depth="2" NCoef="0" IVar="10" Cut="3.3950841426849365e-01" cType="0" res="-9.9000000000000000e+01" rms="0.0000000000000000e+00" purity="5.0141972303390503e-01" nType="0">
            <Node pos="l" depth="3" NCoef="0" IVar="-1" Cut="0.0000000000000000e+00" cType="1" res="-9.9000000000000000e+01" rms="0.0000000000000000e+00" purity="5.1064836978912354e-01" nType="1"/>
            <Node pos="r" depth="3" NCoef="0" IVar="-1" Cut="0.0000000000000000e+00" cType="1" res="-9.9000000000000000e+01" rms="0.0000000000000000e+00" purity="4.9456444382667542e-01" nType="-1"/>
          </Node>
          <Node pos="r" depth="2" NCoef="0" IVar="6" Cut="5.7088273763656616e-01" cType="1" res="-9.9000000000000000e+01" rms="0.0000000000000000e+00" purity="4.9424445629119873e-01" nType="0">
            <Node pos="l" depth="3" NCoef="0" IVar="-1" Cut="0.0000000000000000e+00" cType="1" res="-9.9000000000000000e+01" rms="0.0000000000000000e+00" purity="5.0070124864578247e-01" nType="1"/>
            <Node pos="r" depth="3" NCoef="0" IVar="-1" Cut="0.0000000000000000e+00" cType="1" res="-9.9000000000000000e+01" rms="0.0000000000000000e+00" purity="4.9076861143112183e-01" nType="-1"/>
          </Node>
        </Node>
      </Node>
    </BinaryTree>
    <BinaryTree type="DecisionTree" boostWeight="7.8692068148939788e-03" itree="45">
      <Node pos="s" depth="0" NCoef="0" IVar="2" Cut="6.4363598632812500e+02" cType="0" res="-9.9000000000000000e+01" rms="0.0000000000000000e+00" purity="4.9887022376060486e-01" nType="0">
        <Node pos="l" depth="1" NCoef="0" IVar="8" Cut="2.1835753694176674e-02" cType="0" res="-9.9000000000000000e+01" rms="0.0000000000000000e+00" purity="5.5032455921173096e-01" nType="0">
          <Node pos="l" depth="2" NCoef="0" IVar="3" Cut="2.8571429848670959e-01" cType="0" res="-9.9000000000000000e+01" rms="0.0000000000000000e+00" purity="5.7446497678756714e-01" nType="0">
            <Node pos="l" depth="3" NCoef="0" IVar="-1" Cut="0.0000000000000000e+00" cType="1" res="-9.9000000000000000e+01" rms="0.0000000000000000e+00" purity="6.0047268867492676e-01" nType="1"/>
            <Node pos="r" depth="3" NCoef="0" IVar="-1" Cut="0.0000000000000000e+00" cType="1" res="-9.9000000000000000e+01" rms="0.0000000000000000e+00" purity="4.9928444623947144e-01" nType="-1"/>
          </Node>
          <Node pos="r" depth="2" NCoef="0" IVar="-1" Cut="0.0000000000000000e+00" cType="1" res="-9.9000000000000000e+01" rms="0.0000000000000000e+00" purity="4.0335962176322937e-01" nType="-1"/>
        </Node>
        <Node pos="r" depth="1" NCoef="0" IVar="10" Cut="6.6288018226623535e-01" cType="1" res="-9.9000000000000000e+01" rms="0.0000000000000000e+00" purity="4.9864622950553894e-01" nType="0">
          <Node pos="l" depth="2" NCoef="0" IVar="7" Cut="1.8046742248535156e+02" cType="0" res="-9.9000000000000000e+01" rms="0.0000000000000000e+00" purity="4.9935314059257507e-01" nType="0">
            <Node pos="l" depth="3" NCoef="0" IVar="-1" Cut="0.0000000000000000e+00" cType="1" res="-9.9000000000000000e+01" rms="0.0000000000000000e+00" purity="5.7949799299240112e-01" nType="1"/>
            <Node pos="r" depth="3" NCoef="0" IVar="-1" Cut="0.0000000000000000e+00" cType="1" res="-9.9000000000000000e+01" rms="0.0000000000000000e+00" purity="4.9920532107353210e-01" nType="-1"/>
          </Node>
          <Node pos="r" depth="2" NCoef="0" IVar="-1" Cut="3.3333334326744080e-01" cType="0" res="-9.9000000000000000e+01" rms="0.0000000000000000e+00" purity="4.7819030284881592e-01" nType="-1"/>
        </Node>
      </Node>
    </BinaryTree>
    <BinaryTree type="DecisionTree" boostWeight="1.7671859499638589e-02" itree="46">
      <Node pos="s" depth="0" NCoef="0" IVar="6" Cut="3.7684804201126099e-01" cType="0" res="-9.9000000000000000e+01" rms="0.0000000000000000e+00" purity="5.0081968307495117e-01" nType="0">
        <Node pos="l" depth="1" NCoef="0" IVar="2" Cut="6.4363598632812500e+02" cType="0" res="-9.9000000000000000e+01" rms="0.0000000000000000e+00" purity="5.0182461738586426e-01" nType="0">
          <Node pos="l" depth="2" NCoef="0" IVar="3" Cut="2.8571429848670959e-01" cType="0" res="-9.9000000000000000e+01" rms="0.0000000000000000e+00" purity="5.5103778839111328e-01" nType="0">
            <Node pos="l" depth="3" NCoef="0" IVar="-1" Cut="0.0000000000000000e+00" cType="1" res="-9.9000000000000000e+01" rms="0.0000000000000000e+00" purity="5.8351415395736694e-01" nType="1"/>
            <Node pos="r" depth="3" NCoef="0" IVar="-1" Cut="0.0000000000000000e+00" cType="1" res="-9.9000000000000000e+01" rms="0.0000000000000000e+00" purity="4.7348722815513611e-01" nType="-1"/>
          </Node>
          <Node pos="r" depth="2" NCoef="0" IVar="10" Cut="6.6288018226623535e-01" cType="1" res="-9.9000000000000000e+01" rms="0.0000000000000000e+00" purity="5.0159734487533569e-01" nType="0">
            <Node pos="l" depth="3" NCoef="0" IVar="-1" Cut="0.0000000000000000e+00" cType="1" res="-9.9000000000000000e+01" rms="0.0000000000000000e+00" purity="5.0229513645172119e-01" nType="1"/>
            <Node pos="r" depth="3" NCoef="0" IVar="-1" Cut="0.0000000000000000e+00" cType="1" res="-9.9000000000000000e+01" rms="0.0000000000000000e+00" purity="4.8164850473403931e-01" nType="-1"/>
          </Node>
        </Node>
        <Node pos="r" depth="1" NCoef="0" IVar="5" Cut="9.5238097012042999e-02" cType="0" res="-9.9000000000000000e+01" rms="0.0000000000000000e+00" purity="4.8983421921730042e-01" nType="0">
          <Node pos="l" depth="2" NCoef="0" IVar="4" Cut="2.8571429848670959e-01" cType="0" res="-9.9000000000000000e+01" rms="0.0000000000000000e+00" purity="5.3772312402725220e-01" nType="0">
            <Node pos="l" depth="3" NCoef="0" IVar="-1" Cut="0.0000000000000000e+00" cType="1" res="-9.9000000000000000e+01" rms="0.0000000000000000e+00" purity="5.4725801944732666e-01" nType="1"/>
            <Node pos="r" depth="3" NCoef="0" IVar="-1" Cut="0.0000000000000000e+00" cType="1" res="-9.9000000000000000e+01" rms="0.0000000000000000e+00" purity="4.5273298025131226e-01" nType="-1"/>
          </Node>
          <Node pos="r" depth="2" NCoef="0" IVar="-1" Cut="6.9623641967773438e+01" cType="1" res="-9.9000000000000000e+01" rms="0.0000000000000000e+00" purity="4.8463949561119080e-01" nType="-1"/>
        </Node>
      </Node>
    </BinaryTree>
    <BinaryTree type="DecisionTree" boostWeight="1.3005773808383359e-02" itree="47">
      <Node pos="s" depth="0" NCoef="0" IVar="9" Cut="9.0674328613281250e+02" cType="0" res="-9.9000000000000000e+01" rms="0.0000000000000000e+00" purity="4.9736031889915466e-01" nType="0">
        <Node pos="l" depth="1" NCoef="0" IVar="-1" Cut="1.1428571939468384e+00" cType="0" res="-9.9000000000000000e+01" rms="0.0000000000000000e+00" purity="5.7419037818908691e-01" nType="1"/>
        <Node pos="r" depth="1" NCoef="0" IVar="11" Cut="2.0701438903808594e+02" cType="1" res="-9.9000000000000000e+01" rms="0.0000000000000000e+00" purity="4.9721202254295349e-01" nType="0">
          <Node pos="l" depth="2" NCoef="0" IVar="0" Cut="2.5102069091796875e+02" cType="0" res="-9.9000000000000000e+01" rms="0.0000000000000000e+00" purity="4.9745216965675354e-01" nType="0">
            <Node pos="l" depth="3" NCoef="0" IVar="-1" Cut="0.0000000000000000e+00" cType="1" res="-9.9000000000000000e+01" rms="0.0000000000000000e+00" purity="6.1800849437713623e-01" nType="1"/>
            <Node pos="r" depth="3" NCoef="0" IVar="-1" Cut="0.0000000000000000e+00" cType="1" res="-9.9000000000000000e+01" rms="0.0000000000000000e+00" purity="4.9731111526489258e-01" nType="-1"/>
          </Node>
          <Node pos="r" depth="2" NCoef="0" IVar="10" Cut="4.7197094559669495e-01" cType="0" res="-9.9000000000000000e+01" rms="0.0000000000000000e+00" purity="4.4876858592033386e-01" nType="0">
            <Node pos="l" depth="3" NCoef="0" IVar="-1" Cut="0.0000000000000000e+00" cType="1" res="-9.9000000000000000e+01" rms="0.0000000000000000e+00" purity="5.3665500879287720e-01" nType="1"/>
            <Node pos="r" depth="3" NCoef="0" IVar="-1" Cut="0.0000000000000000e+00" cType="1" res="-9.9000000000000000e+01" rms="0.0000000000000000e+00" purity="4.3398824334144592e-01" nType="-1"/>
          </Node>
        </Node>
      </Node>
    </BinaryTree>
    <BinaryTree type="DecisionTree" boostWeight="4.9536005435596338e-03" itree="48">
      <Node pos="s" depth="0" NCoef="0" IVar="0" Cut="3.1365097045898438e+02" cType="0" res="-9.9000000000000000e+01" rms="0.0000000000000000e+00" purity="5.0058704614639282e-01" nType="0">
        <Node pos="l" depth="1" NCoef="0" IVar="-1" Cut="0.0000000000000000e+00" cType="1" res="-9.9000000000000000e+01" rms="0.0000000000000000e+00" purity="6.2678360939025879e-01" nType="1"/>
        <Node pos="r" depth="1" NCoef="0" IVar="11" Cut="1.9421287536621094e+02" cType="1" res="-9.9000000000000000e+01" rms="0.0000000000000000e+00" purity="5.0050538778305054e-01" nType="0">
          <Node pos="l" depth="2" NCoef="0" IVar="-1" Cut="1.7856619262695312e+02" cType="0" res="-9.9000000000000000e+01" rms="0.0000000000000000e+00" purity="5.0076603889465332e-01" nType="1"/>
          <Node pos="r" depth="2" NCoef="0" IVar="10" Cut="4.7197094559669495e-01" cType="0" res="-9.9000000000000000e+01" rms="0.0000000000000000e+00" purity="4.6621748805046082e-01" nType="0">
            <Node pos="l" depth="3" NCoef="0" IVar="-1" Cut="0.0000000000000000e+00" cType="1" res="-9.9000000000000000e+01" rms="0.0000000000000000e+00" purity="5.5259096622467041e-01" nType="1"/>
            <Node pos="r" depth="3" NCoef="0" IVar="-1" Cut="0.0000000000000000e+00" cType="1" res="-9.9000000000000000e+01" rms="0.0000000000000000e+00" purity="4.4741937518119812e-01" nType="-1"/>
          </Node>
        </Node>
      </Node>
    </BinaryTree>
    <BinaryTree type="DecisionTree" boostWeight="6.3593333106943721e-03" itree="49">
      <Node pos="s" depth="0" NCoef="0" IVar="0" Cut="3.1365097045898438e+02" cType="0" res="-9.9000000000000000e+01" rms="0.0000000000000000e+00" purity="4.9936398863792419e-01" nType="0">
        <Node pos="l" depth="1" NCoef="0" IVar="-1" Cut="0.0000000000000000e+00" cType="1" res="-9.9000000000000000e+01" rms="0.0000000000000000e+00" purity="6.2562417984008789e-01" nType="1"/>
        <Node pos="r" depth="1" NCoef="0" IVar="4" Cut="2.3333332538604736e+00" cType="1" res="-9.9000000000000000e+01" rms="0.0000000000000000e+00" purity="4.9928230047225952e-01" nType="0">
          <Node pos="l" depth="2" NCoef="0" IVar="6" Cut="9.5895218849182129e-01" cType="0" res="-9.9000000000000000e+01" rms="0.0000000000000000e+00" purity="4.9966040253639221e-01" nType="0">
            <Node pos="l" depth="3" NCoef="0" IVar="-1" Cut="0.0000000000000000e+00" cType="1" res="-9.9000000000000000e+01" rms="0.0000000000000000e+00" purity="5.2073657512664795e-01" nType="1"/>
            <Node pos="r" depth="3" NCoef="0" IVar="-1" Cut="0.0000000000000000e+00" cType="1" res="-9.9000000000000000e+01" rms="0.0000000000000000e+00" purity="4.9924263358116150e-01" nType="-1"/>
          </Node>
          <Node pos="r" depth="2" NCoef="0" IVar="-1" Cut="1.4285714924335480e-01" cType="1" res="-9.9000000000000000e+01" rms="0.0000000000000000e+00" purity="4.7828787565231323e-01" nType="-1"/>
        </Node>
      </Node>
    </BinaryTree>
    <BinaryTree type="DecisionTree" boostWeight="4.0054780195055650e-02" itree="50">
      <Node pos="s" depth="0" NCoef="0" IVar="2" Cut="6.4363598632812500e+02" cType="0" res="-9.9000000000000000e+01" rms="0.0000000000000000e+00" purity="5.0089108943939209e-01" nType="0">
        <Node pos="l" depth="1" NCoef="0" IVar="8" Cut="2.1835753694176674e-02" cType="0" res="-9.9000000000000000e+01" rms="0.0000000000000000e+00" purity="5.4884517192840576e-01" nType="0">
          <Node pos="l" depth="2" NCoef="0" IVar="-1" Cut="2.8571429848670959e-01" cType="0" res="-9.9000000000000000e+01" rms="0.0000000000000000e+00" purity="5.7239121198654175e-01" nType="1"/>
