<?xml version="1.0"?>
<MethodSetup Method="BDT::tW_tbarW_April15GradBoost500Trees">
  <GeneralInfo>
    <Info name="TMVA Release" value="4.1.2 [262402]"/>
    <Info name="ROOT Release" value="5.32/00 [335872]"/>
    <Info name="Creator" value="dnoonan"/>
    <Info name="Date" value="Tue Apr 15 16:14:19 2014"/>
    <Info name="Host" value="Linux lxbuild168.cern.ch 2.6.18-308.16.1.el5 #1 SMP Thu Oct 4 14:02:28 CEST 2012 x86_64 x86_64 x86_64 GNU/Linux"/>
    <Info name="Dir" value="/home/t3-ku/dnoonan/TMVA-v4.1.2/test"/>
    <Info name="Training events" value="200000"/>
    <Info name="TrainingTime" value="1.99120435e+02"/>
    <Info name="AnalysisType" value="Classification"/>
  </GeneralInfo>
  <Options>
    <Option name="V" modified="Yes">False</Option>
    <Option name="VerbosityLevel" modified="No">Default</Option>
    <Option name="VarTransform" modified="No">None</Option>
    <Option name="H" modified="Yes">False</Option>
    <Option name="CreateMVAPdfs" modified="No">False</Option>
    <Option name="IgnoreNegWeightsInTraining" modified="No">False</Option>
    <Option name="NTrees" modified="Yes">500</Option>
    <Option name="RenormByClass" modified="No">False</Option>
    <Option name="BoostType" modified="Yes">Grad</Option>
    <Option name="AdaBoostR2Loss" modified="No">quadratic</Option>
    <Option name="UseBaggedGrad" modified="No">False</Option>
    <Option name="GradBaggingFraction" modified="No">6.000000e-01</Option>
    <Option name="Shrinkage" modified="No">1.000000e+00</Option>
    <Option name="AdaBoostBeta" modified="No">1.000000e+00</Option>
    <Option name="UseRandomisedTrees" modified="No">False</Option>
    <Option name="UseNvars" modified="No">3</Option>
    <Option name="UsePoissonNvars" modified="No">True</Option>
    <Option name="UseNTrainEvents" modified="No">200000</Option>
    <Option name="UseWeightedTrees" modified="No">True</Option>
    <Option name="UseYesNoLeaf" modified="No">True</Option>
    <Option name="NodePurityLimit" modified="No">5.000000e-01</Option>
    <Option name="SeparationType" modified="No">giniindex</Option>
    <Option name="nEventsMin" modified="No">246</Option>
    <Option name="nCuts" modified="No">20</Option>
    <Option name="UseFisherCuts" modified="No">False</Option>
    <Option name="MinLinCorrForFisher" modified="No">8.000000e-01</Option>
    <Option name="UseExclusiveVars" modified="No">False</Option>
    <Option name="PruneStrength" modified="No">0.000000e+00</Option>
    <Option name="PruneMethod" modified="No">nopruning</Option>
    <Option name="PruneBeforeBoost" modified="No">False</Option>
    <Option name="PruningValFraction" modified="No">5.000000e-01</Option>
    <Option name="NNodesMax" modified="No">100000</Option>
    <Option name="MaxDepth" modified="No">3</Option>
    <Option name="DoBoostMonitor" modified="No">False</Option>
    <Option name="NegWeightTreatment" modified="No">ignorenegweights</Option>
  </Options>
  <Variables NVar="9">
    <Variable VarIndex="0" Expression="lepJetPt" Label="lepJetPt" Title="lepJetPt" Unit="" Internal="lepJetPt" Type="D" Min="1.21727087e-01" Max="9.34115540e+02"/>
    <Variable VarIndex="1" Expression="lepPt" Label="lepPt" Title="lepPt" Unit="" Internal="lepPt" Type="D" Min="2.00009251e+01" Max="5.94841980e+02"/>
    <Variable VarIndex="2" Expression="lepJetDR" Label="lepJetDR" Title="lepJetDR" Unit="" Internal="lepJetDR" Type="D" Min="1.02937341e-01" Max="5.45956230e+00"/>
    <Variable VarIndex="3" Expression="lepJetDPhi" Label="lepJetDPhi" Title="lepJetDPhi" Unit="" Internal="lepJetDPhi" Type="D" Min="1.13666058e-04" Max="3.14159060e+00"/>
    <Variable VarIndex="4" Expression="lepJetDEta" Label="lepJetDEta" Title="lepJetDEta" Unit="" Internal="lepJetDEta" Type="D" Min="3.36766243e-06" Max="4.69124317e+00"/>
    <Variable VarIndex="5" Expression="lepJetM" Label="lepJetM" Title="lepJetM" Unit="" Internal="lepJetM" Type="D" Min="1.09649248e+01" Max="1.41392883e+03"/>
    <Variable VarIndex="6" Expression="lepPtRelJet" Label="lepPtRelJet" Title="lepPtRelJet" Unit="" Internal="lepPtRelJet" Type="D" Min="2.18803912e-01" Max="1.42426880e+03"/>
    <Variable VarIndex="7" Expression="lepPtRelJetSameLep" Label="lepPtRelJetSameLep" Title="lepPtRelJetSameLep" Unit="" Internal="lepPtRelJetSameLep" Type="D" Min="3.30996126e-01" Max="5.66077087e+02"/>
    <Variable VarIndex="8" Expression="lepJetCosTheta_boosted" Label="lepJetCosTheta_boosted" Title="lepJetCosTheta_boosted" Unit="" Internal="lepJetCosTheta_boosted" Type="D" Min="-9.99992013e-01" Max="9.98532832e-01"/>
  </Variables>
  <Spectators NSpec="0"/>
  <Classes NClass="2">
    <Class Name="Signal" Index="0"/>
    <Class Name="Background" Index="1"/>
  </Classes>
  <Transformations NTransformations="0"/>
  <MVAPdfs/>
  <Weights NTrees="500" AnalysisType="1">
    <BinaryTree type="DecisionTree" boostWeight="1.0000000000000000e+00" itree="0">
      <Node pos="s" depth="0" NCoef="0" IVar="5" Cut="1.4458053588867188e+02" cType="1" res="0.0000000000000000e+00" rms="5.0000000000000000e-01" purity="5.0000000000000000e-01" nType="0">
        <Node pos="l" depth="1" NCoef="0" IVar="0" Cut="1.1210919189453125e+02" cType="0" res="1.1681273579597473e-01" rms="4.8616331815719604e-01" purity="6.1681276559829712e-01" nType="0">
          <Node pos="l" depth="2" NCoef="0" IVar="1" Cut="7.8452163696289062e+01" cType="1" res="3.2561266422271729e-01" rms="3.7944221496582031e-01" purity="8.2561266422271729e-01" nType="0">
            <Node pos="l" depth="3" NCoef="0" IVar="-1" Cut="0.0000000000000000e+00" cType="1" res="7.7125692367553711e-01" rms="3.1826198101043701e-01" purity="8.8562846183776855e-01" nType="-99"/>
            <Node pos="r" depth="3" NCoef="0" IVar="-1" Cut="0.0000000000000000e+00" cType="1" res="3.8780316710472107e-01" rms="4.6087110042572021e-01" purity="6.9390159845352173e-01" nType="-99"/>
          </Node>
          <Node pos="r" depth="2" NCoef="0" IVar="3" Cut="1.1968923807144165e+00" cType="0" res="7.1221657097339630e-02" rms="4.9490147829055786e-01" purity="5.7122164964675903e-01" nType="0">
            <Node pos="l" depth="3" NCoef="0" IVar="-1" Cut="0.0000000000000000e+00" cType="1" res="1.8066841363906860e-01" rms="4.9177202582359314e-01" purity="5.9033423662185669e-01" nType="-99"/>
            <Node pos="r" depth="3" NCoef="0" IVar="-1" Cut="0.0000000000000000e+00" cType="1" res="-1.8442451953887939e-02" rms="4.9991497397422791e-01" purity="4.9077877402305603e-01" nType="-99"/>
          </Node>
        </Node>
        <Node pos="r" depth="1" NCoef="0" IVar="8" Cut="-1.7820553481578827e-01" cType="0" res="-3.6398714780807495e-01" rms="3.4280219674110413e-01" purity="1.3601283729076385e-01" nType="0">
          <Node pos="l" depth="2" NCoef="0" IVar="3" Cut="1.7972449064254761e+00" cType="1" res="1.2506240606307983e-01" rms="4.8410680890083313e-01" purity="6.2506240606307983e-01" nType="0">
            <Node pos="l" depth="3" NCoef="0" IVar="-1" Cut="0.0000000000000000e+00" cType="1" res="5.2195119857788086e-01" rms="4.2648765444755554e-01" purity="7.6097559928894043e-01" nType="-99"/>
            <Node pos="r" depth="3" NCoef="0" IVar="-1" Cut="0.0000000000000000e+00" cType="1" res="-1.8240621685981750e-01" rms="4.9161162972450256e-01" purity="4.0879690647125244e-01" nType="-99"/>
          </Node>
          <Node pos="r" depth="2" NCoef="0" IVar="7" Cut="8.1544105529785156e+01" cType="1" res="-3.8501331210136414e-01" rms="3.1900587677955627e-01" purity="1.1498669534921646e-01" nType="0">
            <Node pos="l" depth="3" NCoef="0" IVar="-1" Cut="0.0000000000000000e+00" cType="1" res="-6.7193287611007690e-01" rms="3.7030601501464844e-01" purity="1.6403354704380035e-01" nType="-99"/>
            <Node pos="r" depth="3" NCoef="0" IVar="-1" Cut="0.0000000000000000e+00" cType="1" res="-8.9003962278366089e-01" rms="2.2794160246849060e-01" purity="5.4980192333459854e-02" nType="-99"/>
          </Node>
        </Node>
      </Node>
    </BinaryTree>
    <BinaryTree type="DecisionTree" boostWeight="1.0000000000000000e+00" itree="1">
      <Node pos="s" depth="0" NCoef="0" IVar="8" Cut="-4.8313517123460770e-02" cType="0" res="-8.0841612070798874e-03" rms="4.4287404417991638e-01" purity="5.0000000000000000e-01" nType="0">
        <Node pos="l" depth="1" NCoef="0" IVar="5" Cut="8.0221023559570312e+01" cType="0" res="4.8994783312082291e-02" rms="4.4257217645645142e-01" purity="6.7712855339050293e-01" nType="0">
          <Node pos="l" depth="2" NCoef="0" IVar="8" Cut="3.3666574954986572e-01" cType="0" res="1.1361556500196457e-01" rms="3.9638385176658630e-01" purity="7.8193682432174683e-01" nType="0">
            <Node pos="l" depth="3" NCoef="0" IVar="-1" Cut="0.0000000000000000e+00" cType="1" res="5.3086382150650024e-01" rms="2.6344910264015198e-01" purity="9.2456519603729248e-01" nType="-99"/>
            <Node pos="r" depth="3" NCoef="0" IVar="-1" Cut="0.0000000000000000e+00" cType="1" res="1.6225774586200714e-01" rms="4.4060239195823669e-01" purity="7.1250534057617188e-01" nType="-99"/>
          </Node>
          <Node pos="r" depth="2" NCoef="0" IVar="1" Cut="4.7249996185302734e+01" cType="1" res="-7.5077298097312450e-03" rms="4.7213155031204224e-01" purity="5.8548730611801147e-01" nType="0">
            <Node pos="l" depth="3" NCoef="0" IVar="-1" Cut="0.0000000000000000e+00" cType="1" res="1.0091332346200943e-01" rms="4.6302881836891174e-01" purity="6.2662470340728760e-01" nType="-99"/>
            <Node pos="r" depth="3" NCoef="0" IVar="-1" Cut="0.0000000000000000e+00" cType="1" res="-3.8778999447822571e-01" rms="4.6289104223251343e-01" purity="4.6414759755134583e-01" nType="-99"/>
          </Node>
        </Node>
        <Node pos="r" depth="1" NCoef="0" IVar="5" Cut="1.6677816772460938e+02" cType="1" res="-3.6841440945863724e-02" rms="4.4023138284683228e-01" purity="4.1075980663299561e-01" nType="0">
          <Node pos="l" depth="2" NCoef="0" IVar="5" Cut="1.1676475524902344e+02" cType="1" res="-1.5296244062483311e-02" rms="4.8564112186431885e-01" purity="5.2648395299911499e-01" nType="0">
            <Node pos="l" depth="3" NCoef="0" IVar="-1" Cut="0.0000000000000000e+00" cType="1" res="1.6012163832783699e-02" rms="4.9017983675003052e-01" purity="5.9619230031967163e-01" nType="-99"/>
            <Node pos="r" depth="3" NCoef="0" IVar="-1" Cut="0.0000000000000000e+00" cType="1" res="-9.8008058965206146e-02" rms="4.7886916995048523e-01" purity="4.4485527276992798e-01" nType="-99"/>
          </Node>
          <Node pos="r" depth="2" NCoef="0" IVar="3" Cut="1.6456491947174072e+00" cType="1" res="-1.0015937685966492e-01" rms="2.5469729304313660e-01" purity="7.0664890110492706e-02" nType="0">
            <Node pos="l" depth="3" NCoef="0" IVar="-1" Cut="0.0000000000000000e+00" cType="1" res="2.2780933976173401e-01" rms="4.4435080885887146e-01" purity="2.6287505030632019e-01" nType="-99"/>
            <Node pos="r" depth="3" NCoef="0" IVar="-1" Cut="0.0000000000000000e+00" cType="1" res="-4.0263098478317261e-01" rms="2.3103293776512146e-01" purity="5.7053152471780777e-02" nType="-99"/>
          </Node>
        </Node>
      </Node>
    </BinaryTree>
    <BinaryTree type="DecisionTree" boostWeight="1.0000000000000000e+00" itree="2">
      <Node pos="s" depth="0" NCoef="0" IVar="0" Cut="1.3354940795898438e+02" cType="0" res="-1.2002866715192795e-03" rms="4.3532034754753113e-01" purity="5.0000000000000000e-01" nType="0">
        <Node pos="l" depth="1" NCoef="0" IVar="1" Cut="1.0212216949462891e+02" cType="1" res="8.0307833850383759e-02" rms="3.1555557250976562e-01" purity="7.7600884437561035e-01" nType="0">
          <Node pos="l" depth="2" NCoef="0" IVar="5" Cut="2.0610963439941406e+02" cType="1" res="1.3197197020053864e-01" rms="2.7194815874099731e-01" purity="8.9805370569229126e-01" nType="0">
            <Node pos="l" depth="3" NCoef="0" IVar="-1" Cut="0.0000000000000000e+00" cType="1" res="4.7492825984954834e-01" rms="2.4812336266040802e-01" purity="9.2528116703033447e-01" nType="-99"/>
            <Node pos="r" depth="3" NCoef="0" IVar="-1" Cut="0.0000000000000000e+00" cType="1" res="1.3462607860565186e+00" rms="4.8430773615837097e-01" purity="4.7675803303718567e-01" nType="-99"/>
          </Node>
          <Node pos="r" depth="2" NCoef="0" IVar="0" Cut="1.7682575988769531e+02" cType="0" res="-3.8147706538438797e-02" rms="3.7170439958572388e-01" purity="4.9618446826934814e-01" nType="0">
            <Node pos="l" depth="3" NCoef="0" IVar="-1" Cut="0.0000000000000000e+00" cType="1" res="1.6350564360618591e-01" rms="3.2056823372840881e-01" purity="6.7387032508850098e-01" nType="-99"/>
            <Node pos="r" depth="3" NCoef="0" IVar="-1" Cut="0.0000000000000000e+00" cType="1" res="-3.3028796315193176e-01" rms="3.9488917589187622e-01" purity="3.6635085940361023e-01" nType="-99"/>
          </Node>
        </Node>
        <Node pos="r" depth="1" NCoef="0" IVar="1" Cut="7.1635307312011719e+01" cType="1" res="-1.0180834680795670e-02" rms="4.4564497470855713e-01" purity="4.6958941221237183e-01" nType="0">
          <Node pos="l" depth="2" NCoef="0" IVar="0" Cut="9.5424858093261719e+01" cType="0" res="1.2758332304656506e-03" rms="4.6853330731391907e-01" purity="5.3864717483520508e-01" nType="0">
            <Node pos="l" depth="3" NCoef="0" IVar="-1" Cut="0.0000000000000000e+00" cType="1" res="1.1741412431001663e-01" rms="4.3447652459144592e-01" purity="6.5161991119384766e-01" nType="-99"/>
            <Node pos="r" depth="3" NCoef="0" IVar="-1" Cut="0.0000000000000000e+00" cType="1" res="-1.7113471403717995e-02" rms="4.7486144304275513e-01" purity="5.1501399278640747e-01" nType="-99"/>
          </Node>
          <Node pos="r" depth="2" NCoef="0" IVar="3" Cut="1.6458740234375000e+00" cType="1" res="-4.8645079135894775e-02" rms="3.5556951165199280e-01" purity="2.3773702979087830e-01" nType="0">
            <Node pos="l" depth="3" NCoef="0" IVar="-1" Cut="0.0000000000000000e+00" cType="1" res="-3.9588868618011475e-01" rms="4.6546095609664917e-01" purity="4.4197571277618408e-01" nType="-99"/>
            <Node pos="r" depth="3" NCoef="0" IVar="-1" Cut="0.0000000000000000e+00" cType="1" res="-1.1305504292249680e-01" rms="3.2830539345741272e-01" purity="2.0132239162921906e-01" nType="-99"/>
          </Node>
        </Node>
      </Node>
    </BinaryTree>
    <BinaryTree type="DecisionTree" boostWeight="1.0000000000000000e+00" itree="3">
      <Node pos="s" depth="0" NCoef="0" IVar="3" Cut="7.4808436632156372e-01" cType="1" res="1.1738945031538606e-03" rms="4.3196895718574524e-01" purity="5.0000000000000000e-01" nType="0">
        <Node pos="l" depth="1" NCoef="0" IVar="0" Cut="1.5019889831542969e+02" cType="0" res="-2.6423076167702675e-02" rms="4.1904455423355103e-01" purity="6.2909275293350220e-01" nType="0">
          <Node pos="l" depth="2" NCoef="0" IVar="8" Cut="7.0647656917572021e-01" cType="0" res="5.4254241287708282e-02" rms="2.3431970179080963e-01" purity="9.2826926708221436e-01" nType="0">
            <Node pos="l" depth="3" NCoef="0" IVar="-1" Cut="0.0000000000000000e+00" cType="1" res="4.3096768856048584e-01" rms="1.9262014329433441e-01" purity="9.5190840959548950e-01" nType="-99"/>
            <Node pos="r" depth="3" NCoef="0" IVar="-1" Cut="0.0000000000000000e+00" cType="1" res="1.3876366615295410e-01" rms="2.6325964927673340e-01" purity="9.0628325939178467e-01" nType="-99"/>
          </Node>
          <Node pos="r" depth="2" NCoef="0" IVar="1" Cut="2.9655128479003906e+01" cType="1" res="-5.0400476902723312e-02" rms="4.5712032914161682e-01" purity="5.4017710685729980e-01" nType="0">
            <Node pos="l" depth="3" NCoef="0" IVar="-1" Cut="0.0000000000000000e+00" cType="1" res="5.3072493523359299e-02" rms="4.6498858928680420e-01" purity="6.1657559871673584e-01" nType="-99"/>
            <Node pos="r" depth="3" NCoef="0" IVar="-1" Cut="0.0000000000000000e+00" cType="1" res="-2.0921050012111664e-01" rms="4.5002150535583496e-01" purity="5.0741958618164062e-01" nType="-99"/>
          </Node>
        </Node>
        <Node pos="r" depth="1" NCoef="0" IVar="5" Cut="1.5544476318359375e+02" cType="1" res="4.8892595805227757e-03" rms="4.3354541063308716e-01" purity="4.8262029886245728e-01" nType="0">
          <Node pos="l" depth="2" NCoef="0" IVar="5" Cut="1.4282720947265625e+02" cType="1" res="1.4779533259570599e-02" rms="4.7121676802635193e-01" purity="5.9727382659912109e-01" nType="0">
            <Node pos="l" depth="3" NCoef="0" IVar="-1" Cut="0.0000000000000000e+00" cType="1" res="1.9430853426456451e-02" rms="4.7101813554763794e-01" purity="6.1463308334350586e-01" nType="-99"/>
            <Node pos="r" depth="3" NCoef="0" IVar="-1" Cut="0.0000000000000000e+00" cType="1" res="2.9872918128967285e-01" rms="4.6655681729316711e-01" purity="3.7044262886047363e-01" nType="-99"/>
          </Node>
          <Node pos="r" depth="2" NCoef="0" IVar="4" Cut="2.8563230037689209e+00" cType="0" res="-2.9580483213067055e-02" rms="2.6008415222167969e-01" purity="8.3027988672256470e-02" nType="0">
            <Node pos="l" depth="3" NCoef="0" IVar="-1" Cut="0.0000000000000000e+00" cType="1" res="3.7492117285728455e-01" rms="4.1265964508056641e-01" purity="2.1560575067996979e-01" nType="-99"/>
            <Node pos="r" depth="3" NCoef="0" IVar="-1" Cut="0.0000000000000000e+00" cType="1" res="-2.0857293903827667e-01" rms="2.4829496443271637e-01" purity="7.6113730669021606e-02" nType="-99"/>
          </Node>
        </Node>
      </Node>
    </BinaryTree>
    <BinaryTree type="DecisionTree" boostWeight="1.0000000000000000e+00" itree="4">
      <Node pos="s" depth="0" NCoef="0" IVar="0" Cut="8.9073516845703125e+01" cType="0" res="-1.2349061435088515e-03" rms="4.3045037984848022e-01" purity="5.0000000000000000e-01" nType="0">
        <Node pos="l" depth="1" NCoef="0" IVar="8" Cut="2.3295186460018158e-01" cType="0" res="1.0288807563483715e-02" rms="3.9320939779281616e-01" purity="6.0175311565399170e-01" nType="0">
          <Node pos="l" depth="2" NCoef="0" IVar="1" Cut="5.8968418121337891e+01" cType="1" res="2.7232151478528976e-02" rms="3.5023161768913269e-01" purity="7.6600188016891479e-01" nType="0">
            <Node pos="l" depth="3" NCoef="0" IVar="-1" Cut="0.0000000000000000e+00" cType="1" res="1.7041522264480591e-01" rms="3.5324141383171082e-01" purity="7.9522907733917236e-01" nType="-99"/>
            <Node pos="r" depth="3" NCoef="0" IVar="-1" Cut="0.0000000000000000e+00" cType="1" res="-1.5564934350550175e-02" rms="3.4345784783363342e-01" purity="7.2403562068939209e-01" nType="-99"/>
          </Node>
          <Node pos="r" depth="2" NCoef="0" IVar="2" Cut="1.4716124534606934e+00" cType="1" res="-2.8342339210212231e-03" rms="4.2304405570030212e-01" purity="4.7453835606575012e-01" nType="0">
            <Node pos="l" depth="3" NCoef="0" IVar="-1" Cut="0.0000000000000000e+00" cType="1" res="-2.1327334642410278e-01" rms="4.3820688128471375e-01" purity="6.4027607440948486e-01" nType="-99"/>
            <Node pos="r" depth="3" NCoef="0" IVar="-1" Cut="0.0000000000000000e+00" cType="1" res="6.2678772956132889e-03" rms="4.2152494192123413e-01" purity="4.6275120973587036e-01" nType="-99"/>
          </Node>
        </Node>
        <Node pos="r" depth="1" NCoef="0" IVar="3" Cut="1.7952630519866943e+00" cType="1" res="-6.8884603679180145e-03" rms="4.4748082756996155e-01" purity="4.5007973909378052e-01" nType="0">
          <Node pos="l" depth="2" NCoef="0" IVar="1" Cut="3.3137577056884766e+01" cType="1" res="-3.8521308451890945e-02" rms="4.9081632494926453e-01" purity="5.0407075881958008e-01" nType="0">
            <Node pos="l" depth="3" NCoef="0" IVar="-1" Cut="0.0000000000000000e+00" cType="1" res="-1.8914945423603058e-02" rms="4.9191355705261230e-01" purity="5.5537438392639160e-01" nType="-99"/>
            <Node pos="r" depth="3" NCoef="0" IVar="-1" Cut="0.0000000000000000e+00" cType="1" res="-1.3620680570602417e-01" rms="4.8857524991035461e-01" purity="4.6174097061157227e-01" nType="-99"/>
          </Node>
          <Node pos="r" depth="2" NCoef="0" IVar="8" Cut="1.7776444554328918e-01" cType="0" res="2.6951481122523546e-03" rms="4.3304169178009033e-01" purity="4.3372240662574768e-01" nType="0">
            <Node pos="l" depth="3" NCoef="0" IVar="-1" Cut="0.0000000000000000e+00" cType="1" res="2.4156601727008820e-01" rms="4.0410497784614563e-01" purity="7.8367620706558228e-01" nType="-99"/>
            <Node pos="r" depth="3" NCoef="0" IVar="-1" Cut="0.0000000000000000e+00" cType="1" res="-7.4021948967128992e-04" rms="4.3353542685508728e-01" purity="4.2317080497741699e-01" nType="-99"/>
          </Node>
        </Node>
      </Node>
    </BinaryTree>
    <BinaryTree type="DecisionTree" boostWeight="1.0000000000000000e+00" itree="5">
      <Node pos="s" depth="0" NCoef="0" IVar="2" Cut="8.6816948652267456e-01" cType="1" res="4.1191501077264547e-04" rms="4.2946833372116089e-01" purity="5.0000000000000000e-01" nType="0">
        <Node pos="l" depth="1" NCoef="0" IVar="0" Cut="1.2475817871093750e+02" cType="0" res="-4.3356768786907196e-02" rms="3.6792266368865967e-01" purity="6.3913667201995850e-01" nType="0">
          <Node pos="l" depth="2" NCoef="0" IVar="7" Cut="2.6402105331420898e+01" cType="0" res="1.3779382221400738e-02" rms="2.3678922653198242e-01" purity="8.9283961057662964e-01" nType="0">
            <Node pos="l" depth="3" NCoef="0" IVar="-1" Cut="0.0000000000000000e+00" cType="1" res="3.3538138866424561e-01" rms="1.9706451892852783e-01" purity="9.5652174949645996e-01" nType="-99"/>
            <Node pos="r" depth="3" NCoef="0" IVar="-1" Cut="0.0000000000000000e+00" cType="1" res="-8.2067117094993591e-02" rms="2.5933572649955750e-01" purity="8.4506440162658691e-01" nType="-99"/>
          </Node>
          <Node pos="r" depth="2" NCoef="0" IVar="1" Cut="3.0717786788940430e+01" cType="1" res="-8.9929066598415375e-02" rms="4.4178476929664612e-01" purity="4.3234059214591980e-01" nType="0">
            <Node pos="l" depth="3" NCoef="0" IVar="-1" Cut="0.0000000000000000e+00" cType="1" res="-1.9639728590846062e-02" rms="4.6601882576942444e-01" purity="6.2267082929611206e-01" nType="-99"/>
            <Node pos="r" depth="3" NCoef="0" IVar="-1" Cut="0.0000000000000000e+00" cType="1" res="-3.3611744642257690e-01" rms="4.1777908802032471e-01" purity="3.1260174512863159e-01" nType="-99"/>
          </Node>
        </Node>
        <Node pos="r" depth="1" NCoef="0" IVar="8" Cut="6.7113602161407471e-01" cType="0" res="2.4937582202255726e-03" rms="4.3206697702407837e-01" purity="4.9338200688362122e-01" nType="0">
          <Node pos="l" depth="2" NCoef="0" IVar="2" Cut="1.0907678604125977e+00" cType="0" res="7.6572611927986145e-02" rms="3.7778481841087341e-01" purity="7.5583654642105103e-01" nType="0">
            <Node pos="l" depth="3" NCoef="0" IVar="-1" Cut="0.0000000000000000e+00" cType="1" res="3.9987510442733765e-01" rms="3.7770670652389526e-01" purity="8.1536072492599487e-01" nType="-99"/>
            <Node pos="r" depth="3" NCoef="0" IVar="-1" Cut="0.0000000000000000e+00" cType="1" res="1.4636966586112976e-01" rms="3.7419450283050537e-01" purity="7.2865748405456543e-01" nType="-99"/>
          </Node>
          <Node pos="r" depth="2" NCoef="0" IVar="2" Cut="1.0868411064147949e+00" cType="1" res="8.6313270730897784e-04" rms="4.3304282426834106e-01" purity="4.8760485649108887e-01" nType="0">
            <Node pos="l" depth="3" NCoef="0" IVar="-1" Cut="0.0000000000000000e+00" cType="1" res="-1.4450339972972870e-01" rms="3.8200229406356812e-01" purity="6.4880400896072388e-01" nType="-99"/>
            <Node pos="r" depth="3" NCoef="0" IVar="-1" Cut="0.0000000000000000e+00" cType="1" res="5.9129656292498112e-03" rms="4.3439772725105286e-01" purity="4.8281279206275940e-01" nType="-99"/>
          </Node>
        </Node>
      </Node>
    </BinaryTree>
    <BinaryTree type="DecisionTree" boostWeight="1.0000000000000000e+00" itree="6">
      <Node pos="s" depth="0" NCoef="0" IVar="8" Cut="-4.2898491024971008e-01" cType="0" res="1.0791705426527187e-04" rms="4.2866224050521851e-01" purity="5.0000000000000000e-01" nType="0">
        <Node pos="l" depth="1" NCoef="0" IVar="5" Cut="6.5973869323730469e+01" cType="0" res="8.0672148615121841e-03" rms="4.4170317053794861e-01" purity="6.2952411174774170e-01" nType="0">
          <Node pos="l" depth="2" NCoef="0" IVar="1" Cut="1.2318474578857422e+02" cType="1" res="1.5961874276399612e-02" rms="4.3923079967498779e-01" purity="6.5388792753219604e-01" nType="0">
            <Node pos="l" depth="3" NCoef="0" IVar="-1" Cut="0.0000000000000000e+00" cType="1" res="4.9377579241991043e-02" rms="4.4049018621444702e-01" purity="6.5813004970550537e-01" nType="-99"/>
            <Node pos="r" depth="3" NCoef="0" IVar="-1" Cut="0.0000000000000000e+00" cType="1" res="-2.1012359857559204e-01" rms="3.9905884861946106e-01" purity="5.4747343063354492e-01" nType="-99"/>
          </Node>
          <Node pos="r" depth="2" NCoef="0" IVar="6" Cut="3.6994598388671875e+01" cType="1" res="-1.7221534624695778e-02" rms="4.4859695434570312e-01" purity="5.5148017406463623e-01" nType="0">
            <Node pos="l" depth="3" NCoef="0" IVar="-1" Cut="0.0000000000000000e+00" cType="1" res="1.4403713867068291e-02" rms="4.4313842058181763e-01" purity="6.1493372917175293e-01" nType="-99"/>
            <Node pos="r" depth="3" NCoef="0" IVar="-1" Cut="0.0000000000000000e+00" cType="1" res="-1.4345046877861023e-01" rms="4.5544195175170898e-01" purity="4.3499216437339783e-01" nType="-99"/>
          </Node>
        </Node>
        <Node pos="r" depth="1" NCoef="0" IVar="7" Cut="5.4211574554443359e+01" cType="1" res="-8.9302072301506996e-03" rms="4.1316929459571838e-01" purity="3.5291981697082520e-01" nType="0">
          <Node pos="l" depth="2" NCoef="0" IVar="6" Cut="6.8030708312988281e+01" cType="1" res="2.1564953494817019e-03" rms="4.7560465335845947e-01" purity="5.2046579122543335e-01" nType="0">
            <Node pos="l" depth="3" NCoef="0" IVar="-1" Cut="0.0000000000000000e+00" cType="1" res="-1.7489517107605934e-02" rms="4.7733935713768005e-01" purity="5.2114874124526978e-01" nType="-99"/>
            <Node pos="r" depth="3" NCoef="0" IVar="-1" Cut="0.0000000000000000e+00" cType="1" res="1.1543232947587967e-01" rms="4.6444633603096008e-01" purity="5.1723706722259521e-01" nType="-99"/>
          </Node>
          <Node pos="r" depth="2" NCoef="0" IVar="4" Cut="2.2339491844177246e+00" cType="1" res="-1.9567141309380531e-02" rms="3.4240043163299561e-01" purity="1.9217088818550110e-01" nType="0">
            <Node pos="l" depth="3" NCoef="0" IVar="-1" Cut="0.0000000000000000e+00" cType="1" res="-9.4396255910396576e-02" rms="3.3865076303482056e-01" purity="1.9383145868778229e-01" nType="-99"/>
            <Node pos="r" depth="3" NCoef="0" IVar="-1" Cut="0.0000000000000000e+00" cType="1" res="3.0099505558609962e-02" rms="3.7149798870086670e-01" purity="1.7815524339675903e-01" nType="-99"/>
          </Node>
        </Node>
      </Node>
    </BinaryTree>
    <BinaryTree type="DecisionTree" boostWeight="1.0000000000000000e+00" itree="7">
      <Node pos="s" depth="0" NCoef="0" IVar="8" Cut="5.2269357442855835e-01" cType="0" res="-9.4222714324132539e-06" rms="4.2788344621658325e-01" purity="5.0000000000000000e-01" nType="0">
        <Node pos="l" depth="1" NCoef="0" IVar="7" Cut="2.3865020751953125e+01" cType="0" res="2.3496650159358978e-02" rms="3.6706367135047913e-01" purity="6.9255083799362183e-01" nType="0">
          <Node pos="l" depth="2" NCoef="0" IVar="0" Cut="1.1444528198242188e+02" cType="0" res="5.5519428104162216e-02" rms="3.0296322703361511e-01" purity="8.4340131282806396e-01" nType="0">
            <Node pos="l" depth="3" NCoef="0" IVar="-1" Cut="0.0000000000000000e+00" cType="1" res="2.6258450746536255e-01" rms="2.2192929685115814e-01" purity="9.2422342300415039e-01" nType="-99"/>
            <Node pos="r" depth="3" NCoef="0" IVar="-1" Cut="0.0000000000000000e+00" cType="1" res="2.3411911725997925e-01" rms="4.2994186282157898e-01" purity="6.6304010152816772e-01" nType="-99"/>
          </Node>
          <Node pos="r" depth="2" NCoef="0" IVar="1" Cut="8.8123603820800781e+01" cType="1" res="-5.6241340935230255e-03" rms="4.1474333405494690e-01" purity="5.5537086725234985e-01" nType="0">
            <Node pos="l" depth="3" NCoef="0" IVar="-1" Cut="0.0000000000000000e+00" cType="1" res="-2.1701080258935690e-03" rms="4.1522133350372314e-01" purity="5.6671464443206787e-01" nType="-99"/>
            <Node pos="r" depth="3" NCoef="0" IVar="-1" Cut="0.0000000000000000e+00" cType="1" res="-4.9697127938270569e-01" rms="3.5590749979019165e-01" purity="1.4838708937168121e-01" nType="-99"/>
          </Node>
        </Node>
        <Node pos="r" depth="1" NCoef="0" IVar="3" Cut="2.2440257072448730e+00" cType="1" res="-2.8891707770526409e-03" rms="4.3466249108314514e-01" purity="4.7641044855117798e-01" nType="0">
          <Node pos="l" depth="2" NCoef="0" IVar="7" Cut="5.3849117279052734e+01" cType="1" res="-1.1817858554422855e-02" rms="4.5484372973442078e-01" purity="5.6137979030609131e-01" nType="0">
            <Node pos="l" depth="3" NCoef="0" IVar="-1" Cut="0.0000000000000000e+00" cType="1" res="-4.4799733906984329e-02" rms="4.6604937314987183e-01" purity="5.9625905752182007e-01" nType="-99"/>
            <Node pos="r" depth="3" NCoef="0" IVar="-1" Cut="0.0000000000000000e+00" cType="1" res="2.2611578926444054e-02" rms="4.2047476768493652e-01" purity="4.6139690279960632e-01" nType="-99"/>
          </Node>
          <Node pos="r" depth="2" NCoef="0" IVar="5" Cut="1.7739656066894531e+02" cType="1" res="6.7400801926851273e-03" rms="4.1157376766204834e-01" purity="3.8477420806884766e-01" nType="0">
            <Node pos="l" depth="3" NCoef="0" IVar="-1" Cut="0.0000000000000000e+00" cType="1" res="3.1724922358989716e-02" rms="4.6820890903472900e-01" purity="5.1641917228698730e-01" nType="-99"/>
            <Node pos="r" depth="3" NCoef="0" IVar="-1" Cut="0.0000000000000000e+00" cType="1" res="-1.1702769249677658e-01" rms="2.0024460554122925e-01" purity="4.4342186301946640e-02" nType="-99"/>
          </Node>
        </Node>
      </Node>
    </BinaryTree>
    <BinaryTree type="DecisionTree" boostWeight="1.0000000000000000e+00" itree="8">
      <Node pos="s" depth="0" NCoef="0" IVar="5" Cut="1.4458053588867188e+02" cType="1" res="1.2782610428985208e-04" rms="4.2730858922004700e-01" purity="5.0000000000000000e-01" nType="0">
        <Node pos="l" depth="1" NCoef="0" IVar="5" Cut="1.3821643066406250e+02" cType="1" res="-2.9836804606020451e-03" rms="4.5970204472541809e-01" purity="6.1681276559829712e-01" nType="0">
          <Node pos="l" depth="2" NCoef="0" IVar="6" Cut="6.0763259887695312e+01" cType="1" res="1.8084450857713819e-03" rms="4.5811206102371216e-01" purity="6.2235873937606812e-01" nType="0">
            <Node pos="l" depth="3" NCoef="0" IVar="-1" Cut="0.0000000000000000e+00" cType="1" res="1.6177287325263023e-02" rms="4.5851436257362366e-01" purity="6.2506490945816040e-01" nType="-99"/>
            <Node pos="r" depth="3" NCoef="0" IVar="-1" Cut="0.0000000000000000e+00" cType="1" res="-1.5868844464421272e-02" rms="4.5731949806213379e-01" purity="6.1784392595291138e-01" nType="-99"/>
          </Node>
          <Node pos="r" depth="2" NCoef="0" IVar="8" Cut="-1.8788936734199524e-01" cType="0" res="-1.0669625550508499e-01" rms="4.8130646347999573e-01" purity="4.9678480625152588e-01" nType="0">
            <Node pos="l" depth="3" NCoef="0" IVar="-1" Cut="0.0000000000000000e+00" cType="1" res="6.6867284476757050e-02" rms="3.8188442587852478e-01" purity="7.8217822313308716e-01" nType="-99"/>
            <Node pos="r" depth="3" NCoef="0" IVar="-1" Cut="0.0000000000000000e+00" cType="1" res="-2.8691089153289795e-01" rms="4.9628484249114990e-01" purity="4.3360731005668640e-01" nType="-99"/>
          </Node>
        </Node>
        <Node pos="r" depth="1" NCoef="0" IVar="8" Cut="-1.7820553481578827e-01" cType="0" res="9.8232449963688850e-03" rms="3.0485343933105469e-01" purity="1.3601283729076385e-01" nType="0">
          <Node pos="l" depth="2" NCoef="0" IVar="6" Cut="1.7082044982910156e+02" cType="1" res="-5.4649114608764648e-02" rms="4.2167773842811584e-01" purity="6.2506240606307983e-01" nType="0">
            <Node pos="l" depth="3" NCoef="0" IVar="-1" Cut="0.0000000000000000e+00" cType="1" res="-7.5087592005729675e-02" rms="4.1729080677032471e-01" purity="6.9630640745162964e-01" nType="-99"/>
            <Node pos="r" depth="3" NCoef="0" IVar="-1" Cut="0.0000000000000000e+00" cType="1" res="-4.3275353312492371e-01" rms="4.2075386643409729e-01" purity="4.3253234028816223e-01" nType="-99"/>
          </Node>
          <Node pos="r" depth="2" NCoef="0" IVar="8" Cut="-4.1316401958465576e-01" cType="0" res="1.2595163658261299e-02" rms="2.9849633574485779e-01" purity="1.1498669534921646e-01" nType="0">
            <Node pos="l" depth="3" NCoef="0" IVar="-1" Cut="0.0000000000000000e+00" cType="1" res="3.4618219733238220e-01" rms="4.1418775916099548e-01" purity="2.7497026324272156e-01" nType="-99"/>
            <Node pos="r" depth="3" NCoef="0" IVar="-1" Cut="0.0000000000000000e+00" cType="1" res="4.3843884021043777e-02" rms="2.8668597340583801e-01" purity="1.0253562778234482e-01" nType="-99"/>
          </Node>
        </Node>
      </Node>
    </BinaryTree>
    <BinaryTree type="DecisionTree" boostWeight="1.0000000000000000e+00" itree="9">
      <Node pos="s" depth="0" NCoef="0" IVar="8" Cut="4.6854335814714432e-02" cType="0" res="-2.3237943241838366e-04" rms="4.2644521594047546e-01" purity="5.0000000000000000e-01" nType="0">
        <Node pos="l" depth="1" NCoef="0" IVar="5" Cut="1.0330638885498047e+02" cType="0" res="6.6711124964058399e-03" rms="4.0437752008438110e-01" purity="6.8406385183334351e-01" nType="0">
          <Node pos="l" depth="2" NCoef="0" IVar="1" Cut="7.8593490600585938e+01" cType="1" res="5.4742906242609024e-02" rms="3.1431406736373901e-01" purity="8.7254989147186279e-01" nType="0">
            <Node pos="l" depth="3" NCoef="0" IVar="-1" Cut="0.0000000000000000e+00" cType="1" res="1.5371644496917725e-01" rms="3.0418598651885986e-01" purity="8.8229882717132568e-01" nType="-99"/>
            <Node pos="r" depth="3" NCoef="0" IVar="-1" Cut="0.0000000000000000e+00" cType="1" res="2.9314851760864258e-01" rms="3.2578551769256592e-01" purity="8.5886400938034058e-01" nType="-99"/>
          </Node>
          <Node pos="r" depth="2" NCoef="0" IVar="1" Cut="6.3836376190185547e+01" cType="1" res="-4.6786782331764698e-03" rms="4.2205336689949036e-01" purity="6.3956212997436523e-01" nType="0">
            <Node pos="l" depth="3" NCoef="0" IVar="-1" Cut="0.0000000000000000e+00" cType="1" res="1.1497080326080322e-02" rms="4.2678385972976685e-01" purity="6.5428459644317627e-01" nType="-99"/>
            <Node pos="r" depth="3" NCoef="0" IVar="-1" Cut="0.0000000000000000e+00" cType="1" res="-1.6531296074390411e-01" rms="3.9485397934913635e-01" purity="5.6651550531387329e-01" nType="-99"/>
          </Node>
        </Node>
        <Node pos="r" depth="1" NCoef="0" IVar="2" Cut="1.8021196126937866e+00" cType="1" res="-3.0861974228173494e-03" rms="4.3520900607109070e-01" purity="4.2391029000282288e-01" nType="0">
          <Node pos="l" depth="2" NCoef="0" IVar="1" Cut="4.5037300109863281e+01" cType="1" res="-3.2737426459789276e-02" rms="4.7568300366401672e-01" purity="5.7705771923065186e-01" nType="0">
            <Node pos="l" depth="3" NCoef="0" IVar="-1" Cut="0.0000000000000000e+00" cType="1" res="6.3771177083253860e-03" rms="4.7049400210380554e-01" purity="6.2849092483520508e-01" nType="-99"/>
            <Node pos="r" depth="3" NCoef="0" IVar="-1" Cut="0.0000000000000000e+00" cType="1" res="-1.4409850537776947e-01" rms="4.7788295149803162e-01" purity="5.3653615713119507e-01" nType="-99"/>
          </Node>
          <Node pos="r" depth="2" NCoef="0" IVar="3" Cut="7.4808436632156372e-01" cType="1" res="-1.1063491692766547e-03" rms="4.3229916691780090e-01" purity="4.1368442773818970e-01" nType="0">
            <Node pos="l" depth="3" NCoef="0" IVar="-1" Cut="0.0000000000000000e+00" cType="1" res="8.8872842490673065e-02" rms="4.8705849051475525e-01" purity="4.5958796143531799e-01" nType="-99"/>
            <Node pos="r" depth="3" NCoef="0" IVar="-1" Cut="0.0000000000000000e+00" cType="1" res="-5.5648270063102245e-03" rms="4.3083623051643372e-01" purity="4.1256603598594666e-01" nType="-99"/>
          </Node>
        </Node>
      </Node>
    </BinaryTree>
    <BinaryTree type="DecisionTree" boostWeight="1.0000000000000000e+00" itree="10">
      <Node pos="s" depth="0" NCoef="0" IVar="8" Cut="8.0819714069366455e-01" cType="0" res="3.3276405883952975e-04" rms="4.2582491040229797e-01" purity="5.0000000000000000e-01" nType="0">
        <Node pos="l" depth="1" NCoef="0" IVar="5" Cut="2.4655626296997070e+01" cType="0" res="2.9726697131991386e-02" rms="3.5083463788032532e-01" purity="6.6965138912200928e-01" nType="0">
          <Node pos="l" depth="2" NCoef="0" IVar="2" Cut="6.0839092731475830e-01" cType="0" res="4.4845663011074066e-02" rms="3.3385613560676575e-01" purity="7.1195536851882935e-01" nType="0">
            <Node pos="l" depth="3" NCoef="0" IVar="-1" Cut="0.0000000000000000e+00" cType="1" res="2.5372996926307678e-01" rms="3.4960728883743286e-01" purity="7.3528295755386353e-01" nType="-99"/>
            <Node pos="r" depth="3" NCoef="0" IVar="-1" Cut="0.0000000000000000e+00" cType="1" res="5.4206758737564087e-02" rms="3.0927893519401550e-01" purity="6.8163871765136719e-01" nType="-99"/>
          </Node>
          <Node pos="r" depth="2" NCoef="0" IVar="3" Cut="3.6066618561744690e-01" cType="1" res="-8.9661873877048492e-02" rms="4.4589745998382568e-01" purity="3.3559322357177734e-01" nType="0">
            <Node pos="l" depth="3" NCoef="0" IVar="-1" Cut="0.0000000000000000e+00" cType="1" res="-1.3096240162849426e-01" rms="4.4604590535163879e-01" purity="3.5849055647850037e-01" nType="-99"/>
            <Node pos="r" depth="3" NCoef="0" IVar="-1" Cut="0.0000000000000000e+00" cType="1" res="-3.0016580224037170e-01" rms="4.4203215837478638e-01" purity="3.0882352590560913e-01" nType="-99"/>
          </Node>
        </Node>
        <Node pos="r" depth="1" NCoef="0" IVar="2" Cut="9.3108659982681274e-01" cType="1" res="-4.5947192120365798e-04" rms="4.2763617634773254e-01" purity="4.9542748928070068e-01" nType="0">
          <Node pos="l" depth="2" NCoef="0" IVar="0" Cut="1.2004893493652344e+02" cType="0" res="-2.8393957763910294e-02" rms="3.5962834954261780e-01" purity="6.3662236928939819e-01" nType="0">
            <Node pos="l" depth="3" NCoef="0" IVar="-1" Cut="0.0000000000000000e+00" cType="1" res="-4.1518449783325195e-02" rms="2.3587077856063843e-01" purity="8.6137670278549194e-01" nType="-99"/>
            <Node pos="r" depth="3" NCoef="0" IVar="-1" Cut="0.0000000000000000e+00" cType="1" res="-1.2808944284915924e-01" rms="4.4818797707557678e-01" purity="4.1525423526763916e-01" nType="-99"/>
          </Node>
          <Node pos="r" depth="2" NCoef="0" IVar="2" Cut="3.9500799179077148e+00" cType="1" res="4.7806723159737885e-04" rms="4.2970052361488342e-01" purity="4.9068871140480042e-01" nType="0">
            <Node pos="l" depth="3" NCoef="0" IVar="-1" Cut="0.0000000000000000e+00" cType="1" res="3.3295954926870763e-04" rms="4.2986792325973511e-01" purity="4.9269992113113403e-01" nType="-99"/>
            <Node pos="r" depth="3" NCoef="0" IVar="-1" Cut="0.0000000000000000e+00" cType="1" res="1.9903707504272461e-01" rms="4.0332257747650146e-01" purity="2.1688500046730042e-01" nType="-99"/>
          </Node>
        </Node>
      </Node>
    </BinaryTree>
    <BinaryTree type="DecisionTree" boostWeight="1.0000000000000000e+00" itree="11">
      <Node pos="s" depth="0" NCoef="0" IVar="4" Cut="2.9041042327880859e+00" cType="1" res="-2.1164432837394997e-05" rms="4.2563328146934509e-01" purity="5.0000000000000000e-01" nType="0">
        <Node pos="l" depth="1" NCoef="0" IVar="1" Cut="1.5686784362792969e+02" cType="1" res="5.0186330918222666e-04" rms="4.2556297779083252e-01" purity="5.0292193889617920e-01" nType="0">
          <Node pos="l" depth="2" NCoef="0" IVar="1" Cut="7.2137428283691406e+01" cType="1" res="1.1586130131036043e-03" rms="4.2989155650138855e-01" purity="5.1296371221542358e-01" nType="0">
            <Node pos="l" depth="3" NCoef="0" IVar="-1" Cut="0.0000000000000000e+00" cType="1" res="-4.9657048657536507e-03" rms="4.5098760724067688e-01" purity="5.6718355417251587e-01" nType="-99"/>
            <Node pos="r" depth="3" NCoef="0" IVar="-1" Cut="0.0000000000000000e+00" cType="1" res="4.7968037426471710e-02" rms="3.5080498456954956e-01" purity="3.3322882652282715e-01" nType="-99"/>
          </Node>
          <Node pos="r" depth="2" NCoef="0" IVar="8" Cut="-1.4801530539989471e-01" cType="0" res="-2.4023199453949928e-02" rms="2.0544601976871490e-01" purity="1.2793177366256714e-01" nType="0">
            <Node pos="l" depth="3" NCoef="0" IVar="-1" Cut="0.0000000000000000e+00" cType="1" res="-3.1944760680198669e-01" rms="3.7662634253501892e-01" purity="7.3268699645996094e-01" nType="-99"/>
            <Node pos="r" depth="3" NCoef="0" IVar="-1" Cut="0.0000000000000000e+00" cType="1" res="-2.0720650255680084e-01" rms="1.5999735891819000e-01" purity="2.9524452984333038e-02" nType="-99"/>
          </Node>
        </Node>
        <Node pos="r" depth="1" NCoef="0" IVar="3" Cut="1.6450841426849365e+00" cType="1" res="-4.7306887805461884e-02" rms="4.2931738495826721e-01" purity="2.3583181202411652e-01" nType="0">
          <Node pos="l" depth="2" NCoef="0" IVar="3" Cut="1.0186415910720825e+00" cType="1" res="-1.2886536121368408e-01" rms="4.4893699884414673e-01" purity="2.6207730174064636e-01" nType="0">
            <Node pos="l" depth="3" NCoef="0" IVar="-1" Cut="0.0000000000000000e+00" cType="1" res="-1.3784240186214447e-01" rms="4.6222087740898132e-01" purity="3.0444443225860596e-01" nType="-99"/>
            <Node pos="r" depth="3" NCoef="0" IVar="-1" Cut="0.0000000000000000e+00" cType="1" res="-4.8219156265258789e-01" rms="4.1526535153388977e-01" purity="2.1164020895957947e-01" nType="-99"/>
          </Node>
          <Node pos="r" depth="2" NCoef="0" IVar="4" Cut="3.4740962982177734e+00" cType="0" res="2.3478262592107058e-03" rms="4.0903231501579285e-01" purity="2.1985293924808502e-01" nType="0">
            <Node pos="l" depth="3" NCoef="0" IVar="-1" Cut="0.0000000000000000e+00" cType="1" res="2.3175832629203796e-01" rms="4.5877537131309509e-01" purity="3.0000001192092896e-01" nType="-99"/>
            <Node pos="r" depth="3" NCoef="0" IVar="-1" Cut="0.0000000000000000e+00" cType="1" res="-5.7299681007862091e-02" rms="3.9195030927658081e-01" purity="1.9813084602355957e-01" nType="-99"/>
          </Node>
        </Node>
      </Node>
    </BinaryTree>
    <BinaryTree type="DecisionTree" boostWeight="1.0000000000000000e+00" itree="12">
      <Node pos="s" depth="0" NCoef="0" IVar="8" Cut="9.0336495637893677e-01" cType="0" res="-1.1449588055256754e-04" rms="4.2539334297180176e-01" purity="5.0000000000000000e-01" nType="0">
        <Node pos="l" depth="1" NCoef="0" IVar="2" Cut="5.1030254364013672e-01" cType="0" res="4.2276926338672638e-02" rms="3.4963423013687134e-01" purity="6.5278869867324829e-01" nType="0">
          <Node pos="l" depth="2" NCoef="0" IVar="0" Cut="1.0885170745849609e+02" cType="0" res="8.2430452108383179e-02" rms="3.4963083267211914e-01" purity="7.5000000000000000e-01" nType="0">
            <Node pos="l" depth="3" NCoef="0" IVar="-1" Cut="0.0000000000000000e+00" cType="1" res="3.6171203851699829e-01" rms="2.2966429591178894e-01" purity="9.1044777631759644e-01" nType="-99"/>
            <Node pos="r" depth="3" NCoef="0" IVar="-1" Cut="0.0000000000000000e+00" cType="1" res="2.6360896229743958e-01" rms="4.4276028871536255e-01" purity="5.7661288976669312e-01" nType="-99"/>
          </Node>
          <Node pos="r" depth="2" NCoef="0" IVar="0" Cut="9.8083053588867188e+01" cType="0" res="1.4906758442521095e-02" rms="3.4698355197906494e-01" purity="5.8652573823928833e-01" nType="0">
            <Node pos="l" depth="3" NCoef="0" IVar="-1" Cut="0.0000000000000000e+00" cType="1" res="1.7504455149173737e-01" rms="2.8103971481323242e-01" purity="7.3189824819564819e-01" nType="-99"/>
            <Node pos="r" depth="3" NCoef="0" IVar="-1" Cut="0.0000000000000000e+00" cType="1" res="-8.7050415575504303e-02" rms="4.5060467720031738e-01" purity="2.8455284237861633e-01" nType="-99"/>
          </Node>
        </Node>
        <Node pos="r" depth="1" NCoef="0" IVar="5" Cut="1.4849676513671875e+02" cType="1" res="-3.8604569272138178e-04" rms="4.2582160234451294e-01" purity="4.9902126193046570e-01" nType="0">
          <Node pos="l" depth="2" NCoef="0" IVar="0" Cut="1.1208763885498047e+02" cType="0" res="1.4904933050274849e-03" rms="4.5886713266372681e-01" purity="6.1194008588790894e-01" nType="0">
            <Node pos="l" depth="3" NCoef="0" IVar="-1" Cut="0.0000000000000000e+00" cType="1" res="-8.7507821619510651e-02" rms="3.2076641917228699e-01" purity="8.2206207513809204e-01" nType="-99"/>
            <Node pos="r" depth="3" NCoef="0" IVar="-1" Cut="0.0000000000000000e+00" cType="1" res="1.1656137183308601e-02" rms="4.8321586847305298e-01" purity="5.6700646877288818e-01" nType="-99"/>
          </Node>
          <Node pos="r" depth="2" NCoef="0" IVar="0" Cut="2.6702340698242188e+02" cType="0" res="-6.7732725292444229e-03" rms="2.8594276309013367e-01" purity="1.1467635631561279e-01" nType="0">
            <Node pos="l" depth="3" NCoef="0" IVar="-1" Cut="0.0000000000000000e+00" cType="1" res="5.9696680307388306e-01" rms="3.8005277514457703e-01" purity="6.6409265995025635e-01" nType="-99"/>
            <Node pos="r" depth="3" NCoef="0" IVar="-1" Cut="0.0000000000000000e+00" cType="1" res="-4.6754989773035049e-02" rms="2.8511095046997070e-01" purity="1.1150486022233963e-01" nType="-99"/>
          </Node>
        </Node>
      </Node>
    </BinaryTree>
    <BinaryTree type="DecisionTree" boostWeight="1.0000000000000000e+00" itree="13">
      <Node pos="s" depth="0" NCoef="0" IVar="0" Cut="8.9073516845703125e+01" cType="0" res="6.3266292272601277e-05" rms="4.2515656352043152e-01" purity="5.0000000000000000e-01" nType="0">
        <Node pos="l" depth="1" NCoef="0" IVar="0" Cut="1.2931370544433594e+02" cType="0" res="5.1473635248839855e-03" rms="3.8344416022300720e-01" purity="6.0175311565399170e-01" nType="0">
          <Node pos="l" depth="2" NCoef="0" IVar="3" Cut="2.6924824714660645e+00" cType="1" res="1.4860401861369610e-02" rms="2.8781244158744812e-01" purity="7.6496553421020508e-01" nType="0">
            <Node pos="l" depth="3" NCoef="0" IVar="-1" Cut="0.0000000000000000e+00" cType="1" res="1.1094619333744049e-01" rms="2.8420275449752808e-01" purity="7.9440003633499146e-01" nType="-99"/>
            <Node pos="r" depth="3" NCoef="0" IVar="-1" Cut="0.0000000000000000e+00" cType="1" res="-2.4969504773616791e-01" rms="3.4565532207489014e-01" purity="1.7674858868122101e-01" nType="-99"/>
          </Node>
          <Node pos="r" depth="2" NCoef="0" IVar="1" Cut="9.7452659606933594e+01" cType="1" res="2.0434494945220649e-04" rms="4.2382231354713440e-01" purity="5.1869338750839233e-01" nType="0">
            <Node pos="l" depth="3" NCoef="0" IVar="-1" Cut="0.0000000000000000e+00" cType="1" res="1.1379745788872242e-02" rms="4.3527323007583618e-01" purity="5.7012838125228882e-01" nType="-99"/>
            <Node pos="r" depth="3" NCoef="0" IVar="-1" Cut="0.0000000000000000e+00" cType="1" res="-1.0445767641067505e-01" rms="3.4511083364486694e-01" purity="2.0574861764907837e-01" nType="-99"/>
          </Node>
        </Node>
        <Node pos="r" depth="1" NCoef="0" IVar="0" Cut="7.6365531921386719e+01" cType="1" res="-2.4310005828738213e-03" rms="4.4416952133178711e-01" purity="4.5007973909378052e-01" nType="0">
          <Node pos="l" depth="2" NCoef="0" IVar="2" Cut="1.3783242702484131e+00" cType="0" res="-5.7884398847818375e-03" rms="4.4307428598403931e-01" purity="4.5156210660934448e-01" nType="0">
            <Node pos="l" depth="3" NCoef="0" IVar="-1" Cut="0.0000000000000000e+00" cType="1" res="-1.0094386525452137e-02" rms="4.4149640202522278e-01" purity="4.5189547538757324e-01" nType="-99"/>
            <Node pos="r" depth="3" NCoef="0" IVar="-1" Cut="0.0000000000000000e+00" cType="1" res="-1.2859165668487549e-01" rms="4.8252823948860168e-01" purity="4.4213023781776428e-01" nType="-99"/>
          </Node>
          <Node pos="r" depth="2" NCoef="0" IVar="1" Cut="5.0725772857666016e+01" cType="1" res="1.3735724613070488e-02" rms="4.4905462861061096e-01" purity="4.4294196367263794e-01" nType="0">
            <Node pos="l" depth="3" NCoef="0" IVar="-1" Cut="0.0000000000000000e+00" cType="1" res="5.6874409317970276e-02" rms="4.7570827603340149e-01" purity="5.2873474359512329e-01" nType="-99"/>
            <Node pos="r" depth="3" NCoef="0" IVar="-1" Cut="0.0000000000000000e+00" cType="1" res="-7.6741268858313560e-03" rms="4.0886032581329346e-01" purity="3.2449442148208618e-01" nType="-99"/>
          </Node>
        </Node>
      </Node>
    </BinaryTree>
    <BinaryTree type="DecisionTree" boostWeight="1.0000000000000000e+00" itree="14">
      <Node pos="s" depth="0" NCoef="0" IVar="3" Cut="2.5432140827178955e+00" cType="1" res="4.2477928218431771e-05" rms="4.2486831545829773e-01" purity="5.0000000000000000e-01" nType="0">
        <Node pos="l" depth="1" NCoef="0" IVar="7" Cut="1.1231867980957031e+02" cType="1" res="-2.5134766474366188e-03" rms="4.3529054522514343e-01" purity="5.5751067399978638e-01" nType="0">
          <Node pos="l" depth="2" NCoef="0" IVar="5" Cut="8.0446220397949219e+01" cType="1" res="-3.1971677672117949e-03" rms="4.3646150827407837e-01" purity="5.6282895803451538e-01" nType="0">
            <Node pos="l" depth="3" NCoef="0" IVar="-1" Cut="0.0000000000000000e+00" cType="1" res="1.2465878389775753e-02" rms="4.4716376066207886e-01" purity="5.8589899539947510e-01" nType="-99"/>
            <Node pos="r" depth="3" NCoef="0" IVar="-1" Cut="0.0000000000000000e+00" cType="1" res="-1.9107995554804802e-02" rms="4.3143761157989502e-01" purity="5.5229902267456055e-01" nType="-99"/>
          </Node>
          <Node pos="r" depth="2" NCoef="0" IVar="8" Cut="-6.2085735797882080e-01" cType="0" res="4.6735849231481552e-02" rms="3.3687797188758850e-01" purity="1.7441253364086151e-01" nType="0">
            <Node pos="l" depth="3" NCoef="0" IVar="-1" Cut="0.0000000000000000e+00" cType="1" res="5.5588293075561523e-01" rms="4.3027141690254211e-01" purity="3.6734694242477417e-01" nType="-99"/>
            <Node pos="r" depth="3" NCoef="0" IVar="-1" Cut="0.0000000000000000e+00" cType="1" res="2.7305036783218384e-01" rms="3.0663770437240601e-01" purity="1.2475377321243286e-01" nType="-99"/>
          </Node>
        </Node>
        <Node pos="r" depth="1" NCoef="0" IVar="1" Cut="4.7374885559082031e+01" cType="1" res="5.9866798110306263e-03" rms="3.9951699972152710e-01" purity="3.6625152826309204e-01" nType="0">
          <Node pos="l" depth="2" NCoef="0" IVar="0" Cut="5.2952922821044922e+01" cType="1" res="-3.6507283803075552e-03" rms="4.7520905733108521e-01" purity="5.5480921268463135e-01" nType="0">
            <Node pos="l" depth="3" NCoef="0" IVar="-1" Cut="0.0000000000000000e+00" cType="1" res="-2.5363694876432419e-02" rms="4.7920277714729309e-01" purity="5.7008796930313110e-01" nType="-99"/>
            <Node pos="r" depth="3" NCoef="0" IVar="-1" Cut="0.0000000000000000e+00" cType="1" res="3.8411509245634079e-02" rms="4.6465042233467102e-01" purity="5.1716113090515137e-01" nType="-99"/>
          </Node>
          <Node pos="r" depth="2" NCoef="0" IVar="5" Cut="1.3806216430664062e+02" cType="1" res="1.2306983582675457e-02" rms="3.4072265028953552e-01" purity="2.4259361624717712e-01" nType="0">
            <Node pos="l" depth="3" NCoef="0" IVar="-1" Cut="0.0000000000000000e+00" cType="1" res="9.2450648546218872e-02" rms="4.8181617259979248e-01" purity="6.2056738138198853e-01" nType="-99"/>
            <Node pos="r" depth="3" NCoef="0" IVar="-1" Cut="0.0000000000000000e+00" cType="1" res="-4.9645849503576756e-04" rms="2.6555562019348145e-01" purity="9.5956891775131226e-02" nType="-99"/>
          </Node>
        </Node>
      </Node>
    </BinaryTree>
    <BinaryTree type="DecisionTree" boostWeight="1.0000000000000000e+00" itree="15">
      <Node pos="s" depth="0" NCoef="0" IVar="7" Cut="2.7271286010742188e+01" cType="1" res="-1.8363010894972831e-05" rms="4.2464658617973328e-01" purity="5.0000000000000000e-01" nType="0">
        <Node pos="l" depth="1" NCoef="0" IVar="6" Cut="3.0491033554077148e+01" cType="1" res="-7.8680329024791718e-03" rms="4.4422367215156555e-01" purity="5.6702101230621338e-01" nType="0">
          <Node pos="l" depth="2" NCoef="0" IVar="8" Cut="-7.1448516845703125e-01" cType="0" res="1.0309721110388637e-03" rms="4.4766190648078918e-01" purity="6.1252105236053467e-01" nType="0">
            <Node pos="l" depth="3" NCoef="0" IVar="-1" Cut="0.0000000000000000e+00" cType="1" res="2.6384158059954643e-02" rms="4.3973556160926819e-01" purity="6.5059566497802734e-01" nType="-99"/>
            <Node pos="r" depth="3" NCoef="0" IVar="-1" Cut="0.0000000000000000e+00" cType="1" res="-6.9448195397853851e-02" rms="4.7184839844703674e-01" purity="4.8546785116195679e-01" nType="-99"/>
          </Node>
          <Node pos="r" depth="2" NCoef="0" IVar="8" Cut="-3.3807241916656494e-01" cType="1" res="-2.9078368097543716e-02" rms="4.3518641591072083e-01" purity="4.5857378840446472e-01" nType="0">
            <Node pos="l" depth="3" NCoef="0" IVar="-1" Cut="0.0000000000000000e+00" cType="1" res="3.0301153659820557e-01" rms="4.2747190594673157e-01" purity="4.8409089446067810e-01" nType="-99"/>
            <Node pos="r" depth="3" NCoef="0" IVar="-1" Cut="0.0000000000000000e+00" cType="1" res="-9.5363773405551910e-02" rms="4.3452745676040649e-01" purity="4.5736181735992432e-01" nType="-99"/>
          </Node>
        </Node>
        <Node pos="r" depth="1" NCoef="0" IVar="8" Cut="4.0830165147781372e-01" cType="0" res="1.5233779558911920e-03" rms="4.2067727446556091e-01" purity="4.8683652281761169e-01" nType="0">
          <Node pos="l" depth="2" NCoef="0" IVar="3" Cut="1.7900147438049316e+00" cType="1" res="1.8007557839155197e-02" rms="3.0626723170280457e-01" purity="8.4480190277099609e-01" nType="0">
            <Node pos="l" depth="3" NCoef="0" IVar="-1" Cut="0.0000000000000000e+00" cType="1" res="1.1105977743864059e-01" rms="3.0166220664978027e-01" purity="8.4592193365097046e-01" nType="-99"/>
            <Node pos="r" depth="3" NCoef="0" IVar="-1" Cut="0.0000000000000000e+00" cType="1" res="-1.4812742173671722e-01" rms="3.6581408977508545e-01" purity="8.2766991853713989e-01" nType="-99"/>
          </Node>
          <Node pos="r" depth="2" NCoef="0" IVar="2" Cut="1.3340457677841187e+00" cType="1" res="8.3602921222336590e-05" rms="4.2919439077377319e-01" purity="4.5557081699371338e-01" nType="0">
            <Node pos="l" depth="3" NCoef="0" IVar="-1" Cut="0.0000000000000000e+00" cType="1" res="-1.0078892111778259e-01" rms="3.8203901052474976e-01" purity="6.8876367807388306e-01" nType="-99"/>
            <Node pos="r" depth="3" NCoef="0" IVar="-1" Cut="0.0000000000000000e+00" cType="1" res="1.7110494663938880e-03" rms="4.3006855249404907e-01" purity="4.5090299844741821e-01" nType="-99"/>
          </Node>
        </Node>
      </Node>
    </BinaryTree>
    <BinaryTree type="DecisionTree" boostWeight="1.0000000000000000e+00" itree="16">
      <Node pos="s" depth="0" NCoef="0" IVar="2" Cut="6.1309212446212769e-01" cType="1" res="7.4418545409571379e-05" rms="4.2438605427742004e-01" purity="5.0000000000000000e-01" nType="0">
        <Node pos="l" depth="1" NCoef="0" IVar="0" Cut="1.0163523864746094e+02" cType="0" res="-2.8475442901253700e-02" rms="3.4118115901947021e-01" purity="5.9729826450347900e-01" nType="0">
          <Node pos="l" depth="2" NCoef="0" IVar="8" Cut="8.3821797370910645e-01" cType="0" res="-2.6070117019116879e-03" rms="2.7524167299270630e-01" purity="7.5390625000000000e-01" nType="0">
            <Node pos="l" depth="3" NCoef="0" IVar="-1" Cut="0.0000000000000000e+00" cType="1" res="6.3876353204250336e-02" rms="2.6296004652976990e-01" purity="7.8106510639190674e-01" nType="-99"/>
            <Node pos="r" depth="3" NCoef="0" IVar="-1" Cut="0.0000000000000000e+00" cType="1" res="-4.0222594141960144e-01" rms="3.2515603303909302e-01" purity="6.0147601366043091e-01" nType="-99"/>
          </Node>
          <Node pos="r" depth="2" NCoef="0" IVar="5" Cut="2.4150779724121094e+01" cType="1" res="-7.7426053583621979e-02" rms="4.3549665808677673e-01" purity="3.0095037817955017e-01" nType="0">
            <Node pos="l" depth="3" NCoef="0" IVar="-1" Cut="0.0000000000000000e+00" cType="1" res="-9.1715073212981224e-03" rms="4.5339557528495789e-01" purity="3.2175925374031067e-01" nType="-99"/>
            <Node pos="r" depth="3" NCoef="0" IVar="-1" Cut="0.0000000000000000e+00" cType="1" res="-3.4890320897102356e-01" rms="4.0974658727645874e-01" purity="2.8349515795707703e-01" nType="-99"/>
          </Node>
        </Node>
        <Node pos="r" depth="1" NCoef="0" IVar="6" Cut="6.8030708312988281e+01" cType="1" res="4.7083784011192620e-04" rms="4.2541334033012390e-01" purity="4.9864900112152100e-01" nType="0">
          <Node pos="l" depth="2" NCoef="0" IVar="8" Cut="-3.4276017546653748e-01" cType="0" res="2.6879385113716125e-03" rms="4.4340658187866211e-01" purity="5.5503213405609131e-01" nType="0">
            <Node pos="l" depth="3" NCoef="0" IVar="-1" Cut="0.0000000000000000e+00" cType="1" res="2.4744534865021706e-02" rms="4.3343588709831238e-01" purity="6.6040515899658203e-01" nType="-99"/>
            <Node pos="r" depth="3" NCoef="0" IVar="-1" Cut="0.0000000000000000e+00" cType="1" res="-9.2547312378883362e-03" rms="4.5283082127571106e-01" purity="4.5223027467727661e-01" nType="-99"/>
          </Node>
          <Node pos="r" depth="2" NCoef="0" IVar="8" Cut="-4.4198122620582581e-01" cType="0" res="-2.7442073915153742e-03" rms="3.9785623550415039e-01" purity="4.1688713431358337e-01" nType="0">
            <Node pos="l" depth="3" NCoef="0" IVar="-1" Cut="0.0000000000000000e+00" cType="1" res="-2.9650632292032242e-02" rms="4.3897691369056702e-01" purity="5.9018534421920776e-01" nType="-99"/>
            <Node pos="r" depth="3" NCoef="0" IVar="-1" Cut="0.0000000000000000e+00" cType="1" res="2.5144517421722412e-02" rms="3.4891474246978760e-01" purity="2.3356507718563080e-01" nType="-99"/>
          </Node>
        </Node>
      </Node>
    </BinaryTree>
    <BinaryTree type="DecisionTree" boostWeight="1.0000000000000000e+00" itree="17">
      <Node pos="s" depth="0" NCoef="0" IVar="3" Cut="1.4960550069808960e+00" cType="1" res="1.6539531770831672e-06" rms="4.2420750856399536e-01" purity="5.0000000000000000e-01" nType="0">
        <Node pos="l" depth="1" NCoef="0" IVar="7" Cut="1.1231867980957031e+02" cType="1" res="-4.6224864199757576e-03" rms="4.1441553831100464e-01" purity="6.3017094135284424e-01" nType="0">
          <Node pos="l" depth="2" NCoef="0" IVar="5" Cut="1.6635041809082031e+02" cType="1" res="-4.1358172893524170e-03" rms="4.1417261958122253e-01" purity="6.3107430934906006e-01" nType="0">
            <Node pos="l" depth="3" NCoef="0" IVar="-1" Cut="0.0000000000000000e+00" cType="1" res="-7.9972799867391586e-03" rms="4.1403877735137939e-01" purity="6.4056587219238281e-01" nType="-99"/>
            <Node pos="r" depth="3" NCoef="0" IVar="-1" Cut="0.0000000000000000e+00" cType="1" res="-1.7994734644889832e-01" rms="4.1549381613731384e-01" purity="2.9699468612670898e-01" nType="-99"/>
          </Node>
          <Node pos="r" depth="2" NCoef="0" IVar="-1" Cut="0.0000000000000000e+00" cType="1" res="-3.3925971388816833e-01" rms="4.5149454474449158e-01" purity="4.3750000000000000e-01" nType="-99"/>
        </Node>
        <Node pos="r" depth="1" NCoef="0" IVar="0" Cut="8.9073516845703125e+01" cType="1" res="2.0653542596846819e-03" rms="4.2848923802375793e-01" purity="4.4190621376037598e-01" nType="0">
          <Node pos="l" depth="2" NCoef="0" IVar="0" Cut="8.4837066650390625e+01" cType="1" res="-1.2101848551537842e-04" rms="4.3524050712585449e-01" purity="4.4465753436088562e-01" nType="0">
            <Node pos="l" depth="3" NCoef="0" IVar="-1" Cut="0.0000000000000000e+00" cType="1" res="-2.2774357348680496e-03" rms="4.3573626875877380e-01" purity="4.4497245550155640e-01" nType="-99"/>
            <Node pos="r" depth="3" NCoef="0" IVar="-1" Cut="0.0000000000000000e+00" cType="1" res="5.5929556488990784e-02" rms="4.2102667689323425e-01" purity="4.3608835339546204e-01" nType="-99"/>
          </Node>
          <Node pos="r" depth="2" NCoef="0" IVar="8" Cut="-2.6346802711486816e-01" cType="0" res="1.2159345671534538e-02" rms="3.9567324519157410e-01" purity="4.2920389771461487e-01" nType="0">
            <Node pos="l" depth="3" NCoef="0" IVar="-1" Cut="0.0000000000000000e+00" cType="1" res="6.9243036210536957e-02" rms="4.2667773365974426e-01" purity="6.8691229820251465e-01" nType="-99"/>
            <Node pos="r" depth="3" NCoef="0" IVar="-1" Cut="0.0000000000000000e+00" cType="1" res="1.8917318433523178e-02" rms="3.7631592154502869e-01" purity="2.7969962358474731e-01" nType="-99"/>
          </Node>
        </Node>
      </Node>
    </BinaryTree>
    <BinaryTree type="DecisionTree" boostWeight="1.0000000000000000e+00" itree="18">
      <Node pos="s" depth="0" NCoef="0" IVar="4" Cut="2.0105347633361816e+00" cType="1" res="-1.6253350622719154e-05" rms="4.2408049106597900e-01" purity="5.0000000000000000e-01" nType="0">
        <Node pos="l" depth="1" NCoef="0" IVar="5" Cut="2.1138833618164062e+02" cType="1" res="-1.0561597300693393e-03" rms="4.2536586523056030e-01" purity="5.1731312274932861e-01" nType="0">
          <Node pos="l" depth="2" NCoef="0" IVar="3" Cut="2.6928086280822754e+00" cType="1" res="-3.0759238870814443e-04" rms="4.3908429145812988e-01" purity="5.5522578954696655e-01" nType="0">
            <Node pos="l" depth="3" NCoef="0" IVar="-1" Cut="0.0000000000000000e+00" cType="1" res="-4.9064769409596920e-03" rms="4.3902495503425598e-01" purity="5.7922708988189697e-01" nType="-99"/>
            <Node pos="r" depth="3" NCoef="0" IVar="-1" Cut="0.0000000000000000e+00" cType="1" res="1.5433300286531448e-02" rms="4.3926855921745300e-01" purity="4.5835530757904053e-01" nType="-99"/>
          </Node>
          <Node pos="r" depth="2" NCoef="0" IVar="0" Cut="1.3366456604003906e+02" cType="0" res="-1.0436587035655975e-02" rms="1.7954158782958984e-01" purity="4.2222708463668823e-02" nType="0">
            <Node pos="l" depth="3" NCoef="0" IVar="-1" Cut="0.0000000000000000e+00" cType="1" res="-1.9412583112716675e-01" rms="3.1130984425544739e-01" purity="1.6818182170391083e-01" nType="-99"/>
            <Node pos="r" depth="3" NCoef="0" IVar="-1" Cut="0.0000000000000000e+00" cType="1" res="-1.1755143851041794e-01" rms="1.5038102865219116e-01" purity="2.3676063865423203e-02" nType="-99"/>
          </Node>
        </Node>
        <Node pos="r" depth="1" NCoef="0" IVar="7" Cut="4.9256160736083984e+01" cType="1" res="1.3339996337890625e-02" rms="4.0697482228279114e-01" purity="2.7763548493385315e-01" nType="0">
          <Node pos="l" depth="2" NCoef="0" IVar="6" Cut="6.0361320495605469e+01" cType="0" res="2.7670366689562798e-02" rms="4.5377966761589050e-01" purity="3.8496875762939453e-01" nType="0">
            <Node pos="l" depth="3" NCoef="0" IVar="-1" Cut="0.0000000000000000e+00" cType="1" res="1.9095809757709503e-01" rms="4.6193638443946838e-01" purity="4.3031123280525208e-01" nType="-99"/>
            <Node pos="r" depth="3" NCoef="0" IVar="-1" Cut="0.0000000000000000e+00" cType="1" res="2.8852615505456924e-02" rms="4.4953903555870056e-01" purity="3.6806255578994751e-01" nType="-99"/>
          </Node>
          <Node pos="r" depth="2" NCoef="0" IVar="7" Cut="7.1182502746582031e+01" cType="1" res="4.6797101385891438e-03" rms="3.7560939788818359e-01" purity="2.1277068555355072e-01" nType="0">
            <Node pos="l" depth="3" NCoef="0" IVar="-1" Cut="0.0000000000000000e+00" cType="1" res="-3.5964287817478180e-02" rms="4.1088116168975830e-01" purity="2.7608266472816467e-01" nType="-99"/>
            <Node pos="r" depth="3" NCoef="0" IVar="-1" Cut="0.0000000000000000e+00" cType="1" res="1.0007043927907944e-01" rms="3.4329900145530701e-01" purity="1.6069620847702026e-01" nType="-99"/>
          </Node>
        </Node>
      </Node>
    </BinaryTree>
    <BinaryTree type="DecisionTree" boostWeight="1.0000000000000000e+00" itree="19">
      <Node pos="s" depth="0" NCoef="0" IVar="1" Cut="7.4747695922851562e+01" cType="1" res="-9.7786636615637690e-05" rms="4.2399412393569946e-01" purity="5.0000000000000000e-01" nType="0">
        <Node pos="l" depth="1" NCoef="0" IVar="6" Cut="9.5577362060546875e+01" cType="1" res="-1.4183091698214412e-03" rms="4.4824519753456116e-01" purity="5.5990099906921387e-01" nType="0">
          <Node pos="l" depth="2" NCoef="0" IVar="5" Cut="1.4809317016601562e+02" cType="1" res="-2.4812360061332583e-04" rms="4.4926714897155762e-01" purity="5.7109814882278442e-01" nType="0">
            <Node pos="l" depth="3" NCoef="0" IVar="-1" Cut="0.0000000000000000e+00" cType="1" res="-3.7390431389212608e-03" rms="4.5911130309104919e-01" purity="6.1565595865249634e-01" nType="-99"/>
            <Node pos="r" depth="3" NCoef="0" IVar="-1" Cut="0.0000000000000000e+00" cType="1" res="5.0987862050533295e-02" rms="3.4959423542022705e-01" purity="1.7508220672607422e-01" nType="-99"/>
          </Node>
          <Node pos="r" depth="2" NCoef="0" IVar="7" Cut="3.3635635375976562e+01" cType="1" res="-1.0126993991434574e-02" rms="4.4046753644943237e-01" purity="4.7657024860382080e-01" nType="0">
            <Node pos="l" depth="3" NCoef="0" IVar="-1" Cut="0.0000000000000000e+00" cType="1" res="8.7386257946491241e-02" rms="4.8555314540863037e-01" purity="5.0673854351043701e-01" nType="-99"/>
            <Node pos="r" depth="3" NCoef="0" IVar="-1" Cut="0.0000000000000000e+00" cType="1" res="-3.5990569740533829e-02" rms="4.3718039989471436e-01" purity="4.7460308670997620e-01" nType="-99"/>
          </Node>
        </Node>
        <Node pos="r" depth="1" NCoef="0" IVar="5" Cut="1.4927996826171875e+02" cType="1" res="4.2607467621564865e-03" rms="3.3155575394630432e-01" purity="3.0229008197784424e-01" nType="0">
          <Node pos="l" depth="2" NCoef="0" IVar="8" Cut="-7.1535784006118774e-01" cType="0" res="1.4181056991219521e-02" rms="4.3062639236450195e-01" purity="6.0839301347732544e-01" nType="0">
            <Node pos="l" depth="3" NCoef="0" IVar="-1" Cut="0.0000000000000000e+00" cType="1" res="1.8095195293426514e-02" rms="4.2457222938537598e-01" purity="6.1008638143539429e-01" nType="-99"/>
            <Node pos="r" depth="3" NCoef="0" IVar="-1" Cut="0.0000000000000000e+00" cType="1" res="1.9222007691860199e-01" rms="4.7828295826911926e-01" purity="5.9223818778991699e-01" nType="-99"/>
          </Node>
          <Node pos="r" depth="2" NCoef="0" IVar="8" Cut="-7.2605025768280029e-01" cType="0" res="-3.1113461591303349e-03" rms="2.3170667886734009e-01" purity="7.4815399944782257e-02" nType="0">
            <Node pos="l" depth="3" NCoef="0" IVar="-1" Cut="0.0000000000000000e+00" cType="1" res="3.5853289067745209e-02" rms="3.0579623579978943e-01" purity="1.4887018501758575e-01" nType="-99"/>
            <Node pos="r" depth="3" NCoef="0" IVar="-1" Cut="0.0000000000000000e+00" cType="1" res="-9.8522298038005829e-02" rms="1.8237197399139404e-01" purity="3.6938417702913284e-02" nType="-99"/>
          </Node>
        </Node>
      </Node>
    </BinaryTree>
    <BinaryTree type="DecisionTree" boostWeight="1.0000000000000000e+00" itree="20">
      <Node pos="s" depth="0" NCoef="0" IVar="8" Cut="-2.3864921927452087e-01" cType="0" res="-6.4245192334055901e-05" rms="4.2387023568153381e-01" purity="5.0000000000000000e-01" nType="0">
        <Node pos="l" depth="1" NCoef="0" IVar="5" Cut="9.1638877868652344e+01" cType="0" res="2.3548807948827744e-03" rms="4.2516055703163147e-01" purity="6.5577834844589233e-01" nType="0">
          <Node pos="l" depth="2" NCoef="0" IVar="6" Cut="1.2453955841064453e+02" cType="1" res="1.4665109105408192e-02" rms="4.0290990471839905e-01" purity="7.2776877880096436e-01" nType="0">
            <Node pos="l" depth="3" NCoef="0" IVar="-1" Cut="0.0000000000000000e+00" cType="1" res="6.8627208471298218e-02" rms="3.9363771677017212e-01" purity="7.5745981931686401e-01" nType="-99"/>
            <Node pos="r" depth="3" NCoef="0" IVar="-1" Cut="0.0000000000000000e+00" cType="1" res="-3.7257261574268341e-02" rms="4.3535798788070679e-01" purity="6.1441087722778320e-01" nType="-99"/>
          </Node>
          <Node pos="r" depth="2" NCoef="0" IVar="5" Cut="8.0113746643066406e+01" cType="0" res="-6.0320948250591755e-03" rms="4.3947806954383850e-01" purity="6.0673117637634277e-01" nType="0">
            <Node pos="l" depth="3" NCoef="0" IVar="-1" Cut="0.0000000000000000e+00" cType="1" res="-7.5343571603298187e-02" rms="4.3338733911514282e-01" purity="6.7907410860061646e-01" nType="-99"/>
            <Node pos="r" depth="3" NCoef="0" IVar="-1" Cut="0.0000000000000000e+00" cType="1" res="2.3635181423742324e-04" rms="4.4111827015876770e-01" purity="5.8487862348556519e-01" nType="-99"/>
          </Node>
        </Node>
        <Node pos="r" depth="1" NCoef="0" IVar="2" Cut="1.8871371746063232e+00" cType="1" res="-1.8697073683142662e-03" rms="4.2289564013481140e-01" purity="3.8373818993568420e-01" nType="0">
          <Node pos="l" depth="2" NCoef="0" IVar="7" Cut="6.0982650756835938e+01" cType="1" res="-4.2987409979104996e-02" rms="4.8821312189102173e-01" purity="5.1067256927490234e-01" nType="0">
            <Node pos="l" depth="3" NCoef="0" IVar="-1" Cut="0.0000000000000000e+00" cType="1" res="-1.1792968958616257e-01" rms="4.8872551321983337e-01" purity="5.1467269659042358e-01" nType="-99"/>
            <Node pos="r" depth="3" NCoef="0" IVar="-1" Cut="0.0000000000000000e+00" cType="1" res="1.0829019546508789e-01" rms="4.7515574097633362e-01" purity="4.7761192917823792e-01" nType="-99"/>
          </Node>
          <Node pos="r" depth="2" NCoef="0" IVar="5" Cut="1.0951198577880859e+02" cType="1" res="-9.5849245553836226e-04" rms="4.2128801345825195e-01" purity="3.8092517852783203e-01" nType="0">
            <Node pos="l" depth="3" NCoef="0" IVar="-1" Cut="0.0000000000000000e+00" cType="1" res="1.2720686383545399e-02" rms="4.8813077807426453e-01" purity="6.0552513599395752e-01" nType="-99"/>
            <Node pos="r" depth="3" NCoef="0" IVar="-1" Cut="0.0000000000000000e+00" cType="1" res="-1.2114273384213448e-02" rms="3.9289969205856323e-01" purity="2.9562079906463623e-01" nType="-99"/>
          </Node>
        </Node>
      </Node>
    </BinaryTree>
    <BinaryTree type="DecisionTree" boostWeight="1.0000000000000000e+00" itree="21">
      <Node pos="s" depth="0" NCoef="0" IVar="6" Cut="1.3584260559082031e+02" cType="1" res="9.6947493148036301e-05" rms="4.2366555333137512e-01" purity="5.0000000000000000e-01" nType="0">
        <Node pos="l" depth="1" NCoef="0" IVar="8" Cut="1.4202217757701874e-01" cType="0" res="-7.9518056008964777e-04" rms="4.3207111954689026e-01" purity="5.2737307548522949e-01" nType="0">
          <Node pos="l" depth="2" NCoef="0" IVar="5" Cut="9.2661407470703125e+01" cType="0" res="3.5868154373019934e-03" rms="3.9063665270805359e-01" purity="6.8591201305389404e-01" nType="0">
            <Node pos="l" depth="3" NCoef="0" IVar="-1" Cut="0.0000000000000000e+00" cType="1" res="1.2440427392721176e-01" rms="2.7074888348579407e-01" purity="9.0818047523498535e-01" nType="-99"/>
            <Node pos="r" depth="3" NCoef="0" IVar="-1" Cut="0.0000000000000000e+00" cType="1" res="-3.8524966221302748e-03" rms="4.1857546567916870e-01" purity="6.2223476171493530e-01" nType="-99"/>
          </Node>
          <Node pos="r" depth="2" NCoef="0" IVar="2" Cut="1.5735294818878174e+00" cType="1" res="-2.4200349580496550e-03" rms="4.4644796848297119e-01" purity="4.6858647465705872e-01" nType="0">
            <Node pos="l" depth="3" NCoef="0" IVar="-1" Cut="0.0000000000000000e+00" cType="1" res="-6.2658987939357758e-02" rms="4.5534193515777588e-01" purity="5.8553743362426758e-01" nType="-99"/>
            <Node pos="r" depth="3" NCoef="0" IVar="-1" Cut="0.0000000000000000e+00" cType="1" res="-4.6517089940607548e-03" rms="4.4617885351181030e-01" purity="4.6528336405754089e-01" nType="-99"/>
          </Node>
        </Node>
        <Node pos="r" depth="1" NCoef="0" IVar="5" Cut="1.2616256713867188e+02" cType="1" res="7.0872022770345211e-03" rms="3.5082361102104187e-01" purity="2.8551864624023438e-01" nType="0">
          <Node pos="l" depth="2" NCoef="0" IVar="8" Cut="-8.8861882686614990e-02" cType="0" res="2.5390235707163811e-02" rms="4.6234008669853210e-01" purity="6.2379956245422363e-01" nType="0">
            <Node pos="l" depth="3" NCoef="0" IVar="-1" Cut="0.0000000000000000e+00" cType="1" res="-2.8687279671430588e-02" rms="4.4658792018890381e-01" purity="6.3131886720657349e-01" nType="-99"/>
            <Node pos="r" depth="3" NCoef="0" IVar="-1" Cut="0.0000000000000000e+00" cType="1" res="1.4683370292186737e-01" rms="4.7715011239051819e-01" purity="6.1463642120361328e-01" nType="-99"/>
          </Node>
          <Node pos="r" depth="2" NCoef="0" IVar="2" Cut="1.5310943126678467e+00" cType="1" res="2.1745311096310616e-03" rms="3.1404402852058411e-01" purity="1.9472150504589081e-01" nType="0">
            <Node pos="l" depth="3" NCoef="0" IVar="-1" Cut="0.0000000000000000e+00" cType="1" res="3.6887577176094055e-01" rms="2.5306722521781921e-01" purity="9.3069308996200562e-01" nType="-99"/>
            <Node pos="r" depth="3" NCoef="0" IVar="-1" Cut="0.0000000000000000e+00" cType="1" res="3.5838148323819041e-04" rms="3.1539434194564819e-01" purity="1.7328873276710510e-01" nType="-99"/>
          </Node>
        </Node>
      </Node>
    </BinaryTree>
    <BinaryTree type="DecisionTree" boostWeight="1.0000000000000000e+00" itree="22">
      <Node pos="s" depth="0" NCoef="0" IVar="6" Cut="6.8030708312988281e+01" cType="1" res="1.2722531391773373e-04" rms="4.2349162697792053e-01" purity="5.0000000000000000e-01" nType="0">
        <Node pos="l" depth="1" NCoef="0" IVar="3" Cut="1.6456614732742310e+00" cType="1" res="2.5585072580724955e-03" rms="4.4078746438026428e-01" purity="5.5573141574859619e-01" nType="0">
          <Node pos="l" depth="2" NCoef="0" IVar="6" Cut="4.6782299041748047e+01" cType="1" res="-1.0429170215502381e-03" rms="4.2120221257209778e-01" purity="6.3297396898269653e-01" nType="0">
            <Node pos="l" depth="3" NCoef="0" IVar="-1" Cut="0.0000000000000000e+00" cType="1" res="1.0791274718940258e-02" rms="4.2511934041976929e-01" purity="6.3958877325057983e-01" nType="-99"/>
            <Node pos="r" depth="3" NCoef="0" IVar="-1" Cut="0.0000000000000000e+00" cType="1" res="-3.4404579550027847e-02" rms="4.1289922595024109e-01" purity="6.1945527791976929e-01" nType="-99"/>
          </Node>
          <Node pos="r" depth="2" NCoef="0" IVar="8" Cut="-1.8570148944854736e-01" cType="0" res="4.8912321217358112e-03" rms="4.5300638675689697e-01" purity="5.0569969415664673e-01" nType="0">
            <Node pos="l" depth="3" NCoef="0" IVar="-1" Cut="0.0000000000000000e+00" cType="1" res="5.4176855832338333e-02" rms="4.4602921605110168e-01" purity="7.0637553930282593e-01" nType="-99"/>
            <Node pos="r" depth="3" NCoef="0" IVar="-1" Cut="0.0000000000000000e+00" cType="1" res="5.0913929007947445e-03" rms="4.5408463478088379e-01" purity="4.7260537743568420e-01" nType="-99"/>
          </Node>
        </Node>
        <Node pos="r" depth="1" NCoef="0" IVar="8" Cut="-3.4897941350936890e-01" cType="0" res="-3.4740013070404530e-03" rms="3.9646148681640625e-01" purity="4.1745030879974365e-01" nType="0">
          <Node pos="l" depth="2" NCoef="0" IVar="2" Cut="1.7135748863220215e+00" cType="1" res="-9.1183343902230263e-03" rms="4.3475425243377686e-01" purity="6.1480689048767090e-01" nType="0">
            <Node pos="l" depth="3" NCoef="0" IVar="-1" Cut="0.0000000000000000e+00" cType="1" res="1.5484955161809921e-02" rms="3.7974107265472412e-01" purity="6.9332259893417358e-01" nType="-99"/>
            <Node pos="r" depth="3" NCoef="0" IVar="-1" Cut="0.0000000000000000e+00" cType="1" res="-4.4053394347429276e-02" rms="4.6887645125389099e-01" purity="5.6041204929351807e-01" nType="-99"/>
          </Node>
          <Node pos="r" depth="2" NCoef="0" IVar="4" Cut="1.5637854337692261e+00" cType="1" res="1.1930022155866027e-03" rms="3.6168414354324341e-01" purity="2.5426647067070007e-01" nType="0">
            <Node pos="l" depth="3" NCoef="0" IVar="-1" Cut="0.0000000000000000e+00" cType="1" res="-1.0954475961625576e-02" rms="3.6119613051414490e-01" purity="2.6367950439453125e-01" nType="-99"/>
            <Node pos="r" depth="3" NCoef="0" IVar="-1" Cut="0.0000000000000000e+00" cType="1" res="5.9592433273792267e-02" rms="3.6292967200279236e-01" purity="2.2458584606647491e-01" nType="-99"/>
          </Node>
        </Node>
      </Node>
    </BinaryTree>
    <BinaryTree type="DecisionTree" boostWeight="1.0000000000000000e+00" itree="23">
      <Node pos="s" depth="0" NCoef="0" IVar="7" Cut="5.4211574554443359e+01" cType="1" res="2.1236917746136896e-05" rms="4.2338839173316956e-01" purity="5.0000000000000000e-01" nType="0">
        <Node pos="l" depth="1" NCoef="0" IVar="1" Cut="9.0350578308105469e+01" cType="1" res="-1.4883064432069659e-03" rms="4.5018815994262695e-01" purity="5.9622591733932495e-01" nType="0">
          <Node pos="l" depth="2" NCoef="0" IVar="3" Cut="1.7952536344528198e+00" cType="1" res="-3.2450369326397777e-04" rms="4.5277100801467896e-01" purity="6.0275697708129883e-01" nType="0">
            <Node pos="l" depth="3" NCoef="0" IVar="-1" Cut="0.0000000000000000e+00" cType="1" res="1.3241444714367390e-02" rms="4.3121278285980225e-01" purity="6.2740576267242432e-01" nType="-99"/>
            <Node pos="r" depth="3" NCoef="0" IVar="-1" Cut="0.0000000000000000e+00" cType="1" res="-1.2647633440792561e-02" rms="4.7386211156845093e-01" purity="5.7740861177444458e-01" nType="-99"/>
          </Node>
          <Node pos="r" depth="2" NCoef="0" IVar="5" Cut="1.1559053039550781e+02" cType="1" res="-2.0385587587952614e-02" rms="4.0548875927925110e-01" purity="4.9017834663391113e-01" nType="0">
            <Node pos="l" depth="3" NCoef="0" IVar="-1" Cut="0.0000000000000000e+00" cType="1" res="-1.6225354373455048e-01" rms="3.9997512102127075e-01" purity="5.9186249971389771e-01" nType="-99"/>
            <Node pos="r" depth="3" NCoef="0" IVar="-1" Cut="0.0000000000000000e+00" cType="1" res="3.1746283173561096e-02" rms="4.0896907448768616e-01" purity="3.8376089930534363e-01" nType="-99"/>
          </Node>
        </Node>
        <Node pos="r" depth="1" NCoef="0" IVar="4" Cut="8.9359426498413086e-01" cType="1" res="3.0437682289630175e-03" rms="3.6382323503494263e-01" purity="3.0732858180999756e-01" nType="0">
          <Node pos="l" depth="2" NCoef="0" IVar="8" Cut="-6.3174867630004883e-01" cType="0" res="9.4561483711004257e-03" rms="3.6951953172683716e-01" purity="3.5032537579536438e-01" nType="0">
            <Node pos="l" depth="3" NCoef="0" IVar="-1" Cut="0.0000000000000000e+00" cType="1" res="6.3425488770008087e-02" rms="4.1451281309127808e-01" purity="5.2444308996200562e-01" nType="-99"/>
            <Node pos="r" depth="3" NCoef="0" IVar="-1" Cut="0.0000000000000000e+00" cType="1" res="-9.7365295514464378e-03" rms="3.2062181830406189e-01" purity="1.8510055541992188e-01" nType="-99"/>
          </Node>
          <Node pos="r" depth="2" NCoef="0" IVar="8" Cut="-6.4269876480102539e-01" cType="0" res="-3.6866466980427504e-03" rms="3.5762321949005127e-01" purity="2.6219925284385681e-01" nType="0">
            <Node pos="l" depth="3" NCoef="0" IVar="-1" Cut="0.0000000000000000e+00" cType="1" res="-4.8357456922531128e-02" rms="4.1658630967140198e-01" purity="4.2568060755729675e-01" nType="-99"/>
            <Node pos="r" depth="3" NCoef="0" IVar="-1" Cut="0.0000000000000000e+00" cType="1" res="2.8912579640746117e-02" rms="3.0706501007080078e-01" purity="1.4250692725181580e-01" nType="-99"/>
          </Node>
        </Node>
      </Node>
    </BinaryTree>
    <BinaryTree type="DecisionTree" boostWeight="1.0000000000000000e+00" itree="24">
      <Node pos="s" depth="0" NCoef="0" IVar="4" Cut="2.9041042327880859e+00" cType="1" res="1.1896755495399702e-05" rms="4.2319872975349426e-01" purity="5.0000000000000000e-01" nType="0">
        <Node pos="l" depth="1" NCoef="0" IVar="2" Cut="2.0812370777130127e+00" cType="1" res="1.9094448362011462e-04" rms="4.2325472831726074e-01" purity="5.0292193889617920e-01" nType="0">
          <Node pos="l" depth="2" NCoef="0" IVar="0" Cut="6.3407211303710938e+01" cType="0" res="-2.3750292602926493e-03" rms="4.2385494709014893e-01" purity="6.4335000514984131e-01" nType="0">
            <Node pos="l" depth="3" NCoef="0" IVar="-1" Cut="0.0000000000000000e+00" cType="1" res="-6.0891301836818457e-04" rms="4.1541761159896851e-01" purity="6.5348106622695923e-01" nType="-99"/>
            <Node pos="r" depth="3" NCoef="0" IVar="-1" Cut="0.0000000000000000e+00" cType="1" res="-4.6241223812103271e-02" rms="4.9200418591499329e-01" purity="5.5346226692199707e-01" nType="-99"/>
          </Node>
          <Node pos="r" depth="2" NCoef="0" IVar="8" Cut="1.7776444554328918e-01" cType="0" res="1.9017090089619160e-03" rms="4.2284542322158813e-01" purity="4.0929695963859558e-01" nType="0">
            <Node pos="l" depth="3" NCoef="0" IVar="-1" Cut="0.0000000000000000e+00" cType="1" res="-6.3822194933891296e-02" rms="3.9461117982864380e-01" purity="7.9010307788848877e-01" nType="-99"/>
            <Node pos="r" depth="3" NCoef="0" IVar="-1" Cut="0.0000000000000000e+00" cType="1" res="6.6108810715377331e-03" rms="4.2340388894081116e-01" purity="4.0135386586189270e-01" nType="-99"/>
          </Node>
        </Node>
        <Node pos="r" depth="1" NCoef="0" IVar="5" Cut="2.9506961059570312e+02" cType="0" res="-1.6175393015146255e-02" rms="4.1778624057769775e-01" purity="2.3583181202411652e-01" nType="0">
          <Node pos="l" depth="2" NCoef="0" IVar="1" Cut="6.6403579711914062e+01" cType="1" res="-5.3727895021438599e-02" rms="4.1018348932266235e-01" purity="2.3687423765659332e-01" nType="0">
            <Node pos="l" depth="3" NCoef="0" IVar="-1" Cut="0.0000000000000000e+00" cType="1" res="-2.4824342131614685e-01" rms="4.1441267728805542e-01" purity="2.5966849923133850e-01" nType="-99"/>
            <Node pos="r" depth="3" NCoef="0" IVar="-1" Cut="0.0000000000000000e+00" cType="1" res="-7.1821980178356171e-02" rms="4.0392586588859558e-01" purity="2.1881838142871857e-01" nType="-99"/>
          </Node>
          <Node pos="r" depth="2" NCoef="0" IVar="0" Cut="8.4182365417480469e+01" cType="1" res="6.2902760691940784e-03" rms="4.2066955566406250e-01" purity="2.3520818352699280e-01" nType="0">
            <Node pos="l" depth="3" NCoef="0" IVar="-1" Cut="0.0000000000000000e+00" cType="1" res="6.7293539643287659e-02" rms="4.2886760830879211e-01" purity="2.5113326311111450e-01" nType="-99"/>
            <Node pos="r" depth="3" NCoef="0" IVar="-1" Cut="0.0000000000000000e+00" cType="1" res="-1.8620195984840393e-01" rms="3.7736430764198303e-01" purity="1.6917292773723602e-01" nType="-99"/>
          </Node>
        </Node>
      </Node>
    </BinaryTree>
    <BinaryTree type="DecisionTree" boostWeight="1.0000000000000000e+00" itree="25">
      <Node pos="s" depth="0" NCoef="0" IVar="3" Cut="1.1968667507171631e+00" cType="1" res="-1.4680737876915373e-05" rms="4.2313730716705322e-01" purity="5.0000000000000000e-01" nType="0">
        <Node pos="l" depth="1" NCoef="0" IVar="2" Cut="1.1954884529113770e+00" cType="1" res="3.4746755845844746e-03" rms="4.0449759364128113e-01" purity="6.3440334796905518e-01" nType="0">
          <Node pos="l" depth="2" NCoef="0" IVar="0" Cut="1.2185072326660156e+02" cType="0" res="-4.9532330594956875e-03" rms="3.6262238025665283e-01" purity="6.6314548254013062e-01" nType="0">
            <Node pos="l" depth="3" NCoef="0" IVar="-1" Cut="0.0000000000000000e+00" cType="1" res="8.3283692598342896e-02" rms="2.2223006188869476e-01" purity="8.9543652534484863e-01" nType="-99"/>
            <Node pos="r" depth="3" NCoef="0" IVar="-1" Cut="0.0000000000000000e+00" cType="1" res="-4.3710201978683472e-02" rms="4.4752618670463562e-01" purity="4.6764633059501648e-01" nType="-99"/>
          </Node>
          <Node pos="r" depth="2" NCoef="0" IVar="0" Cut="1.1239625549316406e+02" cType="0" res="1.1649090796709061e-02" rms="4.4117990136146545e-01" purity="6.0652565956115723e-01" nType="0">
            <Node pos="l" depth="3" NCoef="0" IVar="-1" Cut="0.0000000000000000e+00" cType="1" res="-7.6601132750511169e-02" rms="3.4601268172264099e-01" purity="7.9315942525863647e-01" nType="-99"/>
            <Node pos="r" depth="3" NCoef="0" IVar="-1" Cut="0.0000000000000000e+00" cType="1" res="5.8791846036911011e-02" rms="4.8453658819198608e-01" purity="5.0502377748489380e-01" nType="-99"/>
          </Node>
        </Node>
        <Node pos="r" depth="1" NCoef="0" IVar="8" Cut="2.8885960578918457e-01" cType="0" res="-1.0218597017228603e-03" rms="4.2836141586303711e-01" purity="4.6120539307594299e-01" nType="0">
          <Node pos="l" depth="2" NCoef="0" IVar="5" Cut="7.0281120300292969e+01" cType="0" res="8.8064102455973625e-03" rms="3.9297547936439514e-01" purity="7.5371187925338745e-01" nType="0">
            <Node pos="l" depth="3" NCoef="0" IVar="-1" Cut="0.0000000000000000e+00" cType="1" res="7.7956028282642365e-02" rms="3.5175469517707825e-01" purity="8.2802653312683105e-01" nType="-99"/>
            <Node pos="r" depth="3" NCoef="0" IVar="-1" Cut="0.0000000000000000e+00" cType="1" res="-2.7982205152511597e-02" rms="4.6357539296150208e-01" purity="6.0576272010803223e-01" nType="-99"/>
          </Node>
          <Node pos="r" depth="2" NCoef="0" IVar="3" Cut="2.0303459167480469e+00" cType="1" res="-1.6142589738592505e-03" rms="4.3039417266845703e-01" purity="4.4357454776763916e-01" nType="0">
            <Node pos="l" depth="3" NCoef="0" IVar="-1" Cut="0.0000000000000000e+00" cType="1" res="-1.3980885967612267e-02" rms="4.5979014039039612e-01" purity="5.4840284585952759e-01" nType="-99"/>
            <Node pos="r" depth="3" NCoef="0" IVar="-1" Cut="0.0000000000000000e+00" cType="1" res="6.8848603405058384e-04" rms="4.1660499572753906e-01" purity="3.9683118462562561e-01" nType="-99"/>
          </Node>
        </Node>
      </Node>
    </BinaryTree>
    <BinaryTree type="DecisionTree" boostWeight="1.0000000000000000e+00" itree="26">
      <Node pos="s" depth="0" NCoef="0" IVar="8" Cut="7.1302926540374756e-01" cType="0" res="5.3701009164797142e-05" rms="4.2299452424049377e-01" purity="5.0000000000000000e-01" nType="0">
        <Node pos="l" depth="1" NCoef="0" IVar="5" Cut="4.0963733673095703e+01" cType="0" res="9.0306028723716736e-03" rms="3.4569299221038818e-01" purity="6.7684429883956909e-01" nType="0">
          <Node pos="l" depth="2" NCoef="0" IVar="0" Cut="1.4917544555664062e+02" cType="0" res="2.2447045892477036e-02" rms="2.7751889824867249e-01" purity="8.3944398164749146e-01" nType="0">
            <Node pos="l" depth="3" NCoef="0" IVar="-1" Cut="0.0000000000000000e+00" cType="1" res="9.1257058084011078e-02" rms="1.5221451222896576e-01" purity="9.6279233694076538e-01" nType="-99"/>
            <Node pos="r" depth="3" NCoef="0" IVar="-1" Cut="0.0000000000000000e+00" cType="1" res="1.4539253711700439e-01" rms="3.5811349749565125e-01" purity="7.2076374292373657e-01" nType="-99"/>
          </Node>
          <Node pos="r" depth="2" NCoef="0" IVar="6" Cut="1.8105890274047852e+01" cType="1" res="-8.5254749283194542e-03" rms="4.1779911518096924e-01" purity="4.6407458186149597e-01" nType="0">
            <Node pos="l" depth="3" NCoef="0" IVar="-1" Cut="0.0000000000000000e+00" cType="1" res="9.7875736653804779e-02" rms="4.2816901206970215e-01" purity="6.3630986213684082e-01" nType="-99"/>
            <Node pos="r" depth="3" NCoef="0" IVar="-1" Cut="0.0000000000000000e+00" cType="1" res="-1.0452249646186829e-01" rms="4.0880358219146729e-01" purity="3.5648319125175476e-01" nType="-99"/>
          </Node>
        </Node>
        <Node pos="r" depth="1" NCoef="0" IVar="2" Cut="1.1892310380935669e+00" cType="1" res="-4.2638287413865328e-04" rms="4.2672899365425110e-01" purity="4.9054238200187683e-01" nType="0">
          <Node pos="l" depth="2" NCoef="0" IVar="5" Cut="4.6059886932373047e+01" cType="0" res="-8.4797451272606850e-03" rms="3.7493625283241272e-01" purity="6.5662252902984619e-01" nType="0">
            <Node pos="l" depth="3" NCoef="0" IVar="-1" Cut="0.0000000000000000e+00" cType="1" res="-6.0409955680370331e-02" rms="3.4442278742790222e-01" purity="7.1082460880279541e-01" nType="-99"/>
            <Node pos="r" depth="3" NCoef="0" IVar="-1" Cut="0.0000000000000000e+00" cType="1" res="2.7164261788129807e-02" rms="4.7515055537223816e-01" purity="4.4498577713966370e-01" nType="-99"/>
          </Node>
          <Node pos="r" depth="2" NCoef="0" IVar="5" Cut="9.7062202453613281e+01" cType="1" res="1.2087626237189397e-04" rms="4.3001675605773926e-01" purity="4.7925654053688049e-01" nType="0">
            <Node pos="l" depth="3" NCoef="0" IVar="-1" Cut="0.0000000000000000e+00" cType="1" res="9.4063999131321907e-03" rms="4.7379031777381897e-01" purity="6.0636556148529053e-01" nType="-99"/>
            <Node pos="r" depth="3" NCoef="0" IVar="-1" Cut="0.0000000000000000e+00" cType="1" res="-5.2170469425618649e-03" rms="4.0856114029884338e-01" purity="4.2148455977439880e-01" nType="-99"/>
          </Node>
        </Node>
      </Node>
    </BinaryTree>
    <BinaryTree type="DecisionTree" boostWeight="1.0000000000000000e+00" itree="27">
      <Node pos="s" depth="0" NCoef="0" IVar="5" Cut="1.4458053588867188e+02" cType="1" res="2.4076683985185809e-05" rms="4.2287266254425049e-01" purity="5.0000000000000000e-01" nType="0">
        <Node pos="l" depth="1" NCoef="0" IVar="5" Cut="1.3185386657714844e+02" cType="1" res="-1.1712835403159261e-03" rms="4.5525717735290527e-01" purity="6.1681276559829712e-01" nType="0">
          <Node pos="l" depth="2" NCoef="0" IVar="5" Cut="1.1458338928222656e+02" cType="1" res="8.8199478341266513e-04" rms="4.5335170626640320e-01" purity="6.2575417757034302e-01" nType="0">
            <Node pos="l" depth="3" NCoef="0" IVar="-1" Cut="0.0000000000000000e+00" cType="1" res="-2.3234908003360033e-03" rms="4.5117273926734924e-01" purity="6.2605804204940796e-01" nType="-99"/>
            <Node pos="r" depth="3" NCoef="0" IVar="-1" Cut="0.0000000000000000e+00" cType="1" res="1.8513280898332596e-02" rms="4.6158862113952637e-01" purity="6.2458282709121704e-01" nType="-99"/>
          </Node>
          <Node pos="r" depth="2" NCoef="0" IVar="5" Cut="1.4276118469238281e+02" cType="1" res="-2.0309880375862122e-02" rms="4.7221949696540833e-01" purity="5.3346967697143555e-01" nType="0">
            <Node pos="l" depth="3" NCoef="0" IVar="-1" Cut="0.0000000000000000e+00" cType="1" res="-2.2677481174468994e-02" rms="4.7157698869705200e-01" purity="5.4072922468185425e-01" nType="-99"/>
            <Node pos="r" depth="3" NCoef="0" IVar="-1" Cut="0.0000000000000000e+00" cType="1" res="-2.2131870687007904e-01" rms="4.6985444426536560e-01" purity="4.8089888691902161e-01" nType="-99"/>
          </Node>
        </Node>
        <Node pos="r" depth="1" NCoef="0" IVar="0" Cut="8.9073516845703125e+01" cType="0" res="3.7488054949790239e-03" rms="3.0031821131706238e-01" purity="1.3601283729076385e-01" nType="0">
          <Node pos="l" depth="2" NCoef="0" IVar="7" Cut="2.7861831665039062e+01" cType="1" res="1.4338442124426365e-02" rms="3.4647703170776367e-01" purity="2.2358387708663940e-01" nType="0">
            <Node pos="l" depth="3" NCoef="0" IVar="-1" Cut="0.0000000000000000e+00" cType="1" res="2.9821756482124329e-01" rms="4.2538636922836304e-01" purity="2.8205129504203796e-01" nType="-99"/>
            <Node pos="r" depth="3" NCoef="0" IVar="-1" Cut="0.0000000000000000e+00" cType="1" res="6.0334686189889908e-02" rms="3.4281438589096069e-01" purity="2.2132654488086700e-01" nType="-99"/>
          </Node>
          <Node pos="r" depth="2" NCoef="0" IVar="7" Cut="7.5791801452636719e+01" cType="1" res="-8.3900627214461565e-04" rms="2.7782550454139709e-01" purity="9.8073914647102356e-02" nType="0">
            <Node pos="l" depth="3" NCoef="0" IVar="-1" Cut="0.0000000000000000e+00" cType="1" res="1.6718441620469093e-02" rms="3.5626435279846191e-01" purity="1.6886959969997406e-01" nType="-99"/>
            <Node pos="r" depth="3" NCoef="0" IVar="-1" Cut="0.0000000000000000e+00" cType="1" res="-6.0693971812725067e-02" rms="1.9155956804752350e-01" purity="4.0489945560693741e-02" nType="-99"/>
          </Node>
        </Node>
      </Node>
    </BinaryTree>
    <BinaryTree type="DecisionTree" boostWeight="1.0000000000000000e+00" itree="28">
      <Node pos="s" depth="0" NCoef="0" IVar="1" Cut="4.7374309539794922e+01" cType="1" res="-6.5908701799344271e-05" rms="4.2272269725799561e-01" purity="5.0000000000000000e-01" nType="0">
        <Node pos="l" depth="1" NCoef="0" IVar="4" Cut="1.9774451255798340e+00" cType="1" res="-2.1041210275143385e-03" rms="4.5872873067855835e-01" purity="5.9900689125061035e-01" nType="0">
          <Node pos="l" depth="2" NCoef="0" IVar="0" Cut="1.0966313934326172e+02" cType="0" res="-6.9729279493913054e-04" rms="4.5986589789390564e-01" purity="6.2124717235565186e-01" nType="0">
            <Node pos="l" depth="3" NCoef="0" IVar="-1" Cut="0.0000000000000000e+00" cType="1" res="-7.6076894998550415e-02" rms="3.1677713990211487e-01" purity="8.5296988487243652e-01" nType="-99"/>
            <Node pos="r" depth="3" NCoef="0" IVar="-1" Cut="0.0000000000000000e+00" cType="1" res="2.8195215854793787e-03" rms="4.7910732030868530e-01" purity="5.8351552486419678e-01" nType="-99"/>
          </Node>
          <Node pos="r" depth="2" NCoef="0" IVar="1" Cut="3.0427097320556641e+01" cType="1" res="-1.6640627756714821e-02" rms="4.4654977321624756e-01" purity="3.6920177936553955e-01" nType="0">
            <Node pos="l" depth="3" NCoef="0" IVar="-1" Cut="0.0000000000000000e+00" cType="1" res="-9.0623147785663605e-02" rms="4.6357461810112000e-01" purity="4.2630907893180847e-01" nType="-99"/>
            <Node pos="r" depth="3" NCoef="0" IVar="-1" Cut="0.0000000000000000e+00" cType="1" res="6.1901593580842018e-03" rms="4.3056848645210266e-01" purity="3.2037562131881714e-01" nType="-99"/>
          </Node>
        </Node>
        <Node pos="r" depth="1" NCoef="0" IVar="5" Cut="8.2719497680664062e+01" cType="1" res="1.8253795569762588e-03" rms="3.8631236553192139e-01" purity="4.0813001990318298e-01" nType="0">
          <Node pos="l" depth="2" NCoef="0" IVar="5" Cut="7.9547637939453125e+01" cType="0" res="1.5849404036998749e-02" rms="4.1117218136787415e-01" purity="4.7913330793380737e-01" nType="0">
            <Node pos="l" depth="3" NCoef="0" IVar="-1" Cut="0.0000000000000000e+00" cType="1" res="-1.0049192607402802e-01" rms="4.4612491130828857e-01" purity="6.1019384860992432e-01" nType="-99"/>
            <Node pos="r" depth="3" NCoef="0" IVar="-1" Cut="0.0000000000000000e+00" cType="1" res="7.7148541808128357e-02" rms="4.0508252382278442e-01" purity="4.5933637022972107e-01" nType="-99"/>
          </Node>
          <Node pos="r" depth="2" NCoef="0" IVar="3" Cut="2.2440264225006104e+00" cType="1" res="2.2681191330775619e-04" rms="3.8334375619888306e-01" purity="4.0003651380538940e-01" nType="0">
            <Node pos="l" depth="3" NCoef="0" IVar="-1" Cut="0.0000000000000000e+00" cType="1" res="-1.0444080457091331e-02" rms="4.1598364710807800e-01" purity="5.6064230203628540e-01" nType="-99"/>
            <Node pos="r" depth="3" NCoef="0" IVar="-1" Cut="0.0000000000000000e+00" cType="1" res="1.3733364641666412e-02" rms="3.5337731242179871e-01" purity="2.6426759362220764e-01" nType="-99"/>
          </Node>
        </Node>
      </Node>
    </BinaryTree>
    <BinaryTree type="DecisionTree" boostWeight="1.0000000000000000e+00" itree="29">
      <Node pos="s" depth="0" NCoef="0" IVar="5" Cut="7.7772727966308594e+01" cType="1" res="1.4698880477226339e-05" rms="4.2265248298645020e-01" purity="5.0000000000000000e-01" nType="0">
        <Node pos="l" depth="1" NCoef="0" IVar="8" Cut="-7.1436321735382080e-01" cType="1" res="-4.7929431311786175e-03" rms="4.4759613275527954e-01" purity="5.8222675323486328e-01" nType="0">
          <Node pos="l" depth="2" NCoef="0" IVar="5" Cut="6.8440277099609375e+01" cType="1" res="4.6906240284442902e-02" rms="4.8328852653503418e-01" purity="6.3798451423645020e-01" nType="0">
            <Node pos="l" depth="3" NCoef="0" IVar="-1" Cut="0.0000000000000000e+00" cType="1" res="2.1815879642963409e-01" rms="4.6893447637557983e-01" purity="6.9211822748184204e-01" nType="-99"/>
            <Node pos="r" depth="3" NCoef="0" IVar="-1" Cut="0.0000000000000000e+00" cType="1" res="4.2262550443410873e-02" rms="4.8744514584541321e-01" purity="6.1312216520309448e-01" nType="-99"/>
          </Node>
          <Node pos="r" depth="2" NCoef="0" IVar="3" Cut="2.2437376976013184e+00" cType="0" res="-6.4272694289684296e-03" rms="4.4632366299629211e-01" purity="5.8046412467956543e-01" nType="0">
            <Node pos="l" depth="3" NCoef="0" IVar="-1" Cut="0.0000000000000000e+00" cType="1" res="-9.8587505519390106e-02" rms="4.8805686831474304e-01" purity="6.0965371131896973e-01" nType="-99"/>
            <Node pos="r" depth="3" NCoef="0" IVar="-1" Cut="0.0000000000000000e+00" cType="1" res="-9.3931118026375771e-03" rms="4.4289132952690125e-01" purity="5.7826501131057739e-01" nType="-99"/>
          </Node>
        </Node>
        <Node pos="r" depth="1" NCoef="0" IVar="8" Cut="-7.1967118978500366e-01" cType="0" res="1.2964180205017328e-03" rms="4.1574051976203918e-01" purity="4.7807830572128296e-01" nType="0">
          <Node pos="l" depth="2" NCoef="0" IVar="7" Cut="3.5840721130371094e+01" cType="1" res="3.9565330371260643e-03" rms="4.3413081765174866e-01" purity="5.7455605268478394e-01" nType="0">
            <Node pos="l" depth="3" NCoef="0" IVar="-1" Cut="0.0000000000000000e+00" cType="1" res="4.6592790633440018e-02" rms="4.4061014056205750e-01" purity="6.7158174514770508e-01" nType="-99"/>
            <Node pos="r" depth="3" NCoef="0" IVar="-1" Cut="0.0000000000000000e+00" cType="1" res="4.3226615525782108e-03" rms="4.3299075961112976e-01" purity="5.5830687284469604e-01" nType="-99"/>
          </Node>
          <Node pos="r" depth="2" NCoef="0" IVar="0" Cut="1.3354940795898438e+02" cType="1" res="-3.8372871931642294e-03" rms="3.7767359614372253e-01" purity="2.9188778996467590e-01" nType="0">
            <Node pos="l" depth="3" NCoef="0" IVar="-1" Cut="0.0000000000000000e+00" cType="1" res="-9.9553540349006653e-03" rms="3.7872752547264099e-01" purity="2.9544717073440552e-01" nType="-99"/>
            <Node pos="r" depth="3" NCoef="0" IVar="-1" Cut="0.0000000000000000e+00" cType="1" res="-1.9596377015113831e-01" rms="3.3851715922355652e-01" purity="1.7192530632019043e-01" nType="-99"/>
          </Node>
        </Node>
      </Node>
    </BinaryTree>
    <BinaryTree type="DecisionTree" boostWeight="1.0000000000000000e+00" itree="30">
      <Node pos="s" depth="0" NCoef="0" IVar="5" Cut="2.7819613647460938e+02" cType="1" res="2.8638114599743858e-05" rms="4.2249870300292969e-01" purity="5.0000000000000000e-01" nType="0">
        <Node pos="l" depth="1" NCoef="0" IVar="5" Cut="1.3820788574218750e+02" cType="1" res="-3.3264615922234952e-04" rms="4.2832410335540771e-01" purity="5.1713639497756958e-01" nType="0">
          <Node pos="l" depth="2" NCoef="0" IVar="5" Cut="1.3214848327636719e+02" cType="1" res="-1.9119937205687165e-03" rms="4.5404025912284851e-01" purity="6.2235164642333984e-01" nType="0">
